{"learner":{"attributes":{},"feature_names":[],"feature_types":[],"gradient_booster":{"model":{"cats":{"enc":[],"feature_segments":[],"sorted_idx":[]},"gbtree_model_param":{"num_parallel_tree":"1","num_trees":"100"},"iteration_indptr":[0,1,2,3,4,5,6,7,8,9,10,11,12,13,14,15,16,17,18,19,20,21,22,23,24,25,26,27,28,29,30,31,32,33,34,35,36,37,38,39,40,41,42,43,44,45,46,47,48,49,50,51,52,53,54,55,56,57,58,59,60,61,62,63,64,65,66,67,68,69,70,71,72,73,74,75,76,77,78,79,80,81,82,83,84,85,86,87,88,89,90,91,92,93,94,95,96,97,98,99,100],"tree_info":[0,0,0,0,0,0,0,0,0,0,0,0,0,0,0,0,0,0,0,0,0,0,0,0,0,0,0,0,0,0,0,0,0,0,0,0,0,0,0,0,0,0,0,0,0,0,0,0,0,0,0,0,0,0,0,0,0,0,0,0,0,0,0,0,0,0,0,0,0,0,0,0,0,0,0,0,0,0,0,0,0,0,0,0,0,0,0,0,0,0,0,0,0,0,0,0,0,0,0,0],"trees":[{"base_weights":[1.8973979E0,1.9414765E-1,1.742967E0,1.3905168E-2,1.7707256E0,8.1634894E-2,-7.954912E-2,1.7855251E-1,-2.5378314E-3],"categories":[],"categories_nodes":[],"categories_segments":[],"categories_sizes":[],"default_left":[0,0,0,0,0,0,0,0,0],"id":0,"left_children":[1,-1,3,5,7,-1,-1,-1,-1],"loss_changes":[1.8151855E-1,0E0,6.026642E0,2.5978835E0,3.3434753E0,0E0,0E0,0E0,0E0],"parents":[2147483647,0,0,2,2,3,3,4,4],"right_children":[2,-1,4,6,8,-1,-1,-1,-1],"split_conditions":[2.7E1,1.9414765E-1,2.5E-1,2.8E1,1E0,8.1634894E-2,-7.954912E-2,1.7855251E-1,-2.5378314E-3],"split_indices":[0,0,44,0,52,0,0,0,0],"split_type":[0,0,0,0,0,0,0,0,0],"sum_hessian":[5.22749E2,3.9767148E2,1.2507753E2,2E0,1.2307753E2,1E0,1E0,1.2207753E2,1E0],"tree_param":{"num_deleted":"0","num_feature":"59","num_nodes":"9","size_leaf_vector":"1"}},{"base_weights":[1.729785E0,1.8301947E-1,1.6558772E0,1.3103061E0,1.683447E0,1.3720186E-1,-1.5686039E-2,1.6992503E-1,1.13188244E-1],"categories":[],"categories_nodes":[],"categories_segments":[],"categories_sizes":[],"default_left":[0,0,0,0,0,0,0,0,0],"id":1,"left_children":[1,-1,3,5,7,-1,-1,-1,-1],"loss_changes":[8.104248E-1,0E0,7.3480225E-1,2.6884766E0,5.375366E-1,0E0,0E0,0E0,0E0],"parents":[2147483647,0,0,2,2,3,3,4,4],"right_children":[2,-1,4,6,8,-1,-1,-1,-1],"split_conditions":[7.5E-1,1.8301947E-1,7.5E-1,1E0,1E0,1.3720186E-1,-1.5686039E-2,1.6992503E-1,1.13188244E-1],"split_indices":[21,0,13,42,58,0,0,0,0],"split_type":[0,0,0,0,0,0,0,0,0],"sum_hessian":[5.1659796E2,2.0895395E2,3.0764404E2,2.631599E1,2.8132803E2,2.531599E1,1E0,2.7146915E2,9.858882E0],"tree_param":{"num_deleted":"0","num_feature":"59","num_nodes":"9","size_leaf_vector":"1"}},{"base_weights":[1.57782E0,1.6206639E0,1.4303335E0,1.6352494E-1,1.187091E0,-1.08803034E-1,1.4565355E0,1.2741555E-1,-7.2574676E-3,6.840218E-2,-8.472263E-2,1.4704177E-1,-1.0907191E-2],"categories":[],"categories_nodes":[],"categories_segments":[],"categories_sizes":[],"default_left":[0,0,0,0,0,0,0,0,0,0,0,0,0],"id":2,"left_children":[1,3,5,-1,7,9,11,-1,-1,-1,-1,-1,-1],"loss_changes":[9.135742E-1,5.17395E-1,5.1445007E0,0E0,1.8803215E0,2.3358421E0,2.804016E0,0E0,0E0,0E0,0E0,0E0,0E0],"parents":[2147483647,0,0,1,1,2,2,4,4,5,5,6,6],"right_children":[2,4,6,-1,8,10,12,-1,-1,-1,-1,-1,-1],"split_conditions":[2.7E1,1E0,2.5E-1,1.6352494E-1,1E0,2.8E1,1E0,1.2741555E-1,-7.2574676E-3,6.840218E-2,-8.472263E-2,1.4704177E-1,-1.0907191E-2],"split_indices":[0,24,44,0,22,0,52,0,0,0,0,0,0],"split_type":[0,0,0,0,0,0,0,0,0,0,0,0,0],"sum_hessian":[5.1041135E2,3.877762E2,1.22635124E2,3.7247446E2,1.5301752E1,2E0,1.20635124E2,1.4301752E1,1E0,1E0,1E0,1.19635124E2,1E0],"tree_param":{"num_deleted":"0","num_feature":"59","num_nodes":"13","size_leaf_vector":"1"}},{"base_weights":[1.4395406E0,1.5355115E-1,1.3696818E0,1.0604806E0,1.394542E0,1.23213254E-1,3.300229E-2,1.4089338E-1,9.0573594E-2],"categories":[],"categories_nodes":[],"categories_segments":[],"categories_sizes":[],"default_left":[0,0,0,0,0,0,0,0,0],"id":3,"left_children":[1,-1,3,5,7,-1,-1,-1,-1],"loss_changes":[1.2833252E0,0E0,8.392334E-1,2.9307919E0,6.652832E-1,0E0,0E0,0E0,0E0],"parents":[2147483647,0,0,2,2,3,3,4,4],"right_children":[2,-1,4,6,8,-1,-1,-1,-1],"split_conditions":[7.5E-1,1.5355115E-1,7.5E-1,1E0,1E0,1.23213254E-1,3.300229E-2,1.4089338E-1,9.0573594E-2],"split_indices":[21,0,13,21,58,0,0,0,0],"split_type":[0,0,0,0,0,0,0,0,0],"sum_hessian":[5.0410767E2,2.0352644E2,3.0058124E2,2.5617537E1,2.7496368E2,2.018696E1,5.4305763E0,2.6527097E2,9.692726E0],"tree_param":{"num_deleted":"0","num_feature":"59","num_nodes":"9","size_leaf_vector":"1"}},{"base_weights":[1.3136443E0,1.3547324E0,1.1744021E0,1.3686196E0,9.569536E-1,-2.0573032E-1,1.1992868E0,1.4536406E-1,1.3044888E-1,1.0387876E-1,-1.3939264E-2,5.7304513E-2,-8.816406E-2,1.2257552E-1,2.9354498E-2],"categories":[],"categories_nodes":[],"categories_segments":[],"categories_sizes":[],"default_left":[0,0,0,0,0,0,0,0,0,0,0,0,0,0,0],"id":4,"left_children":[1,3,5,7,9,11,13,-1,-1,-1,-1,-1,-1,-1,-1],"loss_changes":[1.2634277E0,7.8234863E-1,4.40889E0,8.6364746E-2,1.5893154E0,2.084367E0,2.497589E0,0E0,0E0,0E0,0E0,0E0,0E0,0E0,0E0],"parents":[2147483647,0,0,1,1,2,2,3,3,4,4,5,5,6,6],"right_children":[2,4,6,8,10,12,14,-1,-1,-1,-1,-1,-1,-1,-1],"split_conditions":[2.7E1,1E0,2.5E-1,7.5E-1,1E0,2.8E1,1E0,1.4536406E-1,1.3044888E-1,1.0387876E-1,-1.3939264E-2,5.7304513E-2,-8.816406E-2,1.2257552E-1,2.9354498E-2],"split_indices":[0,24,44,21,22,0,19,0,0,0,0,0,0,0,0],"split_type":[0,0,0,0,0,0,0,0,0,0,0,0,0,0,0],"sum_hessian":[4.9791385E2,3.777242E2,1.2018965E2,3.6262366E2,1.5100555E1,2E0,1.1818965E2,1.4660132E2,2.1602234E2,1.4100555E1,1E0,1E0,1E0,1.1449058E2,3.699071E0],"tree_param":{"num_deleted":"0","num_feature":"59","num_nodes":"15","size_leaf_vector":"1"}},{"base_weights":[1.1989658E0,1.2859704E0,1.1361922E0,1.296588E-1,7.9455346E-2,8.6065614E-1,1.1584882E0,1.02365695E-1,1.990464E-2,1.1717435E-1,7.2168455E-2],"categories":[],"categories_nodes":[],"categories_segments":[],"categories_sizes":[],"default_left":[0,0,0,0,0,0,0,0,0,0,0],"id":5,"left_children":[1,3,5,-1,-1,7,9,-1,-1,-1,-1],"loss_changes":[1.2298584E0,7.6904297E-3,8.1399536E-1,0E0,0E0,2.5957203E0,7.1676636E-1,0E0,0E0,0E0,0E0],"parents":[2147483647,0,0,1,1,2,2,5,5,6,6],"right_children":[2,4,6,-1,-1,8,10,-1,-1,-1,-1],"split_conditions":[7.5E-1,1E0,7.5E-1,1.296588E-1,7.9455346E-2,1E0,1E0,1.02365695E-1,1.990464E-2,1.1717435E-1,7.2168455E-2],"split_indices":[21,58,13,0,0,21,58,0,0,0,0],"split_type":[0,0,0,0,0,0,0,0,0,0,0],"sum_hessian":[4.9171872E2,1.9791756E2,2.9380118E2,1.9212794E2,5.789604E0,2.4958838E1,2.6884235E2,1.9586172E1,5.3726654E0,2.5929132E2,9.551025E0],"tree_param":{"num_deleted":"0","num_feature":"59","num_nodes":"11","size_leaf_vector":"1"}},{"base_weights":[1.094166E0,1.1332812E0,9.6352637E-1,1.1466451E0,7.6541805E-1,-2.8188303E-1,9.8725945E-1,1.1602099E-1,8.4235854E-2,8.426933E-2,-1.9451248E-2,4.7956344E-2,-9.02388E-2,1.0008585E-1,-2.9393995E-2],"categories":[],"categories_nodes":[],"categories_segments":[],"categories_sizes":[],"default_left":[0,0,0,0,0,0,0,0,0,0,0,0,0,0,0],"id":6,"left_children":[1,3,5,7,9,11,13,-1,-1,-1,-1,-1,-1,-1,-1],"loss_changes":[1.3951416E0,9.359436E-1,3.7905579E0,4.8364258E-1,1.3462791E0,1.8501962E0,2.3296814E0,0E0,0E0,0E0,0E0,0E0,0E0,0E0,0E0],"parents":[2147483647,0,0,1,1,2,2,3,3,4,4,5,5,6,6],"right_children":[2,4,6,8,10,12,14,-1,-1,-1,-1,-1,-1,-1,-1],"split_conditions":[2.7E1,1E0,2.5E-1,1E0,1E0,2.8E1,1E0,1.1602099E-1,8.4235854E-2,8.426933E-2,-1.9451248E-2,4.7956344E-2,-9.02388E-2,1.0008585E-1,-2.9393995E-2],"split_indices":[0,24,44,56,3,0,52,0,0,0,0,0,0,0,0],"split_type":[0,0,0,0,0,0,0,0,0,0,0,0,0,0,0],"sum_hessian":[4.8572604E2,3.678977E2,1.1782835E2,3.529583E2,1.49393635E1,2E0,1.1582835E2,3.3520242E2,1.7755903E1,1.39393635E1,1E0,1E0,1E0,1.1482835E2,1E0],"tree_param":{"num_deleted":"0","num_feature":"59","num_nodes":"15","size_leaf_vector":"1"}},{"base_weights":[9.9816847E-1,1.0819327E0,9.384428E-1,8.468884E-1,1.1112514E0,8.387936E-1,1.0015862E0,1.0260194E-1,-9.895779E-3,1.1219461E-1,6.1385114E-2,9.405001E-2,4.0197965E-2,3.4561213E-2,1.0099613E-1],"categories":[],"categories_nodes":[],"categories_segments":[],"categories_sizes":[],"default_left":[0,0,0,0,0,0,0,0,0,0,0,0,0,0,0],"id":7,"left_children":[1,3,5,7,9,11,13,-1,-1,-1,-1,-1,-1,-1,-1],"loss_changes":[1.3900757E0,3.9294434E-1,9.733734E-1,4.451353E0,2.0985413E-1,4.861885E0,5.9187317E-1,0E0,0E0,0E0,0E0,0E0,0E0,0E0,0E0],"parents":[2147483647,0,0,1,1,2,2,3,3,4,4,5,5,6,6],"right_children":[2,4,6,8,10,12,14,-1,-1,-1,-1,-1,-1,-1,-1],"split_conditions":[7.5E-1,2.5E-1,1E0,3E1,1E0,2.7E1,5E-1,1.0260194E-1,-9.895779E-3,1.1219461E-1,6.1385114E-2,9.405001E-2,4.0197965E-2,3.4561213E-2,1.0099613E-1],"split_indices":[21,35,13,0,58,0,34,0,0,0,0,0,0,0,0],"split_type":[0,0,0,0,0,0,0,0,0,0,0,0,0,0,0],"sum_hessian":[4.7980685E2,1.9258905E2,2.872178E2,2.467322E1,1.6791583E2,1.1694535E2,1.7027246E2,2.067322E1,4E0,1.6315224E2,4.7635946E0,9.392339E1,2.3021957E1,2.6793396E0,1.6759312E2],"tree_param":{"num_deleted":"0","num_feature":"59","num_nodes":"15","size_leaf_vector":"1"}},{"base_weights":[9.1077924E-1,9.896096E-1,8.5482925E-1,7.724397E-1,1.0168929E0,8.696366E-1,4.9965277E-1,9.375792E-2,-9.104117E-3,1.1742461E-1,9.666024E-2,9.101668E-2,7.334899E-2,-1.7393423E-3,5.41515E-2],"categories":[],"categories_nodes":[],"categories_segments":[],"categories_sizes":[],"default_left":[0,0,0,0,0,0,0,0,0,0,0,0,0,0,0],"id":8,"left_children":[1,3,5,7,9,11,13,-1,-1,-1,-1,-1,-1,-1,-1],"loss_changes":[1.2497559E0,3.456421E-1,1.0656738E0,3.7167482E0,1.8203735E-1,8.359833E-1,3.073938E-1,0E0,0E0,0E0,0E0,0E0,0E0,0E0,0E0],"parents":[2147483647,0,0,1,1,2,2,3,3,4,4,5,5,6,6],"right_children":[2,4,6,8,10,12,14,-1,-1,-1,-1,-1,-1,-1,-1],"split_conditions":[7.5E-1,2.5E-1,1E0,3E1,5E-1,2.7E1,2.2E1,9.375792E-2,-9.104117E-3,1.1742461E-1,9.666024E-2,9.101668E-2,7.334899E-2,-1.7393423E-3,5.41515E-2],"split_indices":[21,35,56,0,21,0,0,0,0,0,0,0,0,0,0],"split_type":[0,0,0,0,0,0,0,0,0,0,0,0,0,0,0],"sum_hessian":[4.7415363E2,1.899032E2,2.8425043E2,2.446649E1,1.654367E2,2.714838E2,1.2766635E1,2.046649E1,4E0,3.465529E1,1.3078142E2,2.048236E2,6.666019E1,1E0,1.1766635E1],"tree_param":{"num_deleted":"0","num_feature":"59","num_nodes":"15","size_leaf_vector":"1"}},{"base_weights":[8.3084905E-1,8.149627E-1,1.1302176E0,8.9353967E-1,7.60804E-1,1.1962954E0,3.331261E-2,6.7581646E-2,9.2236064E-2,7.7442065E-2,4.4374555E-2,1.2299228E-1,2.9408282E-2],"categories":[],"categories_nodes":[],"categories_segments":[],"categories_sizes":[],"default_left":[0,0,0,0,0,0,0,0,0,0,0,0,0],"id":9,"left_children":[1,3,5,7,9,11,-1,-1,-1,-1,-1,-1,-1],"loss_changes":[1.3127747E0,1.2336426E0,7.119999E-1,4.918518E-1,8.3451843E-1,2.1730042E-1,0E0,0E0,0E0,0E0,0E0,0E0,0E0],"parents":[2147483647,0,0,1,1,2,2,3,3,4,4,5,5],"right_children":[2,4,6,8,10,12,-1,-1,-1,-1,-1,-1,-1],"split_conditions":[1E0,7.5E-1,1E0,2.5E-1,1E0,1E0,3.331261E-2,6.7581646E-2,9.2236064E-2,7.7442065E-2,4.4374555E-2,1.2299228E-1,2.9408282E-2],"split_indices":[5,21,10,35,54,50,0,0,0,0,0,0,0],"split_type":[0,0,0,0,0,0,0,0,0,0,0,0,0],"sum_hessian":[4.6870605E2,4.4862164E2,2.0084402E1,1.767226E2,2.7189905E2,1.8084402E1,2E0,2.3516893E1,1.532057E2,2.593196E2,1.2579439E1,1.7084402E1,1E0],"tree_param":{"num_deleted":"0","num_feature":"59","num_nodes":"13","size_leaf_vector":"1"}},{"base_weights":[7.5765437E-1,7.4212587E-1,1.0580795E0,7.5265324E-1,4.237424E-1,1.1221163E0,3.1091768E-2,9.2578284E-2,7.2830275E-2,5.3645145E-2,-2.6345843E-2,1.1585074E-1,2.4299942E-2],"categories":[],"categories_nodes":[],"categories_segments":[],"categories_sizes":[],"default_left":[0,0,0,0,0,0,0,0,0,0,0,0,0],"id":10,"left_children":[1,3,5,7,9,11,-1,-1,-1,-1,-1,-1,-1],"loss_changes":[1.3816833E0,1.1726532E0,6.310024E-1,1.136322E0,1.4217792E0,3.096962E-1,0E0,0E0,0E0,0E0,0E0,0E0,0E0],"parents":[2147483647,0,0,1,1,2,2,3,3,4,4,5,5],"right_children":[2,4,6,8,10,12,-1,-1,-1,-1,-1,-1,-1],"split_conditions":[1E0,1E0,1E0,5E-1,3.3E1,1E0,3.1091768E-2,9.2578284E-2,7.2830275E-2,5.3645145E-2,-2.6345843E-2,1.1585074E-1,2.4299942E-2],"split_indices":[5,58,10,21,0,25,0,0,0,0,0,0,0],"split_type":[0,0,0,0,0,0,0,0,0,0,0,0,0],"sum_hessian":[4.6349246E2,4.440124E2,1.948007E1,4.2848062E2,1.5531757E1,1.748007E1,2E0,4.826968E1,3.8021097E2,1.3531757E1,2E0,1.648007E1,1E0],"tree_param":{"num_deleted":"0","num_feature":"59","num_nodes":"13","size_leaf_vector":"1"}},{"base_weights":[6.904216E-1,6.752861E-1,9.911334E-1,7.48031E-1,6.2570274E-1,1.0532936E0,2.9018987E-2,5.3606953E-2,7.771763E-2,6.3995786E-2,3.1506024E-2,1.0894445E-1,2.2145329E-2],"categories":[],"categories_nodes":[],"categories_segments":[],"categories_sizes":[],"default_left":[0,0,0,0,0,0,0,0,0,0,0,0,0],"id":11,"left_children":[1,3,5,7,9,11,-1,-1,-1,-1,-1,-1,-1],"loss_changes":[1.4223785E0,1.12146E0,5.6072235E-1,6.552429E-1,9.859085E-1,2.9655647E-1,0E0,0E0,0E0,0E0,0E0,0E0,0E0],"parents":[2147483647,0,0,1,1,2,2,3,3,4,4,5,5],"right_children":[2,4,6,8,10,12,-1,-1,-1,-1,-1,-1,-1],"split_conditions":[1E0,7.5E-1,1E0,2.5E-1,1E0,1E0,2.9018987E-2,5.3606953E-2,7.771763E-2,6.3995786E-2,3.1506024E-2,1.0894445E-1,2.2145329E-2],"split_indices":[5,21,10,35,56,50,0,0,0,0,0,0,0],"split_type":[0,0,0,0,0,0,0,0,0,0,0,0,0],"sum_hessian":[4.585643E2,4.396799E2,1.8884398E1,1.7250597E2,2.6717392E2,1.6884398E1,2E0,2.319698E1,1.4930899E2,2.5443788E2,1.2736046E1,1.58843975E1,1E0],"tree_param":{"num_deleted":"0","num_feature":"59","num_nodes":"13","size_leaf_vector":"1"}},{"base_weights":[6.2904274E-1,6.1434525E-1,9.288702E-1,6.47932E-1,5.104836E-1,9.892804E-1,2.7084386E-2,6.6265374E-2,3.127254E-2,-4.9017895E-2,5.332598E-2,1.0283267E-1,1.763772E-2],"categories":[],"categories_nodes":[],"categories_segments":[],"categories_sizes":[],"default_left":[0,0,0,0,0,0,0,0,0,0,0,0,0],"id":12,"left_children":[1,3,5,7,9,11,-1,-1,-1,-1,-1,-1,-1],"loss_changes":[1.4337769E0,1.1921234E0,4.9933815E-1,1.4023285E0,2.8001308E0,3.6779976E-1,0E0,0E0,0E0,0E0,0E0,0E0,0E0],"parents":[2147483647,0,0,1,1,2,2,3,3,4,4,5,5],"right_children":[2,4,6,8,10,12,-1,-1,-1,-1,-1,-1,-1],"split_conditions":[1E0,2.7E1,1E0,1E0,2.5E-1,1E0,2.7084386E-2,6.6265374E-2,3.127254E-2,-4.9017895E-2,5.332598E-2,1.0283267E-1,1.763772E-2],"split_indices":[5,0,10,24,44,25,0,0,0,0,0,0,0],"split_type":[0,0,0,0,0,0,0,0,0,0,0,0,0],"sum_hessian":[4.5385892E2,4.3555707E2,1.8301868E1,3.251665E2,1.1039054E2,1.6301868E1,2E0,3.1055078E2,1.461574E1,2E0,1.0839054E2,1.53018675E1,1E0],"tree_param":{"num_deleted":"0","num_feature":"59","num_nodes":"13","size_leaf_vector":"1"}},{"base_weights":[5.7260484E-1,5.583718E-1,8.70784E-1,7.2666496E-1,5.3567237E-1,9.295413E-1,2.527876E-2,7.709632E-2,3.9773234E-3,5.4908484E-2,2.4755022E-2,9.684151E-2,1.589643E-2],"categories":[],"categories_nodes":[],"categories_segments":[],"categories_sizes":[],"default_left":[0,0,0,0,0,0,0,0,0,0,0,0,0],"id":13,"left_children":[1,3,5,7,9,11,-1,-1,-1,-1,-1,-1,-1],"loss_changes":[1.4253693E0,1.2636871E0,4.4526482E-1,1.4487629E0,1.3521576E0,3.473053E-1,0E0,0E0,0E0,0E0,0E0,0E0,0E0],"parents":[2147483647,0,0,1,1,2,2,3,3,4,4,5,5],"right_children":[2,4,6,8,10,12,-1,-1,-1,-1,-1,-1,-1],"split_conditions":[1E0,5E-1,1E0,1E0,1E0,1E0,2.527876E-2,7.709632E-2,3.9773234E-3,5.4908484E-2,2.4755022E-2,9.684151E-2,1.589643E-2],"split_indices":[5,21,10,51,56,50,0,0,0,0,0,0,0],"split_type":[0,0,0,0,0,0,0,0,0,0,0,0,0],"sum_hessian":[4.494229E2,4.316896E2,1.7733318E1,4.762039E1,3.840692E2,1.5733319E1,2E0,4.462039E1,3E0,3.6612003E2,1.7949175E1,1.4733319E1,1E0],"tree_param":{"num_deleted":"0","num_feature":"59","num_nodes":"13","size_leaf_vector":"1"}},{"base_weights":[5.2109677E-1,5.0736505E-1,8.164948E-1,5.3505826E-1,3.8646743E-1,8.7366647E-1,2.359351E-2,5.1992454E-2,9.877734E-2,-2.4172695E-2,4.3803863E-2,9.1551654E-2,1.1913759E-2],"categories":[],"categories_nodes":[],"categories_segments":[],"categories_sizes":[],"default_left":[0,0,0,0,0,0,0,0,0,0,0,0,0],"id":14,"left_children":[1,3,5,7,9,11,-1,-1,-1,-1,-1,-1,-1],"loss_changes":[1.3959885E0,1.2298355E0,3.9737892E-1,1.8605576E0,2.813342E0,4.019251E-1,0E0,0E0,0E0,0E0,0E0,0E0,0E0],"parents":[2147483647,0,0,1,1,2,2,3,3,4,4,5,5],"right_children":[2,4,6,8,10,12,-1,-1,-1,-1,-1,-1,-1],"split_conditions":[1E0,1E0,1E0,1E0,5E-1,1E0,2.359351E-2,5.1992454E-2,9.877734E-2,-2.4172695E-2,4.3803863E-2,9.1551654E-2,1.1913759E-2],"split_indices":[5,22,10,25,44,25,0,0,0,0,0,0,0],"split_type":[0,0,0,0,0,0,0,0,0,0,0,0,0],"sum_hessian":[4.4527588E2,4.280933E2,1.7182573E1,3.4552136E2,8.257194E1,1.5182574E1,2E0,3.3642355E2,9.097797E0,5.9846745E0,7.6587265E1,1.4182574E1,1E0],"tree_param":{"num_deleted":"0","num_feature":"59","num_nodes":"13","size_leaf_vector":"1"}},{"base_weights":[4.7403374E-1,4.6083283E-1,7.6561373E-1,4.7113988E-1,1.7096627E-1,8.212453E-1,2.202061E-2,5.414477E-2,4.2410746E-2,3.0680865E-2,-3.196661E-2,8.62937E-2,1.0524024E-2],"categories":[],"categories_nodes":[],"categories_segments":[],"categories_sizes":[],"default_left":[0,0,0,0,0,0,0,0,0,0,0,0,0],"id":15,"left_children":[1,3,5,7,9,11,-1,-1,-1,-1,-1,-1,-1],"loss_changes":[1.3500443E0,1.191452E0,3.546772E-1,1.1279831E0,1.1770213E0,3.763466E-1,0E0,0E0,0E0,0E0,0E0,0E0,0E0],"parents":[2147483647,0,0,1,1,2,2,3,3,4,4,5,5],"right_children":[2,4,6,8,10,12,-1,-1,-1,-1,-1,-1,-1],"split_conditions":[1E0,1E0,1E0,7.5E-1,3E1,1E0,2.202061E-2,5.414477E-2,4.2410746E-2,3.0680865E-2,-3.196661E-2,8.62937E-2,1.0524024E-2],"split_indices":[5,58,10,21,0,50,0,0,0,0,0,0,0],"split_type":[0,0,0,0,0,0,0,0,0,0,0,0,0],"sum_hessian":[4.4140018E2,4.247506E2,1.6649567E1,4.0956207E2,1.5188544E1,1.4649567E1,2E0,1.5994759E2,2.496145E2,1.2188544E1,3E0,1.3649567E1,1E0],"tree_param":{"num_deleted":"0","num_feature":"59","num_nodes":"13","size_leaf_vector":"1"}},{"base_weights":[4.3083388E-1,4.6338168E-1,3.289373E-1,4.3982226E-1,7.261288E-1,1.3897114E-1,4.665425E-1,4.5400765E-2,1.4501715E-2,7.563355E-2,-8.91719E-4,2.9684065E-2,-1.1078222E-1,4.9253605E-2,-5.748684E-2],"categories":[],"categories_nodes":[],"categories_segments":[],"categories_sizes":[],"default_left":[0,0,0,0,0,0,0,0,0,0,0,0,0,0,0],"id":16,"left_children":[1,3,5,7,9,11,13,-1,-1,-1,-1,-1,-1,-1,-1],"loss_changes":[1.3028793E0,1.7241745E0,2.8021622E0,1.2117271E0,5.757961E-1,9.677737E0,1.9934244E0,0E0,0E0,0E0,0E0,0E0,0E0,0E0,0E0],"parents":[2147483647,0,0,1,1,2,2,3,3,4,4,5,5,6,6],"right_children":[2,4,6,8,10,12,14,-1,-1,-1,-1,-1,-1,-1,-1],"split_conditions":[2.7E1,1E0,1E0,1E0,1E0,1E0,1E0,4.5400765E-2,1.4501715E-2,7.563355E-2,-8.91719E-4,2.9684065E-2,-1.1078222E-1,4.9253605E-2,-5.748684E-2],"split_indices":[0,1,13,24,12,21,52,0,0,0,0,0,0,0,0],"split_type":[0,0,0,0,0,0,0,0,0,0,0,0,0,0,0],"sum_hessian":[4.3780392E2,3.291267E2,1.08677216E2,3.0449762E2,2.4629082E1,4.6497128E1,6.218009E1,2.900033E2,1.4494331E1,2.3629082E1,1E0,4.194762E1,4.549508E0,6.118009E1,1E0],"tree_param":{"num_deleted":"0","num_feature":"59","num_nodes":"15","size_leaf_vector":"1"}},{"base_weights":[3.9104387E-1,3.782713E-1,6.8592906E-1,3.6659324E-1,6.7594385E-1,7.232372E-1,4.733348E-3,3.793869E-2,8.380133E-3,8.799507E-2,2.5688728E-2,7.89723E-2,1.7525852E-2],"categories":[],"categories_nodes":[],"categories_segments":[],"categories_sizes":[],"default_left":[0,0,0,0,0,0,0,0,0,0,0,0,0],"id":17,"left_children":[1,3,5,7,9,11,-1,-1,-1,-1,-1,-1,-1],"loss_changes":[1.3806E0,1.2108116E0,3.6716938E-1,1.4368668E0,1.0267925E0,4.3898296E-1,0E0,0E0,0E0,0E0,0E0,0E0,0E0],"parents":[2147483647,0,0,1,1,2,2,3,3,4,4,5,5],"right_children":[2,4,6,8,10,12,-1,-1,-1,-1,-1,-1,-1],"split_conditions":[1E0,1E0,1E0,1E0,1E0,1E0,4.733348E-3,3.793869E-2,8.380133E-3,8.799507E-2,2.5688728E-2,7.89723E-2,1.7525852E-2],"split_indices":[5,25,25,54,22,10,0,0,0,0,0,0,0],"split_type":[0,0,0,0,0,0,0,0,0,0,0,0,0],"sum_hessian":[4.3444223E2,4.1859418E2,1.5848057E1,4.0493942E2,1.3654758E1,1.4848057E1,1E0,3.870859E2,1.7853521E1,8.44412E0,5.210638E0,1.2848057E1,2E0],"tree_param":{"num_deleted":"0","num_feature":"59","num_nodes":"13","size_leaf_vector":"1"}},{"base_weights":[3.5528603E-1,3.4314826E-1,6.427288E-1,5.020041E-1,3.2239074E-1,6.7963004E-1,3.7791654E-3,5.4516073E-2,-9.16162E-3,3.3575352E-2,5.3977757E-3,7.445951E-2,1.6357461E-2],"categories":[],"categories_nodes":[],"categories_segments":[],"categories_sizes":[],"default_left":[0,0,0,0,0,0,0,0,0,0,0,0,0],"id":18,"left_children":[1,3,5,7,9,11,-1,-1,-1,-1,-1,-1,-1],"loss_changes":[1.2876778E0,1.212944E0,3.3972597E-1,1.2383413E0,1.3144798E0,3.9346695E-1,0E0,0E0,0E0,0E0,0E0,0E0,0E0],"parents":[2147483647,0,0,1,1,2,2,3,3,4,4,5,5],"right_children":[2,4,6,8,10,12,-1,-1,-1,-1,-1,-1,-1],"split_conditions":[1E0,5E-1,1E0,1E0,1E0,1E0,3.7791654E-3,5.4516073E-2,-9.16162E-3,3.3575352E-2,5.3977757E-3,7.445951E-2,1.6357461E-2],"split_indices":[5,21,50,51,56,10,0,0,0,0,0,0,0],"split_type":[0,0,0,0,0,0,0,0,0,0,0,0,0],"sum_hessian":[4.312926E2,4.159233E2,1.5369291E1,4.5387962E1,3.7053534E2,1.4369291E1,1E0,4.2387962E1,3E0,3.5272427E2,1.7811066E1,1.2369291E1,2E0],"tree_param":{"num_deleted":"0","num_feature":"59","num_nodes":"13","size_leaf_vector":"1"}},{"base_weights":[3.2247585E-1,3.1096467E-1,6.0203195E-1,2.9992625E-1,6.1028856E-1,6.519739E-1,7.3506245E-3,2.8582005E-2,5.7428617E-2,8.5234605E-2,3.084792E-2,6.9942944E-2,7.737072E-4],"categories":[],"categories_nodes":[],"categories_segments":[],"categories_sizes":[],"default_left":[0,0,0,0,0,0,0,0,0,0,0,0,0],"id":19,"left_children":[1,3,5,7,9,11,-1,-1,-1,-1,-1,-1,-1],"loss_changes":[1.1945992E0,1.1864395E0,3.7212372E-1,1.3905449E0,7.434225E-1,4.3521738E-1,0E0,0E0,0E0,0E0,0E0,0E0,0E0],"parents":[2147483647,0,0,1,1,2,2,3,3,4,4,5,5],"right_children":[2,4,6,8,10,12,-1,-1,-1,-1,-1,-1,-1],"split_conditions":[1E0,1E0,1E0,1E0,1E0,1E0,7.3506245E-3,2.8582005E-2,5.7428617E-2,8.5234605E-2,3.084792E-2,6.9942944E-2,7.737072E-4],"split_indices":[5,23,9,20,38,25,0,0,0,0,0,0,0],"split_type":[0,0,0,0,0,0,0,0,0,0,0,0,0],"sum_hessian":[4.283978E2,4.1348425E2,1.4913531E1,4.00709E2,1.2775251E1,1.3412566E1,1.5009644E0,3.8305594E2,1.7653063E1,6.077138E0,6.698114E0,1.2412566E1,1E0],"tree_param":{"num_deleted":"0","num_feature":"59","num_nodes":"13","size_leaf_vector":"1"}},{"base_weights":[2.9280475E-1,3.2348165E-1,1.9854188E-1,3.006234E-1,5.894457E-1,2.2317285E-2,3.2843676E-1,3.139742E-2,3.6283922E-3,6.892957E-2,2.8795261E-2,2.461188E-2,-8.010133E-2,3.5347458E-2,-5.96173E-2],"categories":[],"categories_nodes":[],"categories_segments":[],"categories_sizes":[],"default_left":[0,0,0,0,0,0,0,0,0,0,0,0,0,0,0],"id":20,"left_children":[1,3,5,7,9,11,13,-1,-1,-1,-1,-1,-1,-1,-1],"loss_changes":[1.1698456E0,1.7706108E0,2.4505382E0,1.0370274E0,5.335207E-1,8.790183E0,1.6400127E0,0E0,0E0,0E0,0E0,0E0,0E0,0E0,0E0],"parents":[2147483647,0,0,1,1,2,2,3,3,4,4,5,5,6,6],"right_children":[2,4,6,8,10,12,14,-1,-1,-1,-1,-1,-1,-1,-1],"split_conditions":[2.7E1,1E0,1E0,1E0,1E0,1E0,1E0,3.139742E-2,3.6283922E-3,6.892957E-2,2.8795261E-2,2.461188E-2,-8.010133E-2,3.5347458E-2,-5.96173E-2],"split_indices":[0,1,13,24,53,6,52,0,0,0,0,0,0,0,0],"split_type":[0,0,0,0,0,0,0,0,0,0,0,0,0,0,0],"sum_hessian":[4.2576495E2,3.1939072E2,1.0637423E2,2.960749E2,2.3315815E1,4.563473E1,6.0739502E1,2.8166144E2,1.4413452E1,1.6548826E1,6.7669888E0,3.643254E1,9.20219E0,5.9739502E1,1E0],"tree_param":{"num_deleted":"0","num_feature":"59","num_nodes":"15","size_leaf_vector":"1"}},{"base_weights":[2.6527566E-1,2.5437233E-1,5.399848E-1,2.4264032E-1,5.7075167E-1,6.0194874E-1,8.510939E-3,2.3116617E-2,5.5121608E-2,7.8078896E-2,1.7552814E-2,6.672016E-2,5.055086E-3],"categories":[],"categories_nodes":[],"categories_segments":[],"categories_sizes":[],"default_left":[0,0,0,0,0,0,0,0,0,0,0,0,0],"id":21,"left_children":[1,3,5,7,9,11,-1,-1,-1,-1,-1,-1,-1],"loss_changes":[1.1336269E0,1.3834305E0,3.802495E-1,1.2785854E0,1.0185947E0,4.451127E-1,0E0,0E0,0E0,0E0,0E0,0E0,0E0],"parents":[2147483647,0,0,1,1,2,2,3,3,4,4,5,5],"right_children":[2,4,6,8,10,12,-1,-1,-1,-1,-1,-1,-1],"split_conditions":[1E0,1E0,1E0,1E0,1E0,1E0,8.510939E-3,2.3116617E-2,5.5121608E-2,7.8078896E-2,1.7552814E-2,6.672016E-2,5.055086E-3],"split_indices":[5,25,10,23,22,9,0,0,0,0,0,0,0],"split_type":[0,0,0,0,0,0,0,0,0,0,0,0,0],"sum_hessian":[4.2333423E2,4.0902582E2,1.4308412E1,3.9610437E2,1.2921466E1,1.2308412E1,2E0,3.8359E2,1.2514365E1,7.8004413E0,5.121025E0,1.0818164E1,1.4902472E0],"tree_param":{"num_deleted":"0","num_feature":"59","num_nodes":"13","size_leaf_vector":"1"}},{"base_weights":[2.4074762E-1,3.9025176E-1,2.2194909E-1,1.5444295E-1,5.138236E-1,2.3444493E-1,-2.9474845E-2,3.0885046E-2,-1.8488886E-2,-7.1285176E-3,6.080714E-2,2.2798175E-2,7.925072E-2,-1.1924435E-2,4.292603E-2],"categories":[],"categories_nodes":[],"categories_segments":[],"categories_sizes":[],"default_left":[0,0,0,0,0,0,0,0,0,0,0,0,0,0,0],"id":22,"left_children":[1,3,5,7,9,11,13,-1,-1,-1,-1,-1,-1,-1,-1],"loss_changes":[1.0995445E0,1.2558756E0,1.1920738E0,9.575491E-1,1.6776681E0,1.115921E0,8.23282E-1,0E0,0E0,0E0,0E0,0E0,0E0,0E0,0E0],"parents":[2147483647,0,0,1,1,2,2,3,3,4,4,5,5,6,6],"right_children":[2,4,6,8,10,12,14,-1,-1,-1,-1,-1,-1,-1,-1],"split_conditions":[5E-1,2.5E-1,1E0,2.8E1,5E-1,3.4E1,1E0,3.0885046E-2,-1.8488886E-2,-7.1285176E-3,6.080714E-2,2.2798175E-2,7.925072E-2,-1.1924435E-2,4.292603E-2],"split_indices":[21,35,56,0,13,0,12,0,0,0,0,0,0,0,0],"split_type":[0,0,0,0,0,0,0,0,0,0,0,0,0,0,0],"sum_hessian":[4.210525E2,4.4822304E1,3.762302E2,1.6185598E1,2.8636707E1,3.584811E2,1.774908E1,1.1185598E1,5E0,4.0065975E0,2.463011E1,3.557693E2,2.7118096E0,1.5463165E1,2.285916E0],"tree_param":{"num_deleted":"0","num_feature":"59","num_nodes":"15","size_leaf_vector":"1"}},{"base_weights":[2.1831346E-1,2.0805457E-1,4.863396E-1,1.9714883E-1,5.109364E-1,5.3041965E-1,-5.9527294E-3,2.0934496E-2,-6.018373E-3,7.2164305E-2,1.3636434E-2,6.044039E-2,6.423668E-3],"categories":[],"categories_nodes":[],"categories_segments":[],"categories_sizes":[],"default_left":[0,0,0,0,0,0,0,0,0,0,0,0,0],"id":23,"left_children":[1,3,5,7,9,11,-1,-1,-1,-1,-1,-1,-1],"loss_changes":[1.0535507E0,1.241087E0,3.8610125E-1,1.2483149E0,9.662955E-1,4.348626E-1,0E0,0E0,0E0,0E0,0E0,0E0,0E0],"parents":[2147483647,0,0,1,1,2,2,3,3,4,4,5,5],"right_children":[2,4,6,8,10,12,-1,-1,-1,-1,-1,-1,-1],"split_conditions":[1E0,1E0,1E0,1E0,1E0,1E0,-5.9527294E-3,2.0934496E-2,-6.018373E-3,7.2164305E-2,1.3636434E-2,6.044039E-2,6.423668E-3],"split_indices":[5,25,50,54,22,10,0,0,0,0,0,0,0],"split_type":[0,0,0,0,0,0,0,0,0,0,0,0,0],"sum_hessian":[4.1895752E2,4.0522357E2,1.3733973E1,3.927335E2,1.2490078E1,1.2733973E1,1E0,3.751404E2,1.7593077E1,7.400514E0,5.0895643E0,1.0733973E1,2E0],"tree_param":{"num_deleted":"0","num_feature":"59","num_nodes":"13","size_leaf_vector":"1"}},{"base_weights":[1.9789225E-1,1.8587114E-1,4.2390814E-1,2.156178E-1,6.321344E-2,3.244221E-2,5.703389E-1,2.0426132E-2,5.8880694E-2,1.382337E-2,-2.248767E-2,-9.726121E-3,2.6996214E-2,6.574984E-2,1.6731616E-2],"categories":[],"categories_nodes":[],"categories_segments":[],"categories_sizes":[],"default_left":[0,0,0,0,0,0,0,0,0,0,0,0,0,0,0],"id":24,"left_children":[1,3,5,7,9,11,13,-1,-1,-1,-1,-1,-1,-1,-1],"loss_changes":[1.0567894E0,1.4408484E0,1.1466694E0,1.2376757E0,1.7432598E0,2.2939244E-1,4.075122E-1,0E0,0E0,0E0,0E0,0E0,0E0,0E0,0E0],"parents":[2147483647,0,0,1,1,2,2,3,3,4,4,5,5,6,6],"right_children":[2,4,6,8,10,12,14,-1,-1,-1,-1,-1,-1,-1,-1],"split_conditions":[1E0,1E0,1E0,1E0,2.8E1,1E0,1E0,2.0426132E-2,5.8880694E-2,1.382337E-2,-2.248767E-2,-9.726121E-3,2.6996214E-2,6.574984E-2,1.6731616E-2],"split_indices":[20,22,31,25,0,16,8,0,0,0,0,0,0,0,0],"split_type":[0,0,0,0,0,0,0,0,0,0,0,0,0,0,0],"sum_hessian":[4.1696048E2,3.9763394E2,1.9326565E1,3.194128E2,7.822112E1,5.593782E0,1.3732782E1,3.1148148E2,7.931319E0,6.2472984E1,1.5748138E1,4E0,1.5937818E0,1.0771807E1,2.9609756E0],"tree_param":{"num_deleted":"0","num_feature":"59","num_nodes":"15","size_leaf_vector":"1"}},{"base_weights":[1.7933196E-1,1.7428523E-1,7.224243E-2,2.0656073E-1,7.4734636E-2,1.8462006E-2,4.722111E-2,4.6719876E-3,7.8758E-2],"categories":[],"categories_nodes":[],"categories_segments":[],"categories_sizes":[],"default_left":[0,0,0,0,0,0,0,0,0],"id":25,"left_children":[1,3,-1,5,7,-1,-1,-1,-1],"loss_changes":[1.0148573E0,1.3137875E0,0E0,1.7304096E0,2.0172148E0,0E0,0E0,0E0,0E0],"parents":[2147483647,0,0,1,1,3,3,4,4],"right_children":[2,4,-1,6,8,-1,-1,-1,-1],"split_conditions":[3.5E1,2.7E1,7.224243E-2,1E0,1E0,1.8462006E-2,4.722111E-2,4.6719876E-3,7.8758E-2],"split_indices":[0,0,0,1,20,0,0,0,0],"split_type":[0,0,0,0,0,0,0,0,0],"sum_hessian":[4.152104E2,4.126963E2,2.514098E0,3.108425E2,1.01853806E2,2.886936E2,2.2148905E1,9.9027565E1,2.8262353E0],"tree_param":{"num_deleted":"0","num_feature":"59","num_nodes":"9","size_leaf_vector":"1"}},{"base_weights":[1.6262583E-1,2.233489E-1,1.2272569E-1,3.2771546E-2,2.5302407E-1,1.0682692E-1,5.173465E-1,2.5661452E-2,-4.2276345E-2,7.98013E-2,2.3442836E-2,5.3719524E-4,1.7389175E-2,1.53036015E-2,6.481807E-2],"categories":[],"categories_nodes":[],"categories_segments":[],"categories_sizes":[],"default_left":[0,0,0,0,0,0,0,0,0,0,0,0,0,0,0],"id":26,"left_children":[1,3,5,7,9,11,13,-1,-1,-1,-1,-1,-1,-1,-1],"loss_changes":[9.7708035E-1,9.1454506E-1,1.528362E0,2.4674337E0,1.242322E0,1.6585519E0,3.543439E-1,0E0,0E0,0E0,0E0,0E0,0E0,0E0,0E0],"parents":[2147483647,0,0,1,1,2,2,3,3,4,4,5,5,6,6],"right_children":[2,4,6,8,10,12,14,-1,-1,-1,-1,-1,-1,-1,-1],"split_conditions":[7.5E-1,2.5E-1,1E0,2.8E1,2.5E-1,1E0,1E0,2.5661452E-2,-4.2276345E-2,7.98013E-2,2.3442836E-2,5.3719524E-4,1.7389175E-2,1.53036015E-2,6.481807E-2],"split_indices":[21,35,36,0,11,13,31,0,0,0,0,0,0,0,0],"split_type":[0,0,0,0,0,0,0,0,0,0,0,0,0,0,0],"sum_hessian":[4.135894E2,1.621776E2,2.5141179E2,2.2134115E1,1.4004347E2,2.428965E2,8.515285E0,1.5134116E1,7E0,3.2378292E0,1.3680565E2,9.709392E1,1.4580258E2,2.8233378E0,5.691947E0],"tree_param":{"num_deleted":"0","num_feature":"59","num_nodes":"15","size_leaf_vector":"1"}},{"base_weights":[1.4738734E-1,1.3787484E-1,4.0893248E-1,1.2804738E-1,4.244753E-1,4.592413E-1,-1.2226785E-2,1.1762394E-2,4.1719373E-2,5.4296445E-2,-1.448927E-2,5.263194E-2,-4.800509E-3],"categories":[],"categories_nodes":[],"categories_segments":[],"categories_sizes":[],"default_left":[0,0,0,0,0,0,0,0,0,0,0,0,0],"id":27,"left_children":[1,3,5,7,9,11,-1,-1,-1,-1,-1,-1,-1],"loss_changes":[9.7142124E-1,1.0726161E0,4.299972E-1,1.1211953E0,9.444566E-1,4.6722317E-1,0E0,0E0,0E0,0E0,0E0,0E0,0E0],"parents":[2147483647,0,0,1,1,2,2,3,3,4,4,5,5],"right_children":[2,4,6,8,10,12,-1,-1,-1,-1,-1,-1,-1],"split_conditions":[1E0,1E0,1E0,1E0,1E0,1E0,-1.2226785E-2,1.1762394E-2,4.1719373E-2,5.4296445E-2,-1.448927E-2,5.263194E-2,-4.800509E-3],"split_indices":[5,25,25,23,38,55,0,0,0,0,0,0,0],"split_type":[0,0,0,0,0,0,0,0,0,0,0,0,0],"sum_hessian":[4.1211243E2,3.991233E2,1.2989134E1,3.8729E2,1.18333E1,1.1989134E1,1E0,3.751722E2,1.2117793E1,9.8333E0,2E0,1.05556555E1,1.4334776E0],"tree_param":{"num_deleted":"0","num_feature":"59","num_nodes":"13","size_leaf_vector":"1"}},{"base_weights":[1.3347231E-1,1.286839E-1,6.7637905E-2,1.5681724E-1,4.251104E-2,1.3637009E-2,4.097214E-2,-1.1670589E-2,1.593869E-2],"categories":[],"categories_nodes":[],"categories_segments":[],"categories_sizes":[],"default_left":[0,0,0,0,0,0,0,0,0],"id":28,"left_children":[1,3,-1,5,7,-1,-1,-1,-1],"loss_changes":[9.8321486E-1,9.8567533E-1,0E0,1.537931E0,1.9188449E0,0E0,0E0,0E0,0E0],"parents":[2147483647,0,0,1,1,3,3,4,4],"right_children":[2,4,-1,6,8,-1,-1,-1,-1],"split_conditions":[3.5E1,2.7E1,6.7637905E-2,1E0,1E0,1.3637009E-2,4.097214E-2,-1.1670589E-2,1.593869E-2],"split_indices":[0,0,0,1,7,0,0,0,0],"split_type":[0,0,0,0,0,0,0,0,0],"sum_hessian":[4.1069052E2,4.0832614E2,2.3643825E0,3.072098E2,1.01116325E2,2.8565408E2,2.1555737E1,4.2805275E1,5.831105E1],"tree_param":{"num_deleted":"0","num_feature":"59","num_nodes":"9","size_leaf_vector":"1"}},{"base_weights":[1.2082714E-1,2.6275852E-1,1.0354435E-1,3.0687553E-1,-2.541073E-2,9.803126E-2,6.7652434E-2,6.429413E-3,4.5871638E-2,1.0925136E-2,-1.1627774E-2],"categories":[],"categories_nodes":[],"categories_segments":[],"categories_sizes":[],"default_left":[0,0,0,0,0,0,0,0,0,0,0],"id":29,"left_children":[1,3,5,7,-1,9,-1,-1,-1,-1,-1],"loss_changes":[9.7968245E-1,1.0791767E0,1.0947931E0,1.4772747E0,0E0,8.909397E-1,0E0,0E0,0E0,0E0,0E0],"parents":[2147483647,0,0,1,1,2,2,3,3,5,5],"right_children":[2,4,6,8,-1,10,-1,-1,-1,-1,-1],"split_conditions":[5E-1,1E0,3.4E1,2.5E-1,-2.541073E-2,1E0,6.7652434E-2,6.429413E-3,4.5871638E-2,1.0925136E-2,-1.1627774E-2],"split_indices":[21,51,0,35,0,56,0,0,0,0,0],"split_type":[0,0,0,0,0,0,0,0,0,0,0],"sum_hessian":[4.0947763E2,4.290724E1,3.6657037E2,3.990724E1,3E0,3.6423688E2,2.333517E0,1.5911083E1,2.3996159E1,3.4658188E2,1.7654987E1],"tree_param":{"num_deleted":"0","num_feature":"59","num_nodes":"11","size_leaf_vector":"1"}},{"base_weights":[1.0933255E-1,1.1881647E-1,-1.3181767E-1,1.11130156E-1,5.7451713E-1,-2.3341493E-1,3.4536156E-1,2.6628146E-2,9.258807E-3,-3.846346E-2,8.2802534E-2,-7.828005E-4,-4.9182203E-2,6.391526E-2,-1.5122892E-2],"categories":[],"categories_nodes":[],"categories_segments":[],"categories_sizes":[],"default_left":[0,0,0,0,0,0,0,0,0,0,0,0,0,0,0],"id":30,"left_children":[1,3,5,7,9,11,13,-1,-1,-1,-1,-1,-1,-1,-1],"loss_changes":[9.516945E-1,1.3173008E0,8.5439885E-1,1.0944691E0,1.8505347E0,7.9802436E-1,5.642531E-1,0E0,0E0,0E0,0E0,0E0,0E0,0E0,0E0],"parents":[2147483647,0,0,1,1,2,2,3,3,4,4,5,5,6,6],"right_children":[2,4,6,8,10,12,14,-1,-1,-1,-1,-1,-1,-1,-1],"split_conditions":[1E0,3.3E1,1E0,5E-1,5E-1,7.5E-1,1E0,2.6628146E-2,9.258807E-3,-3.846346E-2,8.2802534E-2,-7.828005E-4,-4.9182203E-2,6.391526E-2,-1.5122892E-2],"split_indices":[58,0,21,21,11,35,10,0,0,0,0,0,0,0,0],"split_type":[0,0,0,0,0,0,0,0,0,0,0,0,0,0,0],"sum_hessian":[4.0827463E2,3.9331372E2,1.4960901E1,3.8801294E2,5.30076E0,1.2755866E1,2.2050347E0,3.99948E1,3.4801816E2,1E0,4.30076E0,7.3605075E0,5.395359E0,1.2050349E0,1E0],"tree_param":{"num_deleted":"0","num_feature":"59","num_nodes":"15","size_leaf_vector":"1"}},{"base_weights":[9.88901E-2,8.822347E-2,3.079629E-1,7.8239694E-2,4.278686E-1,-4.6444423E-2,4.5324287E-1,1.0475586E-2,-2.6397984E-3,1.5517155E-3,6.2223226E-2,1.8973686E-2,-1.5767386E-2,5.4361142E-2,8.053891E-3],"categories":[],"categories_nodes":[],"categories_segments":[],"categories_sizes":[],"default_left":[0,0,0,0,0,0,0,0,0,0,0,0,0,0,0],"id":31,"left_children":[1,3,5,7,9,11,13,-1,-1,-1,-1,-1,-1,-1,-1],"loss_changes":[8.8316584E-1,1.2882781E0,1.0206232E0,1.0567851E0,8.64483E-1,2.020237E-1,4.2310667E-1,0E0,0E0,0E0,0E0,0E0,0E0,0E0,0E0],"parents":[2147483647,0,0,1,1,2,2,3,3,4,4,5,5,6,6],"right_children":[2,4,6,8,10,12,14,-1,-1,-1,-1,-1,-1,-1,-1],"split_conditions":[1E0,1E0,1E0,1E0,2.5E1,1E0,1E0,1.0475586E-2,-2.6397984E-3,1.5517155E-3,6.2223226E-2,1.8973686E-2,-1.5767386E-2,5.4361142E-2,8.053891E-3],"split_indices":[20,23,31,22,0,2,8,0,0,0,0,0,0,0,0],"split_type":[0,0,0,0,0,0,0,0,0,0,0,0,0,0,0],"sum_hessian":[4.0720334E2,3.8878976E2,1.8413591E1,3.7888297E2,9.906807E0,5.5513945E0,1.2862197E1,3.0228098E2,7.6601974E1,3.5196157E0,6.387192E0,1.5513943E0,4E0,9.9830675E0,2.8791294E0],"tree_param":{"num_deleted":"0","num_feature":"59","num_nodes":"15","size_leaf_vector":"1"}},{"base_weights":[8.959114E-2,8.078166E-2,3.4383875E-1,7.16625E-2,3.5737506E-1,4.1503257E-1,-3.9646193E-2,8.294704E-3,-1.5702713E-2,5.8028053E-2,2.5820318E-3,4.94701E-2,-8.926114E-3,-1.21219564E-4,-5.8257096E-3],"categories":[],"categories_nodes":[],"categories_segments":[],"categories_sizes":[],"default_left":[0,0,0,0,0,0,0,0,0,0,0,0,0,0,0],"id":32,"left_children":[1,3,5,7,9,11,13,-1,-1,-1,-1,-1,-1,-1,-1],"loss_changes":[8.842859E-1,9.70392E-1,3.80383E-1,1.002774E0,8.979423E-1,4.993497E-1,2.075255E-3,0E0,0E0,0E0,0E0,0E0,0E0,0E0,0E0],"parents":[2147483647,0,0,1,1,2,2,3,3,4,4,5,5,6,6],"right_children":[2,4,6,8,10,12,14,-1,-1,-1,-1,-1,-1,-1,-1],"split_conditions":[1E0,1E0,1E0,1E0,1E0,1E0,2.2E1,8.294704E-3,-1.5702713E-2,5.8028053E-2,2.5820318E-3,4.94701E-2,-8.926114E-3,-1.21219564E-4,-5.8257096E-3],"split_indices":[5,25,10,54,22,9,0,0,0,0,0,0,0,0,0],"split_type":[0,0,0,0,0,0,0,0,0,0,0,0,0,0,0],"sum_hessian":[4.062088E2,3.9387894E2,1.2329865E1,3.825263E2,1.1352622E1,1.0329865E1,2E0,3.6514575E2,1.738057E1,6.3400216E0,5.0126004E0,8.937016E0,1.3928499E0,1E0,1E0],"tree_param":{"num_deleted":"0","num_feature":"59","num_nodes":"15","size_leaf_vector":"1"}},{"base_weights":[8.1092544E-2,7.126884E-2,2.7651593E-1,6.200024E-2,3.9093995E-1,-4.8376672E-2,4.1303286E-1,1.2486538E-2,1.9995524E-3,5.620113E-2,-3.8100672E-3,-1.5343842E-2,1.770988E-2,4.9667023E-2,3.9579305E-3],"categories":[],"categories_nodes":[],"categories_segments":[],"categories_sizes":[],"default_left":[0,0,0,0,0,0,0,0,0,0,0,0,0,0,0],"id":33,"left_children":[1,3,5,7,9,11,13,-1,-1,-1,-1,-1,-1,-1,-1],"loss_changes":[7.6006246E-1,1.1256138E0,8.668418E-1,9.9655056E-1,8.1017697E-1,1.8220152E-1,4.0354586E-1,0E0,0E0,0E0,0E0,0E0,0E0,0E0,0E0],"parents":[2147483647,0,0,1,1,2,2,3,3,4,4,5,5,6,6],"right_children":[2,4,6,8,10,12,14,-1,-1,-1,-1,-1,-1,-1,-1],"split_conditions":[1E0,1E0,1E0,7.5E-1,1E0,1E0,1E0,1.2486538E-2,1.9995524E-3,5.620113E-2,-3.8100672E-3,-1.5343842E-2,1.770988E-2,4.9667023E-2,3.9579305E-3],"split_indices":[20,23,31,21,21,16,12,0,0,0,0,0,0,0,0],"split_type":[0,0,0,0,0,0,0,0,0,0,0,0,0,0,0],"sum_hessian":[4.051764E2,3.870829E2,1.8093504E1,3.773363E2,9.746607E0,5.5443363E0,1.2549168E1,1.5034868E2,2.2698761E2,6.746607E0,3E0,4E0,1.5443363E0,9.983385E0,2.5657825E0],"tree_param":{"num_deleted":"0","num_feature":"59","num_nodes":"15","size_leaf_vector":"1"}},{"base_weights":[7.347547E-2,6.9537796E-2,5.7566296E-2,9.550543E-2,-9.130647E-3,7.6767094E-3,3.3406265E-2,-1.6553964E-2,1.1240999E-2],"categories":[],"categories_nodes":[],"categories_segments":[],"categories_sizes":[],"default_left":[0,0,0,0,0,0,0,0,0],"id":34,"left_children":[1,3,-1,5,7,-1,-1,-1,-1],"loss_changes":[7.6143193E-1,8.2471573E-1,0E0,1.3301051E0,1.9385531E0,0E0,0E0,0E0,0E0],"parents":[2147483647,0,0,1,1,3,3,4,4],"right_children":[2,4,-1,6,8,-1,-1,-1,-1],"split_conditions":[3.5E1,2.7E1,5.7566296E-2,1E0,1E0,7.6767094E-3,3.3406265E-2,-1.6553964E-2,1.1240999E-2],"split_indices":[0,0,0,1,13,0,0,0,0],"split_type":[0,0,0,0,0,0,0,0,0],"sum_hessian":[4.0430075E2,4.0228488E2,2.0158637E0,3.0228857E2,9.999632E1,2.81499E2,2.0789558E1,4.356767E1,5.642865E1],"tree_param":{"num_deleted":"0","num_feature":"59","num_nodes":"9","size_leaf_vector":"1"}},{"base_weights":[6.650437E-2,5.8824927E-2,3.204044E-1,1.189115E-1,1.9968517E-2,-8.583727E-3,4.7816446E-1,1.495381E-2,-3.6080632E-2,6.188808E-4,4.817107E-2,-1.5510201E-2,1.5385008E-2,5.810088E-2,-1.1537614E-2],"categories":[],"categories_nodes":[],"categories_segments":[],"categories_sizes":[],"default_left":[0,0,0,0,0,0,0,0,0,0,0,0,0,0,0],"id":35,"left_children":[1,3,5,7,9,11,13,-1,-1,-1,-1,-1,-1,-1,-1],"loss_changes":[7.6995635E-1,9.172882E-1,6.088574E-1,2.323734E0,1.5266857E0,1.37122E-1,5.488477E-1,0E0,0E0,0E0,0E0,0E0,0E0,0E0,0E0],"parents":[2147483647,0,0,1,1,2,2,3,3,4,4,5,5,6,6],"right_children":[2,4,6,8,10,12,14,-1,-1,-1,-1,-1,-1,-1,-1],"split_conditions":[1E0,7.5E-1,1E0,1E0,1E0,2.3E1,1E0,1.495381E-2,-3.6080632E-2,6.188808E-4,4.817107E-2,-1.5510201E-2,1.5385008E-2,5.810088E-2,-1.1537614E-2],"split_indices":[36,11,31,35,45,0,17,0,0,0,0,0,0,0,0],"split_type":[0,0,0,0,0,0,0,0,0,0,0,0,0,0,0],"sum_hessian":[4.035542E2,3.929022E2,1.0652006E1,1.5348955E2,2.3941264E2,3.7588997E0,6.893107E0,1.4492537E2,8.564184E0,2.3345895E2,5.9536805E0,2E0,1.7588997E0,5.893107E0,1E0],"tree_param":{"num_deleted":"0","num_feature":"59","num_nodes":"15","size_leaf_vector":"1"}},{"base_weights":[6.017522E-2,5.208856E-2,3.0134898E-1,4.36025E-2,3.1683317E-1,3.5505104E-1,-1.686153E-2,5.364677E-3,-1.578095E-2,7.2951306E-4,5.6483645E-2,4.439176E-2,-5.629699E-3],"categories":[],"categories_nodes":[],"categories_segments":[],"categories_sizes":[],"default_left":[0,0,0,0,0,0,0,0,0,0,0,0,0],"id":36,"left_children":[1,3,5,7,9,11,-1,-1,-1,-1,-1,-1,-1],"loss_changes":[7.7181864E-1,8.6664903E-1,3.852147E-1,7.79021E-1,9.1801476E-1,4.596733E-1,0E0,0E0,0E0,0E0,0E0,0E0,0E0],"parents":[2147483647,0,0,1,1,2,2,3,3,4,4,5,5],"right_children":[2,4,6,8,10,12,-1,-1,-1,-1,-1,-1,-1],"split_conditions":[1E0,1E0,1E0,1E0,2.4E1,1E0,-1.686153E-2,5.364677E-3,-1.578095E-2,7.2951306E-4,5.6483645E-2,4.439176E-2,-5.629699E-3],"split_indices":[5,25,50,54,0,10,0,0,0,0,0,0,0],"split_type":[0,0,0,0,0,0,0,0,0,0,0,0,0],"sum_hessian":[4.0279388E2,3.9090274E2,1.1891159E1,3.798905E2,1.1012221E1,1.0891159E1,1E0,3.6254434E2,1.734617E1,5.3563123E0,5.655909E0,8.891159E0,2E0],"tree_param":{"num_deleted":"0","num_feature":"59","num_nodes":"13","size_leaf_vector":"1"}},{"base_weights":[5.4464392E-2,6.288917E-2,-1.5588453E-1,5.5991665E-2,5.00315E-1,-2.5033173E-1,3.0300596E-1,1.9073343E-2,4.0195007E-3,-3.96811E-2,7.64369E-2,-4.8420946E-3,-4.7164343E-2,5.9353866E-2,-1.6088255E-2],"categories":[],"categories_nodes":[],"categories_segments":[],"categories_sizes":[],"default_left":[0,0,0,0,0,0,0,0,0,0,0,0,0,0,0],"id":37,"left_children":[1,3,5,7,9,11,13,-1,-1,-1,-1,-1,-1,-1,-1],"loss_changes":[7.2399163E-1,1.1432474E0,7.609396E-1,8.0817735E-1,1.7010243E0,5.8740675E-1,5.200889E-1,0E0,0E0,0E0,0E0,0E0,0E0,0E0,0E0],"parents":[2147483647,0,0,1,1,2,2,3,3,4,4,5,5,6,6],"right_children":[2,4,6,8,10,12,14,-1,-1,-1,-1,-1,-1,-1,-1],"split_conditions":[1E0,3.3E1,1E0,5E-1,5E-1,7.5E-1,1E0,1.9073343E-2,4.0195007E-3,-3.96811E-2,7.64369E-2,-4.8420946E-3,-4.7164343E-2,5.9353866E-2,-1.6088255E-2],"split_indices":[58,0,21,21,11,35,10,0,0,0,0,0,0,0,0],"split_type":[0,0,0,0,0,0,0,0,0,0,0,0,0,0,0],"sum_hessian":[4.02008E2,3.8720105E2,1.4806945E1,3.8230075E2,4.9002743E0,1.2656511E1,2.150433E0,3.8954422E1,3.4334634E2,1E0,3.9002743E0,7.2556796E0,5.400832E0,1.1504331E0,1E0],"tree_param":{"num_deleted":"0","num_feature":"59","num_nodes":"15","size_leaf_vector":"1"}},{"base_weights":[4.9250394E-2,4.2164903E-2,2.8670406E-1,9.580866E-2,7.1914215E-3,1.009318E-1,5.741096E-1,2.5002021E-2,4.8798844E-3,-2.4597688E-2,2.9731751E-3,-1.6297497E-2,2.848876E-2,6.476757E-2,1.6581267E-2],"categories":[],"categories_nodes":[],"categories_segments":[],"categories_sizes":[],"default_left":[0,0,0,0,0,0,0,0,0,0,0,0,0,0,0],"id":38,"left_children":[1,3,5,7,9,11,13,-1,-1,-1,-1,-1,-1,-1,-1],"loss_changes":[6.6487473E-1,7.3451215E-1,5.5531156E-1,1.1083877E0,1.367171E0,4.4402164E-1,2.1649718E-2,0E0,0E0,0E0,0E0,0E0,0E0,0E0,0E0],"parents":[2147483647,0,0,1,1,2,2,3,3,4,4,5,5,6,6],"right_children":[2,4,6,8,10,12,14,-1,-1,-1,-1,-1,-1,-1,-1],"split_conditions":[1E0,7.5E-1,1E0,1E0,7.5E-1,1E0,2.6E1,2.5002021E-2,4.8798844E-3,-2.4597688E-2,2.9731751E-3,-1.6297497E-2,2.848876E-2,6.476757E-2,1.6581267E-2],"split_indices":[36,21,38,31,13,31,0,0,0,0,0,0,0,0,0],"split_type":[0,0,0,0,0,0,0,0,0,0,0,0,0,0,0],"sum_hessian":[4.0136145E2,3.908755E2,1.04859495E1,1.5357555E2,2.3729994E2,7.1898074E0,3.2961419E0,3.4869797E1,1.1870575E2,1.8589851E1,2.1871008E2,3E0,4.1898074E0,2.2961419E0,1E0],"tree_param":{"num_deleted":"0","num_feature":"59","num_nodes":"15","size_leaf_vector":"1"}},{"base_weights":[4.4655267E-2,3.7399277E-2,2.790494E-1,2.7577296E-2,2.4361785E-1,-1.01081215E-1,6.5736496E-1,1.8550962E-3,3.386584E-2,1.3085236E-2,6.751057E-2,1.1669193E-2,-2.8314326E-2,-8.398823E-3,8.190926E-2],"categories":[],"categories_nodes":[],"categories_segments":[],"categories_sizes":[],"default_left":[0,0,0,0,0,0,0,0,0,0,0,0,0,0,0],"id":39,"left_children":[1,3,5,7,9,11,13,-1,-1,-1,-1,-1,-1,-1,-1],"loss_changes":[6.7301375E-1,7.851171E-1,1.7794328E0,1.0447006E0,7.702515E-1,3.029746E-1,8.0056095E-1,0E0,0E0,0E0,0E0,0E0,0E0,0E0,0E0],"parents":[2147483647,0,0,1,1,2,2,3,3,4,4,5,5,6,6],"right_children":[2,4,6,8,10,12,14,-1,-1,-1,-1,-1,-1,-1,-1],"split_conditions":[1E0,1E0,2.5E1,1E0,2.7E1,1E0,5E-1,1.8550962E-3,3.386584E-2,1.3085236E-2,6.751057E-2,1.1669193E-2,-2.8314326E-2,-8.398823E-3,8.190926E-2],"split_indices":[33,20,0,23,0,21,21,0,0,0,0,0,0,0,0],"split_type":[0,0,0,0,0,0,0,0,0,0,0,0,0,0,0],"sum_hessian":[4.0084952E2,3.8993802E2,1.0911507E1,3.732922E2,1.6645803E1,5.808226E0,5.10328E0,3.6379593E2,9.496273E0,1.4230142E1,2.415662E0,2.8082263E0,3E0,1E0,4.10328E0],"tree_param":{"num_deleted":"0","num_feature":"59","num_nodes":"15","size_leaf_vector":"1"}},{"base_weights":[4.0709864E-2,3.3348214E-2,2.670295E-1,2.5648287E-2,2.7981898E-1,3.2999068E-1,-1.4361021E-2,1.8169075E-3,2.666691E-2,4.1055214E-2,-2.3648534E-2,3.9716937E-2,-1.7562283E-2],"categories":[],"categories_nodes":[],"categories_segments":[],"categories_sizes":[],"default_left":[0,0,0,0,0,0,0,0,0,0,0,0,0],"id":40,"left_children":[1,3,5,7,9,11,-1,-1,-1,-1,-1,-1,-1],"loss_changes":[6.5967715E-1,7.3256934E-1,3.7054574E-1,6.7850626E-1,8.873245E-1,4.4816065E-1,0E0,0E0,0E0,0E0,0E0,0E0,0E0],"parents":[2147483647,0,0,1,1,2,2,3,3,4,4,5,5],"right_children":[2,4,6,8,10,12,-1,-1,-1,-1,-1,-1,-1],"split_conditions":[1E0,1E0,1E0,1E0,1E0,1E0,-1.4361021E-2,1.8169075E-3,2.666691E-2,4.1055214E-2,-2.3648534E-2,3.9716937E-2,-1.7562283E-2],"split_indices":[5,25,9,36,38,50,0,0,0,0,0,0,0],"split_type":[0,0,0,0,0,0,0,0,0,0,0,0,0],"sum_hessian":[4.002891E2,3.8879E2,1.1499082E1,3.780825E2,1.0707514E1,1.0140666E1,1.3584154E0,3.6774622E2,1.0336291E1,8.707514E0,2E0,9.140666E0,1E0],"tree_param":{"num_deleted":"0","num_feature":"59","num_nodes":"13","size_leaf_vector":"1"}},{"base_weights":[3.6851518E-2,3.345981E-2,5.1156294E-2,5.7169426E-2,-3.7847303E-2,7.218633E-3,-2.297604E-2,-1.8609814E-2,7.816591E-3],"categories":[],"categories_nodes":[],"categories_segments":[],"categories_sizes":[],"default_left":[0,0,0,0,0,0,0,0,0],"id":41,"left_children":[1,3,-1,5,7,-1,-1,-1,-1],"loss_changes":[6.28023E-1,6.765943E-1,0E0,1.3082395E0,1.7369153E0,0E0,0E0,0E0,0E0],"parents":[2147483647,0,0,1,1,3,3,4,4],"right_children":[2,4,-1,6,8,-1,-1,-1,-1],"split_conditions":[3.5E1,2.7E1,5.1156294E-2,1E0,1E0,7.218633E-3,-2.297604E-2,-1.8609814E-2,7.816591E-3],"split_indices":[0,0,0,24,13,0,0,0,0],"split_type":[0,0,0,0,0,0,0,0,0],"sum_hessian":[3.996871E2,3.9791455E2,1.7725286E0,2.9877133E2,9.914322E1,2.8462357E2,1.414778E1,4.325915E1,5.588407E1],"tree_param":{"num_deleted":"0","num_feature":"59","num_nodes":"9","size_leaf_vector":"1"}},{"base_weights":[3.3277903E-2,2.480969E-2,2.0719329E-1,4.917255E-2,-7.2203994E-2,1.0277659E-1,6.5151565E-2,6.3578226E-3,-2.2465937E-2,-4.9846284E-2,-2.8638425E-3,-2.608006E-3,4.1436616E-2],"categories":[],"categories_nodes":[],"categories_segments":[],"categories_sizes":[],"default_left":[0,0,0,0,0,0,0,0,0,0,0,0,0],"id":42,"left_children":[1,3,5,7,9,11,-1,-1,-1,-1,-1,-1,-1],"loss_changes":[5.843048E-1,9.082786E-1,7.888882E-1,1.2235339E0,1.4200611E0,6.5820026E-1,0E0,0E0,0E0,0E0,0E0,0E0,0E0],"parents":[2147483647,0,0,1,1,2,2,3,3,4,4,5,5],"right_children":[2,4,6,8,10,12,-1,-1,-1,-1,-1,-1,-1],"split_conditions":[1E0,1E0,2.7E1,1E0,5E-1,1E0,6.5151565E-2,6.3578226E-3,-2.2465937E-2,-4.9846284E-2,-2.8638425E-3,-2.608006E-3,4.1436616E-2],"split_indices":[20,22,0,42,44,22,0,0,0,0,0,0,0],"split_type":[0,0,0,0,0,0,0,0,0,0,0,0,0],"sum_hessian":[3.992338E2,3.8178665E2,1.7447134E1,3.0554807E2,7.623857E1,1.512422E1,2.3229134E0,2.910067E2,1.4541377E1,6.101172E0,7.0137405E1,1.1347716E1,3.7765038E0],"tree_param":{"num_deleted":"0","num_feature":"59","num_nodes":"13","size_leaf_vector":"1"}},{"base_weights":[3.0090312E-2,2.3405321E-2,2.5051892E-1,1.4695263E-2,2.1010861E-1,-1.0305217E-1,6.1542165E-1,6.250813E-4,3.0912016E-2,1.0709702E-2,6.26081E-2,5.812283E-3,-3.255647E-2,-8.778445E-3,7.7737845E-2],"categories":[],"categories_nodes":[],"categories_segments":[],"categories_sizes":[],"default_left":[0,0,0,0,0,0,0,0,0,0,0,0,0,0,0],"id":43,"left_children":[1,3,5,7,9,11,13,-1,-1,-1,-1,-1,-1,-1,-1],"loss_changes":[5.832747E-1,6.297308E-1,1.5684326E0,9.2511886E-1,6.729565E-1,2.621155E-1,7.383604E-1,0E0,0E0,0E0,0E0,0E0,0E0,0E0,0E0],"parents":[2147483647,0,0,1,1,2,2,3,3,4,4,5,5,6,6],"right_children":[2,4,6,8,10,12,14,-1,-1,-1,-1,-1,-1,-1,-1],"split_conditions":[1E0,1E0,2.5E1,1E0,2.7E1,1E0,5E-1,6.250813E-4,3.0912016E-2,1.0709702E-2,6.26081E-2,5.812283E-3,-3.255647E-2,-8.778445E-3,7.7737845E-2],"split_indices":[33,20,0,23,0,34,21,0,0,0,0,0,0,0,0],"split_type":[0,0,0,0,0,0,0,0,0,0,0,0,0,0,0],"sum_hessian":[3.9880515E2,3.881401E2,1.0665035E1,3.7187036E2,1.6269741E1,5.781075E0,4.8839602E0,3.624948E2,9.375544E0,1.4048281E1,2.221461E0,3.781075E0,2E0,1E0,3.8839605E0],"tree_param":{"num_deleted":"0","num_feature":"59","num_nodes":"15","size_leaf_vector":"1"}},{"base_weights":[2.7507966E-2,2.431154E-2,4.8966385E-2,2.4468029E-1,1.7616682E-2,2.250915E-3,6.9424406E-2,2.636586E-3,-2.145957E-2],"categories":[],"categories_nodes":[],"categories_segments":[],"categories_sizes":[],"default_left":[0,0,0,0,0,0,0,0,0],"id":44,"left_children":[1,3,-1,5,7,-1,-1,-1,-1],"loss_changes":[5.780538E-1,5.823909E-1,0E0,1.1477361E0,7.9196393E-1,0E0,0E0,0E0,0E0],"parents":[2147483647,0,0,1,1,3,3,4,4],"right_children":[2,4,-1,6,8,-1,-1,-1,-1],"split_conditions":[3.5E1,2.5E-1,4.8966385E-2,2.5E-1,1E0,2.250915E-3,6.9424406E-2,2.636586E-3,-2.145957E-2],"split_indices":[0,11,0,35,58,0,0,0,0],"split_type":[0,0,0,0,0,0,0,0,0],"sum_hessian":[3.9836346E2,3.9667255E2,1.6909153E0,1.0647596E1,3.8602493E2,7.8287525E0,2.8188438E0,3.7286288E2,1.3162075E1],"tree_param":{"num_deleted":"0","num_feature":"59","num_nodes":"9","size_leaf_vector":"1"}},{"base_weights":[2.5050458E-2,4.250996E-2,-5.6767963E-2,5.4910164E-2,-1.6952795E-1,-9.2200875E-2,5.121382E-1,1.0390199E-2,-2.0054067E-3,3.1572193E-2,-2.4892567E-2,-1.4965477E-3,-4.4450365E-2,-1.7476982E-2,7.73895E-2],"categories":[],"categories_nodes":[],"categories_segments":[],"categories_sizes":[],"default_left":[0,0,0,0,0,0,0,0,0,0,0,0,0,0,0],"id":45,"left_children":[1,3,5,7,9,11,13,-1,-1,-1,-1,-1,-1,-1,-1],"loss_changes":[5.724021E-1,8.7543064E-1,1.4703743E0,1.1478177E0,7.8921795E-1,1.8248173E0,9.0694964E-1,0E0,0E0,0E0,0E0,0E0,0E0,0E0,0E0],"parents":[2147483647,0,0,1,1,2,2,3,3,4,4,5,5,6,6],"right_children":[2,4,6,8,10,12,14,-1,-1,-1,-1,-1,-1,-1,-1],"split_conditions":[1E0,1E0,1E0,1E0,1E0,1E0,7.5E-1,1.0390199E-2,-2.0054067E-3,3.1572193E-2,-2.4892567E-2,-1.4965477E-3,-4.4450365E-2,-1.7476982E-2,7.73895E-2],"split_indices":[39,56,26,6,2,14,34,0,0,0,0,0,0,0,0],"split_type":[0,0,0,0,0,0,0,0,0,0,0,0,0,0,0],"sum_hessian":[3.9800977E2,3.2840976E2,6.959999E1,3.109652E2,1.7444551E1,6.630809E1,3.291902E0,1.878273E2,1.23137924E2,2.0344248E0,1.5410126E1,5.524024E1,1.1067849E1,1E0,2.291902E0],"tree_param":{"num_deleted":"0","num_feature":"59","num_nodes":"15","size_leaf_vector":"1"}},{"base_weights":[2.2659875E-2,1.6155774E-2,2.2849928E-1,9.11707E-3,2.4693073E-1,1.05542935E-1,5.2380092E-2,1.812606E-3,-1.6863814E-2,-4.0350347E-3,4.9744632E-2,-7.477158E-3,3.3344135E-2],"categories":[],"categories_nodes":[],"categories_segments":[],"categories_sizes":[],"default_left":[0,0,0,0,0,0,0,0,0,0,0,0,0],"id":46,"left_children":[1,3,5,7,9,11,-1,-1,-1,-1,-1,-1,-1],"loss_changes":[5.299085E-1,6.2707925E-1,3.8522077E-1,6.067906E-1,8.425813E-1,4.2838204E-1,0E0,0E0,0E0,0E0,0E0,0E0,0E0],"parents":[2147483647,0,0,1,1,2,2,3,3,4,4,5,5],"right_children":[2,4,6,8,10,12,-1,-1,-1,-1,-1,-1,-1],"split_conditions":[1E0,1E0,2.6E1,1E0,2.4E1,7.5E-1,5.2380092E-2,1.812606E-3,-1.6863814E-2,-4.0350347E-3,4.9744632E-2,-7.477158E-3,3.3344135E-2],"split_indices":[5,25,0,54,0,11,0,0,0,0,0,0,0],"split_type":[0,0,0,0,0,0,0,0,0,0,0,0,0],"sum_hessian":[3.975658E2,3.8643378E2,1.1132025E1,3.76005E2,1.0428756E1,8.817883E0,2.3141422E0,3.587223E2,1.7282734E1,5.248696E0,5.18006E0,5.297991E0,3.519892E0],"tree_param":{"num_deleted":"0","num_feature":"59","num_nodes":"13","size_leaf_vector":"1"}},{"base_weights":[2.071183E-2,1.7733686E-2,4.6735074E-2,3.9784014E-2,-4.8360158E-2,2.2490257E-3,2.6677165E-2,-8.033811E-3,4.6730045E-2],"categories":[],"categories_nodes":[],"categories_segments":[],"categories_sizes":[],"default_left":[0,0,0,0,0,0,0,0,0],"id":47,"left_children":[1,3,-1,5,7,-1,-1,-1,-1],"loss_changes":[5.2128226E-1,5.798215E-1,0E0,1.1633228E0,1.6807119E0,0E0,0E0,0E0,0E0],"parents":[2147483647,0,0,1,1,3,3,4,4],"right_children":[2,4,-1,6,8,-1,-1,-1,-1],"split_conditions":[3.5E1,2.7E1,4.6735074E-2,1E0,1E0,2.2490257E-3,2.6677165E-2,-8.033811E-3,4.6730045E-2],"split_indices":[0,0,0,1,3,0,0,0,0],"split_type":[0,0,0,0,0,0,0,0,0],"sum_hessian":[3.9712646E2,3.9552884E2,1.5976435E0,2.96881E2,9.864783E1,2.7688477E2,1.9996244E1,9.368245E1,4.965379E0],"tree_param":{"num_deleted":"0","num_feature":"59","num_nodes":"9","size_leaf_vector":"1"}},{"base_weights":[1.896216E-2,1.2902713E-2,2.2756465E-1,6.2354777E-2,-1.8657904E-2,5.1499657E-2,5.177896E-1,7.891575E-3,-6.35042E-2,-6.308691E-3,1.1607926E-2,3.1749878E-2,-1.1157735E-2,5.9068657E-2,1.4567167E-2],"categories":[],"categories_nodes":[],"categories_segments":[],"categories_sizes":[],"default_left":[0,0,0,0,0,0,0,0,0,0,0,0,0,0,0],"id":48,"left_children":[1,3,5,7,9,11,13,-1,-1,-1,-1,-1,-1,-1,-1],"loss_changes":[4.9984074E-1,6.060957E-1,5.4399407E-1,1.7967288E0,1.4282538E0,3.8511854E-1,2.534461E-2,0E0,0E0,0E0,0E0,0E0,0E0,0E0,0E0],"parents":[2147483647,0,0,1,1,2,2,3,3,4,4,5,5,6,6],"right_children":[2,4,6,8,10,12,14,-1,-1,-1,-1,-1,-1,-1,-1],"split_conditions":[1E0,7.5E-1,1E0,1E0,1E0,1E0,2.6E1,7.891575E-3,-6.35042E-2,-6.308691E-3,1.1607926E-2,3.1749878E-2,-1.1157735E-2,5.9068657E-2,1.4567167E-2],"split_indices":[36,11,38,57,35,2,0,0,0,0,0,0,0,0,0],"split_type":[0,0,0,0,0,0,0,0,0,0,0,0,0,0,0],"sum_hessian":[3.9676166E2,3.865938E2,1.0167851E1,1.5022766E2,2.3636617E2,7.0614624E0,3.1063893E0,1.4760925E2,2.6184115E0,1.781528E2,5.8213356E1,2.323924E0,4.7375383E0,2.1063893E0,1E0],"tree_param":{"num_deleted":"0","num_feature":"59","num_nodes":"15","size_leaf_vector":"1"}},{"base_weights":[1.7205914E-2,1.3629518E-2,3.6147326E-1,3.410055E-2,-4.854911E-2,5.41433E-2,-9.345869E-3,4.834133E-3,-2.3471138E-2,-7.56808E-2,-2.5934149E-3],"categories":[],"categories_nodes":[],"categories_segments":[],"categories_sizes":[],"default_left":[0,0,0,0,0,0,0,0,0,0,0],"id":49,"left_children":[1,3,5,7,9,-1,-1,-1,-1,-1,-1],"loss_changes":[4.844343E-1,5.0368166E-1,3.819514E-1,1.1494627E0,1.5516845E0,0E0,0E0,0E0,0E0,0E0,0E0],"parents":[2147483647,0,0,1,1,2,2,3,3,4,4],"right_children":[2,4,6,8,10,-1,-1,-1,-1,-1,-1],"split_conditions":[3.4E1,2.7E1,1E0,1E0,2.5E-1,5.41433E-2,-9.345869E-3,4.834133E-3,-2.3471138E-2,-7.56808E-2,-2.5934149E-3],"split_indices":[0,0,17,24,44,0,0,0,0,0,0],"split_type":[0,0,0,0,0,0,0,0,0,0,0],"sum_hessian":[3.9645505E2,3.9340775E2,3.0472965E0,2.9630652E2,9.710124E1,2.0472965E0,1E0,2.8217783E2,1.4128695E1,2E0,9.510124E1],"tree_param":{"num_deleted":"0","num_feature":"59","num_nodes":"11","size_leaf_vector":"1"}},{"base_weights":[1.5375483E-2,8.940254E-3,2.1648496E-1,8.021834E-4,1.9744655E-1,-1.18502244E-1,4.231758E-1,-6.325256E-4,2.4857951E-2,9.719057E-3,5.8584582E-2,1.0283416E-2,-2.25179E-2,6.0115438E-2,-6.2390617E-3],"categories":[],"categories_nodes":[],"categories_segments":[],"categories_sizes":[],"default_left":[0,0,0,0,0,0,0,0,0,0,0,0,0,0,0],"id":50,"left_children":[1,3,5,7,9,11,13,-1,-1,-1,-1,-1,-1,-1,-1],"loss_changes":[5.12014E-1,5.91768E-1,8.9972603E-1,6.565661E-1,5.647001E-1,1.5215158E-1,7.121916E-1,0E0,0E0,0E0,0E0,0E0,0E0,0E0,0E0],"parents":[2147483647,0,0,1,1,2,2,3,3,4,4,5,5,6,6],"right_children":[2,4,6,8,10,12,14,-1,-1,-1,-1,-1,-1,-1,-1],"split_conditions":[1E0,1E0,2.5E1,1E0,2.7E1,7.5E-1,1E0,-6.325256E-4,2.4857951E-2,9.719057E-3,5.8584582E-2,1.0283416E-2,-2.25179E-2,6.0115438E-2,-6.2390617E-3],"split_indices":[23,20,0,33,0,21,21,0,0,0,0,0,0,0,0],"split_type":[0,0,0,0,0,0,0,0,0,0,0,0,0,0,0],"sum_hessian":[3.9612192E2,3.8485165E2,1.1270271E1,3.6988736E2,1.4964281E1,4.4632607E0,6.8070107E0,3.604921E2,9.395264E0,1.2887829E1,2.0764518E0,1.4632607E0,3E0,4.8070107E0,2E0],"tree_param":{"num_deleted":"0","num_feature":"59","num_nodes":"15","size_leaf_vector":"1"}},{"base_weights":[1.4206842E-2,3.0144932E-2,-6.023406E-2,1.7355424E-1,1.361397E-2,-9.275691E-2,4.7520894E-1,-4.031751E-3,3.1915575E-2,5.5540568E-5,3.0673105E-2,-2.2529366E-3,-4.108506E-2,-1.6700856E-2,7.289241E-2],"categories":[],"categories_nodes":[],"categories_segments":[],"categories_sizes":[],"default_left":[0,0,0,0,0,0,0,0,0,0,0,0,0,0,0],"id":51,"left_children":[1,3,5,7,9,11,13,-1,-1,-1,-1,-1,-1,-1,-1],"loss_changes":[4.7262195E-1,7.740603E-1,1.2684978E0,1.064319E0,1.1280165E0,1.4901843E0,8.0437607E-1,0E0,0E0,0E0,0E0,0E0,0E0,0E0,0E0],"parents":[2147483647,0,0,1,1,2,2,3,3,4,4,5,5,6,6],"right_children":[2,4,6,8,10,12,14,-1,-1,-1,-1,-1,-1,-1,-1],"split_conditions":[1E0,5E-1,1E0,2.5E-1,1E0,1E0,7.5E-1,-4.031751E-3,3.1915575E-2,5.5540568E-5,3.0673105E-2,-2.2529366E-3,-4.108506E-2,-1.6700856E-2,7.289241E-2],"split_indices":[39,21,26,35,14,14,34,0,0,0,0,0,0,0,0],"split_type":[0,0,0,0,0,0,0,0,0,0,0,0,0,0,0],"sum_hessian":[3.9582065E2,3.2650885E2,6.931178E1,3.2765247E1,2.9374362E2,6.612228E1,3.1895065E0,1.3564161E1,1.9201084E1,2.8217444E2,1.1569167E1,5.504129E1,1.1080986E1,1E0,2.1895065E0],"tree_param":{"num_deleted":"0","num_feature":"59","num_nodes":"15","size_leaf_vector":"1"}},{"base_weights":[1.3000321E-2,2.0971465E-1,7.1524396E-3,5.138195E-3,6.475767E-2,1.5090891E-2,-2.0265357E-1,5.238579E-2,-1.3323173E-2,9.2916004E-4,4.1312408E-2,-3.1018144E-2,2.7833913E-2],"categories":[],"categories_nodes":[],"categories_segments":[],"categories_sizes":[],"default_left":[0,0,0,0,0,0,0,0,0,0,0,0,0],"id":52,"left_children":[1,3,5,7,-1,9,11,-1,-1,-1,-1,-1,-1],"loss_changes":[4.545762E-1,1.018774E0,6.460425E-1,7.0033264E-1,0E0,8.569506E-1,8.1785876E-1,0E0,0E0,0E0,0E0,0E0,0E0],"parents":[2147483647,0,0,1,1,2,2,3,3,5,5,6,6],"right_children":[2,4,6,8,-1,10,12,-1,-1,-1,-1,-1,-1],"split_conditions":[2.5E-1,2.5E-1,1E0,2.4E1,6.475767E-2,3.3E1,1E0,5.238579E-2,-1.3323173E-2,9.2916004E-4,4.1312408E-2,-3.1018144E-2,2.7833913E-2],"split_indices":[11,35,58,0,0,0,21,0,0,0,0,0,0],"split_type":[0,0,0,0,0,0,0,0,0,0,0,0,0],"sum_hessian":[3.954631E2,1.0410405E1,3.850527E2,7.784903E0,2.6255023E0,3.719088E2,1.314388E1,1.0526851E0,6.732218E0,3.6757663E2,4.3321986E0,1.1032617E1,2.1112638E0],"tree_param":{"num_deleted":"0","num_feature":"59","num_nodes":"13","size_leaf_vector":"1"}},{"base_weights":[1.2087391E-2,6.1673876E-3,2.0381184E-1,-2.2973923E-4,2.1959275E-1,8.646339E-2,4.9849518E-2,-6.568352E-4,2.0977715E-2,4.607074E-2,-8.158692E-3,-8.533677E-3,3.11077E-2],"categories":[],"categories_nodes":[],"categories_segments":[],"categories_sizes":[],"default_left":[0,0,0,0,0,0,0,0,0,0,0,0,0],"id":53,"left_children":[1,3,5,7,9,11,-1,-1,-1,-1,-1,-1,-1],"loss_changes":[4.4841018E-1,5.2616376E-1,3.6617643E-1,5.0073135E-1,8.520124E-1,3.9987308E-1,0E0,0E0,0E0,0E0,0E0,0E0,0E0],"parents":[2147483647,0,0,1,1,2,2,3,3,4,4,5,5],"right_children":[2,4,6,8,10,12,-1,-1,-1,-1,-1,-1,-1],"split_conditions":[1E0,1E0,2.6E1,1E0,1E0,7.5E-1,4.9849518E-2,-6.568352E-4,2.0977715E-2,4.607074E-2,-8.158692E-3,-8.533677E-3,3.11077E-2],"split_indices":[5,25,0,36,22,11,0,0,0,0,0,0,0],"split_type":[0,0,0,0,0,0,0,0,0,0,0,0,0],"sum_hessian":[3.9517923E2,3.8434375E2,1.083547E1,3.741287E2,1.021506E1,8.674522E0,2.1609476E0,3.641076E2,1.0021092E1,5.379073E0,4.835987E0,5.2664485E0,3.4080744E0],"tree_param":{"num_deleted":"0","num_feature":"59","num_nodes":"13","size_leaf_vector":"1"}},{"base_weights":[1.123971E-2,5.2988916E-3,1.9908333E-1,-1.6184184E-3,1.8656048E-1,4.7921225E-1,-3.0879192E-2,1.0922318E-3,-1.30878305E-2,3.4880128E-2,-9.734982E-2,-1.8135581E-2,6.8229176E-2,1.9008692E-2,-1.2106292E-2],"categories":[],"categories_nodes":[],"categories_segments":[],"categories_sizes":[],"default_left":[0,0,0,0,0,0,0,0,0,0,0,0,0,0,0],"id":54,"left_children":[1,3,5,7,9,11,13,-1,-1,-1,-1,-1,-1,-1,-1],"loss_changes":[4.406651E-1,4.8267853E-1,7.947481E-1,6.037466E-1,3.0028176E0,8.640835E-1,1.7423363E-1,0E0,0E0,0E0,0E0,0E0,0E0,0E0,0E0],"parents":[2147483647,0,0,1,1,2,2,3,3,4,4,5,5,6,6],"right_children":[2,4,6,8,10,12,14,-1,-1,-1,-1,-1,-1,-1,-1],"split_conditions":[1E0,1E0,1E0,1E0,1E0,5E-1,1E0,1.0922318E-3,-1.30878305E-2,3.4880128E-2,-9.734982E-2,-1.8135581E-2,6.8229176E-2,1.9008692E-2,-1.2106292E-2],"split_indices":[23,18,38,51,54,11,44,0,0,0,0,0,0,0,0],"split_type":[0,0,0,0,0,0,0,0,0,0,0,0,0,0,0],"sum_hessian":[3.9482605E2,3.837186E2,1.1107431E1,3.7056805E2,1.3150557E1,4.5188823E0,6.5885487E0,3.3862982E2,3.1938217E1,1.2150557E1,1E0,1.0877308E0,3.4311514E0,1.5885488E0,5E0],"tree_param":{"num_deleted":"0","num_feature":"59","num_nodes":"15","size_leaf_vector":"1"}},{"base_weights":[1.0100264E-2,1.9684747E-1,4.624567E-3,5.0086766E-3,6.1951E-2,1.1796015E-2,-1.8461655E-1,4.9859475E-2,-1.2435835E-2,6.4470444E-4,3.862793E-2,-2.8383384E-2,2.6043866E-2],"categories":[],"categories_nodes":[],"categories_segments":[],"categories_sizes":[],"default_left":[0,0,0,0,0,0,0,0,0,0,0,0,0],"id":55,"left_children":[1,3,5,7,-1,9,11,-1,-1,-1,-1,-1,-1],"loss_changes":[4.0352294E-1,9.0846574E-1,5.250319E-1,6.201395E-1,0E0,7.4293727E-1,6.977239E-1,0E0,0E0,0E0,0E0,0E0,0E0],"parents":[2147483647,0,0,1,1,2,2,3,3,5,5,6,6],"right_children":[2,4,6,8,-1,10,12,-1,-1,-1,-1,-1,-1],"split_conditions":[2.5E-1,2.5E-1,1E0,2.4E1,6.1951E-2,3.3E1,1E0,4.9859475E-2,-1.2435835E-2,6.4470444E-4,3.862793E-2,-2.8383384E-2,2.6043866E-2],"split_indices":[11,35,58,0,0,0,21,0,0,0,0,0,0],"split_type":[0,0,0,0,0,0,0,0,0,0,0,0,0],"sum_hessian":[3.9450623E2,1.0242405E1,3.842638E2,7.740833E0,2.5015721E0,3.7113693E2,1.3126873E1,1.0148127E0,6.7260203E0,3.669133E2,4.2236285E0,1.1030146E1,2.0967276E0],"tree_param":{"num_deleted":"0","num_feature":"59","num_nodes":"13","size_leaf_vector":"1"}},{"base_weights":[9.457126E-3,3.9044553E-3,1.9197318E-1,-3.6015627E-3,1.6278909E-1,8.064794E-2,4.789373E-2,1.7536558E-3,-8.985893E-3,4.5316387E-2,-1.2789177E-2,-7.726369E-3,2.912504E-2],"categories":[],"categories_nodes":[],"categories_segments":[],"categories_sizes":[],"default_left":[0,0,0,0,0,0,0,0,0,0,0,0,0],"id":56,"left_children":[1,3,5,7,9,11,-1,-1,-1,-1,-1,-1,-1],"loss_changes":[3.998207E-1,4.5926213E-1,3.33517E-1,6.72982E-1,1.5242188E0,3.4161574E-1,0E0,0E0,0E0,0E0,0E0,0E0,0E0],"parents":[2147483647,0,0,1,1,2,2,3,3,4,4,5,5],"right_children":[2,4,6,8,10,12,-1,-1,-1,-1,-1,-1,-1],"split_conditions":[1E0,1E0,2.6E1,1E0,1E0,7.5E-1,4.789373E-2,1.7536558E-3,-8.985893E-3,4.5316387E-2,-1.2789177E-2,-7.726369E-3,2.912504E-2],"split_indices":[5,50,0,22,34,11,0,0,0,0,0,0,0],"split_type":[0,0,0,0,0,0,0,0,0,0,0,0,0],"sum_hessian":[3.9425348E2,3.836045E2,1.0648975E1,3.6723303E2,1.6371468E1,8.595474E0,2.0535014E0,2.9559225E2,7.164077E1,7.910412E0,8.461057E0,5.2740636E0,3.3214104E0],"tree_param":{"num_deleted":"0","num_feature":"59","num_nodes":"13","size_leaf_vector":"1"}},{"base_weights":[8.774698E-3,3.2422137E-3,1.857615E-1,1.1187439E-2,-1.53595E-1,-1.12941526E-1,3.7727728E-1,6.30917E-3,-2.2885173E-3,-2.3727626E-2,5.9562713E-2,7.565812E-3,-1.9974818E-2,5.5069238E-2,-6.725178E-3],"categories":[],"categories_nodes":[],"categories_segments":[],"categories_sizes":[],"default_left":[0,0,0,0,0,0,0,0,0,0,0,0,0,0,0],"id":57,"left_children":[1,3,5,7,9,11,13,-1,-1,-1,-1,-1,-1,-1,-1],"loss_changes":[3.861435E-1,4.8024336E-1,7.26483E-1,6.494843E-1,1.306454E0,1.04173325E-1,6.163186E-1,0E0,0E0,0E0,0E0,0E0,0E0,0E0,0E0],"parents":[2147483647,0,0,1,1,2,2,3,3,4,4,5,5,6,6],"right_children":[2,4,6,8,10,12,14,-1,-1,-1,-1,-1,-1,-1,-1],"split_conditions":[1E0,1E0,2.5E1,7.5E-1,1E0,7.5E-1,1E0,6.30917E-3,-2.2885173E-3,-2.3727626E-2,5.9562713E-2,7.565812E-3,-1.9974818E-2,5.5069238E-2,-6.725178E-3],"split_indices":[23,42,0,11,12,21,51,0,0,0,0,0,0,0,0],"split_type":[0,0,0,0,0,0,0,0,0,0,0,0,0,0,0],"sum_hessian":[3.9397046E2,3.8301596E2,1.0954493E1,3.654322E2,1.758378E1,4.4399204E0,6.514572E0,1.4448315E2,2.2094902E2,1.6431803E1,1.1519785E0,1.4399203E0,3E0,4.514572E0,2E0],"tree_param":{"num_deleted":"0","num_feature":"59","num_nodes":"15","size_leaf_vector":"1"}},{"base_weights":[8.108985E-3,2.8439127E-3,1.8660678E-1,1.0206717E-2,-1.4859016E-1,-1.4688756E-1,5.5581146E-1,6.5243675E-4,4.8780534E-2,-2.896822E-2,1.3749549E-2,6.6811033E-3,-3.0917892E-2,-9.555797E-3,7.192808E-2],"categories":[],"categories_nodes":[],"categories_segments":[],"categories_sizes":[],"default_left":[0,0,0,0,0,0,0,0,0,0,0,0,0,0,0],"id":58,"left_children":[1,3,5,7,9,11,13,-1,-1,-1,-1,-1,-1,-1,-1],"loss_changes":[3.704457E-1,4.301636E-1,1.4722879E0,6.432298E-1,7.6192766E-1,2.5389344E-1,6.6173756E-1,0E0,0E0,0E0,0E0,0E0,0E0,0E0,0E0],"parents":[2147483647,0,0,1,1,2,2,3,3,4,4,5,5,6,6],"right_children":[2,4,6,8,10,12,14,-1,-1,-1,-1,-1,-1,-1,-1],"split_conditions":[1E0,1E0,2.5E1,3.4E1,7.5E-1,1E0,5E-1,6.5243675E-4,4.8780534E-2,-2.896822E-2,1.3749549E-2,6.6811033E-3,-3.0917892E-2,-9.555797E-3,7.192808E-2],"split_indices":[33,17,0,0,44,21,21,0,0,0,0,0,0,0,0],"split_type":[0,0,0,0,0,0,0,0,0,0,0,0,0,0,0],"sum_hessian":[3.9373813E2,3.834438E2,1.0294343E1,3.6655432E2,1.6889465E1,5.725121E0,4.569222E0,3.6475568E2,1.7986549E0,1.1302643E1,5.586822E0,2.7251208E0,3E0,1E0,3.569222E0],"tree_param":{"num_deleted":"0","num_feature":"59","num_nodes":"15","size_leaf_vector":"1"}},{"base_weights":[7.5075706E-3,2.3361929E-3,1.8893796E-1,8.979224E-3,-1.626828E-1,2.283127E-2,4.7536248E-1,2.7498825E-5,1.8755326E-2,-2.739673E-2,1.9730616E-2,-2.1353547E-2,2.0879632E-2,5.4947417E-2,1.2809259E-2],"categories":[],"categories_nodes":[],"categories_segments":[],"categories_sizes":[],"default_left":[0,0,0,0,0,0,0,0,0,0,0,0,0,0,0],"id":59,"left_children":[1,3,5,7,9,11,13,-1,-1,-1,-1,-1,-1,-1,-1],"loss_changes":[3.6963856E-1,4.229814E-1,5.0862765E-1,5.7597077E-1,6.5227216E-1,3.9453363E-1,3.146684E-2,0E0,0E0,0E0,0E0,0E0,0E0,0E0,0E0],"parents":[2147483647,0,0,1,1,2,2,3,3,4,4,5,5,6,6],"right_children":[2,4,6,8,10,12,14,-1,-1,-1,-1,-1,-1,-1,-1],"split_conditions":[1E0,1E0,1E0,1E0,1E0,1E0,2.6E1,2.7498825E-5,1.8755326E-2,-2.739673E-2,1.9730616E-2,-2.1353547E-2,2.0879632E-2,5.4947417E-2,1.2809259E-2],"split_indices":[36,48,38,50,46,31,0,0,0,0,0,0,0,0,0],"split_type":[0,0,0,0,0,0,0,0,0,0,0,0,0,0,0],"sum_hessian":[3.9343848E2,3.8351974E2,9.91873E0,3.695872E2,1.3932573E1,6.961339E0,2.9573905E0,3.5336465E2,1.6222517E1,1.0825125E1,3.107448E0,3E0,3.961339E0,1.9573907E0,1E0],"tree_param":{"num_deleted":"0","num_feature":"59","num_nodes":"15","size_leaf_vector":"1"}},{"base_weights":[6.9678347E-3,1.4264908E-1,1.0624165E-4,2.9783624E-1,-2.5700876E-1,-5.497658E-2,4.0707155E-3,6.8455786E-3,7.165557E-2,8.660431E-3,-4.3713626E-2,-3.6265343E-2,9.3198474E-4],"categories":[],"categories_nodes":[],"categories_segments":[],"categories_sizes":[],"default_left":[0,0,0,0,0,0,0,0,0,0,0,0,0],"id":60,"left_children":[1,3,5,7,9,-1,11,-1,-1,-1,-1,-1,-1],"loss_changes":[3.6704034E-1,1.2535927E0,8.225234E-1,1.3083794E0,3.9961824E-1,0E0,7.2444975E-1,0E0,0E0,0E0,0E0,0E0,0E0],"parents":[2147483647,0,0,1,1,2,2,3,3,4,4,6,6],"right_children":[2,4,6,8,10,-1,12,-1,-1,-1,-1,-1,-1],"split_conditions":[5E-1,1E0,2.5E-1,5E-1,5E-1,-5.497658E-2,2.5E-1,6.8455786E-3,7.165557E-2,8.660431E-3,-4.3713626E-2,-3.6265343E-2,9.3198474E-4],"split_indices":[6,8,44,11,21,0,34,0,0,0,0,0,0],"split_type":[0,0,0,0,0,0,0,0,0,0,0,0,0],"sum_hessian":[3.9326382E2,1.7977955E1,3.7528586E2,1.3133131E1,4.8448234E0,1.7008805E0,3.73585E2,9.23665E0,3.89648E0,1.8448235E0,3E0,4.3110423E0,3.6927393E2],"tree_param":{"num_deleted":"0","num_feature":"59","num_nodes":"13","size_leaf_vector":"1"}},{"base_weights":[6.175298E-3,1.8644188E-1,9.363581E-4,-3.0579392E-2,3.278701E-1,7.4947667E-3,-1.7146914E-1,4.1142307E-2,-1.7542006E-2,2.6881724E-4,3.5725784E-2,-2.6349664E-2,2.4324445E-2],"categories":[],"categories_nodes":[],"categories_segments":[],"categories_sizes":[],"default_left":[0,0,0,0,0,0,0,0,0,0,0,0,0],"id":61,"left_children":[1,3,5,-1,7,9,11,-1,-1,-1,-1,-1,-1],"loss_changes":[3.719561E-1,8.7460756E-1,4.3537852E-1,0E0,4.5581138E-1,6.224218E-1,6.0264087E-1,0E0,0E0,0E0,0E0,0E0,0E0],"parents":[2147483647,0,0,1,1,2,2,4,4,5,5,6,6],"right_children":[2,4,6,-1,8,10,12,-1,-1,-1,-1,-1,-1],"split_conditions":[2.5E-1,1E0,1E0,-3.0579392E-2,1E0,3.3E1,1E0,4.1142307E-2,-1.7542006E-2,2.6881724E-4,3.5725784E-2,-2.6349664E-2,2.4324445E-2],"split_indices":[11,2,58,0,27,0,21,0,0,0,0,0,0],"split_type":[0,0,0,0,0,0,0,0,0,0,0,0,0],"sum_hessian":[3.9303683E2,1.0123113E1,3.8291373E2,2E0,8.123113E0,3.6980273E2,1.31109915E1,7.1231127E0,1E0,3.6578366E2,4.0190716E0,1.102836E1,2.082631E0],"tree_param":{"num_deleted":"0","num_feature":"59","num_nodes":"13","size_leaf_vector":"1"}},{"base_weights":[5.640431E-3,-6.6838256E-4,1.4543653E-1,2.2839302E-2,-7.072401E-2,2.3338121E-1,-6.3128166E-2,8.582803E-3,-2.9380424E-3,9.871962E-4,-3.233838E-2,3.4482222E-2,-1.2288675E-2],"categories":[],"categories_nodes":[],"categories_segments":[],"categories_sizes":[],"default_left":[0,0,0,0,0,0,0,0,0,0,0,0,0],"id":62,"left_children":[1,3,5,7,9,11,-1,-1,-1,-1,-1,-1,-1],"loss_changes":[3.474324E-1,6.2382245E-1,1.3092564E0,9.355092E-1,1.941181E0,6.780193E-1,0E0,0E0,0E0,0E0,0E0,0E0,0E0],"parents":[2147483647,0,0,1,1,2,2,3,3,4,4,5,5],"right_children":[2,4,6,8,10,12,-1,-1,-1,-1,-1,-1,-1],"split_conditions":[1E0,2.7E1,1E0,1E0,1E0,1E0,-6.3128166E-2,8.582803E-3,-2.9380424E-3,9.871962E-4,-3.233838E-2,3.4482222E-2,-1.2288675E-2],"split_indices":[3,0,24,7,21,30,0,0,0,0,0,0,0],"split_type":[0,0,0,0,0,0,0,0,0,0,0,0,0],"sum_hessian":[3.9282758E2,3.768175E2,1.601006E1,2.8264716E2,9.417036E1,1.5010059E1,1E0,1.2782177E2,1.548254E2,7.212434E1,2.2046022E1,1.1458084E1,3.5519748E0],"tree_param":{"num_deleted":"0","num_feature":"59","num_nodes":"13","size_leaf_vector":"1"}},{"base_weights":[4.922779E-3,1.1821104E-2,-1.2288254E-1,2.9509494E-2,-6.80927E-2,-1.8975165E-1,2.9623708E-1,6.9767893E-3,-3.1453047E-3,-9.911113E-3,4.394832E-2,2.2968229E-2,-2.461919E-2,6.163293E-2,-2.000912E-2],"categories":[],"categories_nodes":[],"categories_segments":[],"categories_sizes":[],"default_left":[0,0,0,0,0,0,0,0,0,0,0,0,0,0,0],"id":63,"left_children":[1,3,5,7,9,11,13,-1,-1,-1,-1,-1,-1,-1,-1],"loss_changes":[3.4843266E-1,5.3112584E-1,6.2352955E-1,7.5608873E-1,1.1163659E0,4.8423964E-1,6.278456E-1,0E0,0E0,0E0,0E0,0E0,0E0,0E0,0E0],"parents":[2147483647,0,0,1,1,2,2,3,3,4,4,5,5,6,6],"right_children":[2,4,6,8,10,12,14,-1,-1,-1,-1,-1,-1,-1,-1],"split_conditions":[1E0,1E0,1E0,1E0,1E0,5E-1,2.7E1,6.9767893E-3,-3.1453047E-3,-9.911113E-3,4.394832E-2,2.2968229E-2,-2.461919E-2,6.163293E-2,-2.000912E-2],"split_indices":[56,39,12,6,26,21,0,0,0,0,0,0,0,0,0],"split_type":[0,0,0,0,0,0,0,0,0,0,0,0,0,0,0],"sum_hessian":[3.9256085E2,3.733184E2,1.924245E1,3.0617853E2,6.7139854E1,1.7066769E1,2.1756837E0,1.8431578E2,1.21862755E2,6.403156E1,3.1082926E0,1.6601243E0,1.5406644E1,1.1756837E0,1E0],"tree_param":{"num_deleted":"0","num_feature":"59","num_nodes":"15","size_leaf_vector":"1"}},{"base_weights":[4.64064E-3,-4.828519E-4,1.7035168E-1,-7.506459E-3,1.6470513E-1,-1.0821561E-1,3.526531E-1,-1.4397817E-3,1.8304987E-2,-9.970132E-3,2.8043037E-2,6.585543E-3,-1.8702587E-2,5.205647E-2,-6.529078E-3],"categories":[],"categories_nodes":[],"categories_segments":[],"categories_sizes":[],"default_left":[0,0,0,0,0,0,0,0,0,0,0,0,0,0,0],"id":64,"left_children":[1,3,5,7,9,11,13,-1,-1,-1,-1,-1,-1,-1,-1],"loss_changes":[3.3404046E-1,4.4507238E-1,6.3738656E-1,4.8575962E-1,5.0669247E-1,8.6845145E-2,5.509853E-1,0E0,0E0,0E0,0E0,0E0,0E0,0E0,0E0],"parents":[2147483647,0,0,1,1,2,2,3,3,4,4,5,5,6,6],"right_children":[2,4,6,8,10,12,14,-1,-1,-1,-1,-1,-1,-1,-1],"split_conditions":[1E0,1E0,2.5E1,1E0,1E0,7.5E-1,1E0,-1.4397817E-3,1.8304987E-2,-9.970132E-3,2.8043037E-2,6.585543E-3,-1.8702587E-2,5.205647E-2,-6.529078E-3],"split_indices":[23,20,0,18,31,21,21,0,0,0,0,0,0,0,0],"split_type":[0,0,0,0,0,0,0,0,0,0,0,0,0,0,0],"sum_hessian":[3.923459E2,3.8154623E2,1.0799648E1,3.6690057E2,1.4645642E1,4.4326653E0,6.3669825E0,3.5498712E2,1.191346E1,4.5007944E0,1.0144848E1,1.4326655E0,3E0,4.3669825E0,2E0],"tree_param":{"num_deleted":"0","num_feature":"59","num_nodes":"15","size_leaf_vector":"1"}},{"base_weights":[4.3681953E-3,-6.0543267E-4,1.7072701E-1,-6.4626117E-3,1.9865516E-1,6.583816E-2,4.539498E-2,-4.2401454E-3,2.774934E-3,3.307774E-2,-2.621398E-2,-8.496584E-3,2.7268512E-2],"categories":[],"categories_nodes":[],"categories_segments":[],"categories_sizes":[],"default_left":[0,0,0,0,0,0,0,0,0,0,0,0,0],"id":65,"left_children":[1,3,5,7,9,11,-1,-1,-1,-1,-1,-1,-1],"loss_changes":[3.2536292E-1,4.4792563E-1,3.092196E-1,4.5946556E-1,7.5392926E-1,3.1949773E-1,0E0,0E0,0E0,0E0,0E0,0E0,0E0],"parents":[2147483647,0,0,1,1,2,2,3,3,4,4,5,5],"right_children":[2,4,6,8,10,12,-1,-1,-1,-1,-1,-1,-1],"split_conditions":[1E0,1E0,2.6E1,1E0,1E0,7.5E-1,4.539498E-2,-4.2401454E-3,2.774934E-3,3.307774E-2,-2.621398E-2,-8.496584E-3,2.7268512E-2],"split_indices":[5,25,0,13,38,11,0,0,0,0,0,0,0],"split_type":[0,0,0,0,0,0,0,0,0,0,0,0,0],"sum_hessian":[3.9210712E2,3.8169205E2,1.0415082E1,3.717327E2,9.959354E0,8.499744E0,1.9153385E0,1.8117416E2,1.9055852E2,7.9593544E0,2E0,5.256598E0,3.243146E0],"tree_param":{"num_deleted":"0","num_feature":"59","num_nodes":"13","size_leaf_vector":"1"}},{"base_weights":[4.1256375E-3,-7.038583E-4,1.7601065E-1,5.3924397E-3,-1.5151992E-1,1.9134577E-2,4.5297512E-1,-2.4833213E-4,1.6780209E-2,-2.517514E-2,1.7629012E-2,2.7904654E-2,-1.3246407E-2,5.1627517E-2,1.3660833E-2],"categories":[],"categories_nodes":[],"categories_segments":[],"categories_sizes":[],"default_left":[0,0,0,0,0,0,0,0,0,0,0,0,0,0,0],"id":66,"left_children":[1,3,5,7,9,11,13,-1,-1,-1,-1,-1,-1,-1,-1],"loss_changes":[3.2625282E-1,3.53074E-1,4.5801443E-1,4.7267324E-1,5.3459203E-1,3.4828535E-1,6.36822E-3,0E0,0E0,0E0,0E0,0E0,0E0,0E0,0E0],"parents":[2147483647,0,0,1,1,2,2,3,3,4,4,5,5,6,6],"right_children":[2,4,6,8,10,12,14,-1,-1,-1,-1,-1,-1,-1,-1],"split_conditions":[1E0,1E0,1E0,1E0,1E0,1E0,2.6E1,-2.4833213E-4,1.6780209E-2,-2.517514E-2,1.7629012E-2,2.7904654E-2,-1.3246407E-2,5.1627517E-2,1.3660833E-2],"split_indices":[36,48,38,50,46,2,0,0,0,0,0,0,0,0,0],"split_type":[0,0,0,0,0,0,0,0,0,0,0,0,0,0,0],"sum_hessian":[3.9187057E2,3.821297E2,9.740889E0,3.6821014E2,1.3919573E1,6.901105E0,2.8397834E0,3.5211945E2,1.6090685E1,1.0837814E1,3.0817585E0,2.2326283E0,4.6684766E0,1.8397835E0,1E0],"tree_param":{"num_deleted":"0","num_feature":"59","num_nodes":"15","size_leaf_vector":"1"}},{"base_weights":[3.948984E-3,1.1658281E-3,3.008734E-1,1.9113978E-2,-5.3187E-2,4.5466516E-2,-5.281422E-3,3.2276108E-3,-2.2667183E-2,-1.9899046E-2,5.930621E-3],"categories":[],"categories_nodes":[],"categories_segments":[],"categories_sizes":[],"default_left":[0,0,0,0,0,0,0,0,0,0,0],"id":67,"left_children":[1,3,5,7,9,-1,-1,-1,-1,-1,-1],"loss_changes":[3.2420528E-1,3.8156977E-1,2.2218168E-1,9.584079E-1,1.6044761E0,0E0,0E0,0E0,0E0,0E0,0E0],"parents":[2147483647,0,0,1,1,2,2,3,3,4,4],"right_children":[2,4,6,8,10,-1,-1,-1,-1,-1,-1],"split_conditions":[3.4E1,2.7E1,1E0,1E0,1E0,4.5466516E-2,-5.281422E-3,3.2276108E-3,-2.2667183E-2,-1.9899046E-2,5.930621E-3],"split_indices":[0,0,17,24,13,0,0,0,0,0,0],"split_type":[0,0,0,0,0,0,0,0,0,0,0],"sum_hessian":[3.9174097E2,3.8909778E2,2.6431966E0,2.929947E2,9.610307E1,1.6431966E0,1E0,2.789265E2,1.4068174E1,4.151988E1,5.458319E1],"tree_param":{"num_deleted":"0","num_feature":"59","num_nodes":"11","size_leaf_vector":"1"}},{"base_weights":[3.5819043E-3,-1.425403E-3,1.6704127E-1,5.712588E-3,-1.4128867E-1,4.1554672E-1,-2.3080895E-2,5.266239E-3,-2.4974262E-3,-2.2045117E-2,5.7533618E-2,-1.684136E-2,6.121065E-2,-1.2974924E-2,1.3309556E-2],"categories":[],"categories_nodes":[],"categories_segments":[],"categories_sizes":[],"default_left":[0,0,0,0,0,0,0,0,0,0,0,0,0,0,0],"id":68,"left_children":[1,3,5,7,9,11,13,-1,-1,-1,-1,-1,-1,-1,-1],"loss_changes":[3.215489E-1,3.8206232E-1,5.612683E-1,5.261857E-1,1.1810061E0,6.900667E-1,1.4325808E-1,0E0,0E0,0E0,0E0,0E0,0E0,0E0,0E0],"parents":[2147483647,0,0,1,1,2,2,3,3,4,4,5,5,6,6],"right_children":[2,4,6,8,10,12,14,-1,-1,-1,-1,-1,-1,-1,-1],"split_conditions":[1E0,1E0,1E0,7.5E-1,1E0,5E-1,1E0,5.266239E-3,-2.4974262E-3,-2.2045117E-2,5.7533618E-2,-1.684136E-2,6.121065E-2,-1.2974924E-2,1.3309556E-2],"split_indices":[23,42,38,11,12,11,35,0,0,0,0,0,0,0,0],"split_type":[0,0,0,0,0,0,0,0,0,0,0,0,0,0,0],"sum_hessian":[3.9156473E2,3.8088812E2,1.0676598E1,3.633058E2,1.7582336E1,4.1138163E0,6.562782E0,1.4331807E2,2.1998772E2,1.6456799E1,1.125537E0,1.0720506E0,3.0417655E0,4E0,2.5627818E0],"tree_param":{"num_deleted":"0","num_feature":"59","num_nodes":"15","size_leaf_vector":"1"}},{"base_weights":[3.45302E-3,-1.7773882E-1,7.7702575E-3,1.564811E-2,-3.0327868E-1,2.5979763E-1,2.179822E-3,-8.32446E-3,-5.695497E-2,-2.1980664E-2,3.5523217E-2,8.332451E-4,-1.5671508E-2],"categories":[],"categories_nodes":[],"categories_segments":[],"categories_sizes":[],"default_left":[0,0,0,0,0,0,0,0,0,0,0,0,0],"id":69,"left_children":[1,3,5,-1,7,9,11,-1,-1,-1,-1,-1,-1],"loss_changes":[3.08308E-1,4.32344E-1,5.4073817E-1,0E0,3.632205E-1,4.592936E-1,3.6973542E-1,0E0,0E0,0E0,0E0,0E0,0E0],"parents":[2147483647,0,0,1,1,2,2,4,4,5,5,6,6],"right_children":[2,4,6,-1,8,10,12,-1,-1,-1,-1,-1,-1],"split_conditions":[2.5E-1,7.5E-1,2.5E-1,1.564811E-2,1E0,1E0,1E0,-8.32446E-3,-5.695497E-2,-2.1980664E-2,3.5523217E-2,8.332451E-4,-1.5671508E-2],"split_indices":[34,13,11,0,8,2,58,0,0,0,0,0,0],"split_type":[0,0,0,0,0,0,0,0,0,0,0,0,0],"sum_hessian":[3.9136517E2,8.173158E0,3.8319202E2,2.1644256E0,6.008732E0,7.328698E0,3.758633E2,4.008732E0,2E0,1E0,6.328698E0,3.6276416E2,1.3099165E1],"tree_param":{"num_deleted":"0","num_feature":"59","num_nodes":"13","size_leaf_vector":"1"}},{"base_weights":[2.9834579E-3,-1.7822261E-3,1.6683547E-1,3.3923218E-3,-1.9458269E-1,-1.4543587E-1,5.23657E-1,-3.098768E-4,2.0248368E-2,5.27292E-2,-3.6811244E-2,2.1369562E-3,-3.5830226E-2,-1.0193472E-2,6.891475E-2],"categories":[],"categories_nodes":[],"categories_segments":[],"categories_sizes":[],"default_left":[0,0,0,0,0,0,0,0,0,0,0,0,0,0,0],"id":70,"left_children":[1,3,5,7,9,11,13,-1,-1,-1,-1,-1,-1,-1,-1],"loss_changes":[3.0658278E-1,3.8190523E-1,1.3125857E0,4.828384E-1,1.4474348E0,2.4556598E-1,6.289121E-1,0E0,0E0,0E0,0E0,0E0,0E0,0E0,0E0],"parents":[2147483647,0,0,1,1,2,2,3,3,4,4,5,5,6,6],"right_children":[2,4,6,8,10,12,14,-1,-1,-1,-1,-1,-1,-1,-1],"split_conditions":[1E0,1E0,2.5E1,1E0,7.5E-1,1E0,5E-1,-3.098768E-4,2.0248368E-2,5.27292E-2,-3.6811244E-2,2.1369562E-3,-3.5830226E-2,-1.0193472E-2,6.891475E-2],"split_indices":[33,52,0,18,21,34,21,0,0,0,0,0,0,0,0],"split_type":[0,0,0,0,0,0,0,0,0,0,0,0,0,0,0],"sum_hessian":[3.912377E2,3.811412E2,1.0096481E1,3.721359E2,9.005305E0,5.7002964E0,4.3961844E0,3.613394E2,1.0796519E1,1.3501456E0,7.6551595E0,3.7002964E0,2E0,1E0,3.3961847E0],"tree_param":{"num_deleted":"0","num_feature":"59","num_nodes":"15","size_leaf_vector":"1"}},{"base_weights":[2.862424E-3,2.077593E-4,2.912251E-1,-1.9047877E-1,4.652818E-3,4.3912176E-2,-4.481593E-3,5.569521E-3,-3.9338555E-2,2.3734676E-2,-4.8303744E-5],"categories":[],"categories_nodes":[],"categories_segments":[],"categories_sizes":[],"default_left":[0,0,0,0,0,0,0,0,0,0,0],"id":71,"left_children":[1,3,5,7,9,-1,-1,-1,-1,-1,-1],"loss_changes":[3.0002123E-1,3.3097145E-1,1.9736257E-1,4.6621647E-1,4.560795E-1,0E0,0E0,0E0,0E0,0E0,0E0],"parents":[2147483647,0,0,1,1,2,2,3,3,4,4],"right_children":[2,4,6,8,10,-1,-1,-1,-1,-1,-1],"split_conditions":[3.4E1,2.5E-1,1E0,5E-1,2.5E-1,4.3912176E-2,-4.481593E-3,5.569521E-3,-3.9338555E-2,2.3734676E-2,-4.8303744E-5],"split_indices":[0,34,17,44,11,0,0,0,0,0,0],"split_type":[0,0,0,0,0,0,0,0,0,0,0],"sum_hessian":[3.9100433E2,3.8842917E2,2.5751557E0,7.8949637E0,3.805342E2,1.5751557E0,1E0,3.8949637E0,4E0,7.241136E0,3.732931E2],"tree_param":{"num_deleted":"0","num_feature":"59","num_nodes":"11","size_leaf_vector":"1"}},{"base_weights":[2.6573257E-3,1.5543512E-2,-5.6993183E-2,6.276204E-3,2.3067707E-1,-7.9644494E-2,5.344355E-2,1.4117173E-2,-8.951134E-4,5.1555313E-2,-1.1550237E-2,-6.0982974E-3,-6.661606E-2],"categories":[],"categories_nodes":[],"categories_segments":[],"categories_sizes":[],"default_left":[0,0,0,0,0,0,0,0,0,0,0,0,0],"id":72,"left_children":[1,3,5,7,9,11,-1,-1,-1,-1,-1,-1,-1],"loss_changes":[3.0211014E-1,6.426135E-1,9.780751E-1,6.395412E-1,1.3724735E0,7.050359E-1,0E0,0E0,0E0,0E0,0E0,0E0,0E0],"parents":[2147483647,0,0,1,1,2,2,3,3,4,4,5,5],"right_children":[2,4,6,8,10,12,-1,-1,-1,-1,-1,-1,-1],"split_conditions":[1E0,1E0,1E0,5E-1,1E0,1E0,5.344355E-2,1.4117173E-2,-8.951134E-4,5.1555313E-2,-1.1550237E-2,-6.0982974E-3,-6.661606E-2],"split_indices":[39,14,20,21,11,29,0,0,0,0,0,0,0],"split_type":[0,0,0,0,0,0,0,0,0,0,0,0,0],"sum_hessian":[3.9087848E2,3.2204675E2,6.8831726E1,3.0973352E2,1.2313217E1,6.7126175E1,1.7055507E0,3.0578108E1,2.7915543E2,6.4862905E0,5.826927E0,6.6126175E1,1E0],"tree_param":{"num_deleted":"0","num_feature":"59","num_nodes":"13","size_leaf_vector":"1"}},{"base_weights":[2.4966446E-3,-2.0467325E-3,1.6595766E-1,1.2521445E-2,-5.8271192E-2,-9.7080514E-2,3.111898E-1,2.3065316E-3,-1.851782E-2,-8.613446E-3,4.8893455E-2,-1.8816527E-2,4.9051237E-3,4.4777233E-2,-2.3343533E-3],"categories":[],"categories_nodes":[],"categories_segments":[],"categories_sizes":[],"default_left":[0,0,0,0,0,0,0,0,0,0,0,0,0,0,0],"id":73,"left_children":[1,3,5,7,9,11,13,-1,-1,-1,-1,-1,-1,-1,-1],"loss_changes":[2.9120812E-1,3.1366318E-1,4.352921E-1,6.3849306E-1,1.2435408E0,6.958233E-2,3.3346957E-1,0E0,0E0,0E0,0E0,0E0,0E0,0E0,0E0],"parents":[2147483647,0,0,1,1,2,2,3,3,4,4,5,5,6,6],"right_children":[2,4,6,8,10,12,14,-1,-1,-1,-1,-1,-1,-1,-1],"split_conditions":[1E0,1E0,1E0,1E0,1E0,2.3E1,1E0,2.3065316E-3,-1.851782E-2,-8.613446E-3,4.8893455E-2,-1.8816527E-2,4.9051237E-3,4.4777233E-2,-2.3343533E-3],"split_indices":[36,22,31,42,15,0,26,0,0,0,0,0,0,0,0],"split_type":[0,0,0,0,0,0,0,0,0,0,0,0,0,0,0],"sum_hessian":[3.9065503E2,3.8105124E2,9.603789E0,3.0325333E2,7.7797905E1,3.5342524E0,6.0695367E0,2.887375E2,1.4515841E1,7.483021E1,2.9676998E0,2E0,1.5342525E0,4.0695367E0,2E0],"tree_param":{"num_deleted":"0","num_feature":"59","num_nodes":"15","size_leaf_vector":"1"}},{"base_weights":[2.3939416E-3,8.553876E-3,-1.17642E-1,-7.254562E-4,2.524588E-1,-2.0707859E-2,-9.398525E-2,-1.7759431E-3,8.544885E-3,4.516781E-2,3.2095548E-3,-2.0671224E-2,1.6460221E-2],"categories":[],"categories_nodes":[],"categories_segments":[],"categories_sizes":[],"default_left":[0,0,0,0,0,0,0,0,0,0,0,0,0],"id":74,"left_children":[1,3,5,7,9,11,-1,-1,-1,-1,-1,-1,-1],"loss_changes":[2.9048774E-1,8.451169E-1,1.5090247E0,5.3089505E-1,5.8629876E-1,6.6059136E-1,0E0,0E0,0E0,0E0,0E0,0E0,0E0],"parents":[2147483647,0,0,1,1,2,2,3,3,4,4,5,5],"right_children":[2,4,6,8,10,12,-1,-1,-1,-1,-1,-1,-1],"split_conditions":[1E0,1E0,1E0,1E0,7.5E-1,7.5E-1,-9.398525E-2,-1.7759431E-3,8.544885E-3,4.516781E-2,3.2095548E-3,-2.0671224E-2,1.6460221E-2],"split_indices":[54,18,18,35,35,35,0,0,0,0,0,0,0],"split_type":[0,0,0,0,0,0,0,0,0,0,0,0,0],"sum_hessian":[3.9050146E2,3.7232355E2,1.817794E1,3.5963818E2,1.2685362E1,1.717794E1,1E0,3.009447E2,5.8693478E1,6.1110096E0,6.5743523E0,8.515271E0,8.662669E0],"tree_param":{"num_deleted":"0","num_feature":"59","num_nodes":"13","size_leaf_vector":"1"}},{"base_weights":[2.0552797E-3,-2.505019E-3,1.5652855E-1,-7.686405E-3,1.7672099E-1,5.5111066E-2,4.391869E-2,-1.4614819E-5,-1.544328E-2,4.1111656E-2,-9.492798E-3,-8.924579E-3,2.5730425E-2],"categories":[],"categories_nodes":[],"categories_segments":[],"categories_sizes":[],"default_left":[0,0,0,0,0,0,0,0,0,0,0,0,0],"id":75,"left_children":[1,3,5,7,9,11,-1,-1,-1,-1,-1,-1,-1],"loss_changes":[2.760877E-1,3.552886E-1,2.9795587E-1,4.1090867E-1,7.235413E-1,2.9774407E-1,0E0,0E0,0E0,0E0,0E0,0E0,0E0],"parents":[2147483647,0,0,1,1,2,2,3,3,4,4,5,5],"right_children":[2,4,6,8,10,12,-1,-1,-1,-1,-1,-1,-1],"split_conditions":[1E0,1E0,2.6E1,1E0,1E0,7.5E-1,4.391869E-2,-1.4614819E-5,-1.544328E-2,4.1111656E-2,-9.492798E-3,-8.924579E-3,2.5730425E-2],"split_indices":[5,25,0,54,22,11,0,0,0,0,0,0,0],"split_type":[0,0,0,0,0,0,0,0,0,0,0,0,0],"sum_hessian":[3.903661E2,3.801279E2,1.0238202E1,3.7037747E2,9.750421E0,8.414179E0,1.8240231E0,3.5322855E2,1.7148914E1,4.9585047E0,4.791916E0,5.235137E0,3.1790416E0],"tree_param":{"num_deleted":"0","num_feature":"59","num_nodes":"13","size_leaf_vector":"1"}},{"base_weights":[2.0628495E-3,-4.747235E-4,2.8327724E-1,1.6495926E-2,-5.1780026E-2,4.228063E-2,-3.2729718E-3,1.5957466E-4,2.1727033E-2,-1.9370778E-2,5.789769E-3],"categories":[],"categories_nodes":[],"categories_segments":[],"categories_sizes":[],"default_left":[0,0,0,0,0,0,0,0,0,0,0],"id":76,"left_children":[1,3,5,7,9,-1,-1,-1,-1,-1,-1],"loss_changes":[2.7923486E-1,3.3921555E-1,1.681337E-1,8.755257E-1,1.5185908E0,0E0,0E0,0E0,0E0,0E0,0E0],"parents":[2147483647,0,0,1,1,2,2,3,3,4,4],"right_children":[2,4,6,8,10,-1,-1,-1,-1,-1,-1],"split_conditions":[3.4E1,2.7E1,1E0,1E0,1E0,4.228063E-2,-3.2729718E-3,1.5957466E-4,2.1727033E-2,-1.9370778E-2,5.789769E-3],"split_indices":[0,0,17,1,13,0,0,0,0,0,0],"split_type":[0,0,0,0,0,0,0,0,0,0,0],"sum_hessian":[3.9011487E2,3.8761548E2,2.4993844E0,2.9177972E2,9.583575E1,1.4993844E0,1E0,2.7256003E2,1.9219696E1,4.1441925E1,5.4393818E1],"tree_param":{"num_deleted":"0","num_feature":"59","num_nodes":"11","size_leaf_vector":"1"}},{"base_weights":[1.9897858E-3,-2.53148E-3,1.5108018E-1,-8.562828E-3,1.4114398E-1,-9.7720906E-2,3.1960502E-1,9.844875E-4,-5.99734E-3,4.809938E-3,5.2841365E-2,6.898737E-3,-1.7411826E-2,4.7612604E-2,-5.323575E-3],"categories":[],"categories_nodes":[],"categories_segments":[],"categories_sizes":[],"default_left":[0,0,0,0,0,0,0,0,0,0,0,0,0,0,0],"id":77,"left_children":[1,3,5,7,9,11,13,-1,-1,-1,-1,-1,-1,-1,-1],"loss_changes":[2.6391593E-1,3.3087355E-1,5.144018E-1,3.469992E-1,5.289171E-1,8.103202E-2,4.399308E-1,0E0,0E0,0E0,0E0,0E0,0E0,0E0,0E0],"parents":[2147483647,0,0,1,1,2,2,3,3,4,4,5,5,6,6],"right_children":[2,4,6,8,10,12,14,-1,-1,-1,-1,-1,-1,-1,-1],"split_conditions":[1E0,1E0,2.5E1,2.7E1,2.7E1,7.5E-1,1E0,9.844875E-4,-5.99734E-3,4.809938E-3,5.2841365E-2,6.898737E-3,-1.7411826E-2,4.7612604E-2,-5.323575E-3],"split_indices":[23,20,0,0,0,21,51,0,0,0,0,0,0,0,0],"split_type":[0,0,0,0,0,0,0,0,0,0,0,0,0,0,0],"sum_hessian":[3.8995438E2,3.794309E2,1.0523476E1,3.6504703E2,1.4383897E1,4.419258E0,6.104217E0,2.6939713E2,9.56499E1,1.250393E1,1.8799669E0,1.4192581E0,3E0,4.104217E0,2E0],"tree_param":{"num_deleted":"0","num_feature":"59","num_nodes":"15","size_leaf_vector":"1"}},{"base_weights":[2.0210429E-3,-4.0526738E-4,2.7487373E-1,-1.8463618E-1,3.8804843E-3,4.102376E-2,-2.8094563E-3,4.0143603E-3,-3.656909E-2,2.2130905E-2,-8.8330984E-5],"categories":[],"categories_nodes":[],"categories_segments":[],"categories_sizes":[],"default_left":[0,0,0,0,0,0,0,0,0,0,0],"id":78,"left_children":[1,3,5,7,9,-1,-1,-1,-1,-1,-1],"loss_changes":[2.5881135E-1,3.0732527E-1,1.5283796E-1,3.7480316E-1,3.9428678E-1,0E0,0E0,0E0,0E0,0E0,0E0],"parents":[2147483647,0,0,1,1,2,2,3,3,4,4],"right_children":[2,4,6,8,10,-1,-1,-1,-1,-1,-1],"split_conditions":[3.4E1,2.5E-1,1E0,5E-1,2.5E-1,4.102376E-2,-2.8094563E-3,4.0143603E-3,-3.656909E-2,2.2130905E-2,-8.8330984E-5],"split_indices":[0,34,17,44,11,0,0,0,0,0,0],"split_type":[0,0,0,0,0,0,0,0,0,0,0],"sum_hessian":[3.8977054E2,3.873248E2,2.4457252E0,7.848789E0,3.79476E2,1.4457252E0,1E0,3.8487892E0,4E0,7.1613646E0,3.7231467E2],"tree_param":{"num_deleted":"0","num_feature":"59","num_nodes":"11","size_leaf_vector":"1"}},{"base_weights":[1.8949962E-3,-3.546247E-3,1.2371525E-1,-1.177958E-2,1.7572933E-1,2.0681193E-1,-5.9174288E-2,-5.3618844E-3,2.7299533E-3,6.0905196E-2,-9.69294E-3,3.0697748E-2,-1.0410431E-2],"categories":[],"categories_nodes":[],"categories_segments":[],"categories_sizes":[],"default_left":[0,0,0,0,0,0,0,0,0,0,0,0,0],"id":79,"left_children":[1,3,5,7,9,11,-1,-1,-1,-1,-1,-1,-1],"loss_changes":[2.5938922E-1,5.554787E-1,1.1170793E0,5.891032E-1,2.01152E0,5.218723E-1,0E0,0E0,0E0,0E0,0E0,0E0,0E0],"parents":[2147483647,0,0,1,1,2,2,3,3,4,4,5,5],"right_children":[2,4,6,8,10,12,-1,-1,-1,-1,-1,-1,-1],"split_conditions":[1E0,1E0,1E0,1E0,1E0,1E0,-5.9174288E-2,-5.3618844E-3,2.7299533E-3,6.0905196E-2,-9.69294E-3,3.0697748E-2,-1.0410431E-2],"split_indices":[3,43,24,13,7,30,0,0,0,0,0,0,0],"split_type":[0,0,0,0,0,0,0,0,0,0,0,0,0],"sum_hessian":[3.8966016E2,3.7392905E2,1.5731086E1,3.5840347E2,1.5525589E1,1.4731086E1,1E0,1.7290942E2,1.8549403E2,5.5196843E0,1.0005904E1,1.1151242E1,3.5798433E0],"tree_param":{"num_deleted":"0","num_feature":"59","num_nodes":"13","size_leaf_vector":"1"}},{"base_weights":[1.7505393E-3,1.8650675E-2,-4.029262E-2,8.26038E-3,3.0945686E-1,-1.4420356E-1,1.16568625E-1,-3.4643343E-4,2.1938894E-2,5.4084253E-3,6.839936E-2,-1.8794658E-2,2.1889044E-2,4.377231E-2,4.142988E-3],"categories":[],"categories_nodes":[],"categories_segments":[],"categories_sizes":[],"default_left":[0,0,0,0,0,0,0,0,0,0,0,0,0,0,0],"id":80,"left_children":[1,3,5,7,9,11,13,-1,-1,-1,-1,-1,-1,-1,-1],"loss_changes":[2.7820936E-1,8.4110606E-1,1.8468887E0,6.7063224E-1,8.8164675E-1,1.120932E0,1.0748291E0,0E0,0E0,0E0,0E0,0E0,0E0,0E0,0E0],"parents":[2147483647,0,0,1,1,2,2,3,3,4,4,5,5,6,6],"right_children":[2,4,6,8,10,12,14,-1,-1,-1,-1,-1,-1,-1,-1],"split_conditions":[1E0,1E0,1E0,1E0,2.6E1,1E0,1E0,-3.4643343E-4,2.1938894E-2,5.4084253E-3,6.839936E-2,-1.8794658E-2,2.1889044E-2,4.377231E-2,4.142988E-3],"split_indices":[34,50,35,27,0,32,21,0,0,0,0,0,0,0,0],"split_type":[0,0,0,0,0,0,0,0,0,0,0,0,0,0,0],"sum_hessian":[3.8949142E2,2.7821387E2,1.1127756E2,2.6960934E2,8.604543E0,6.698488E1,4.4292675E1,2.5635654E2,1.3252792E1,5.7966094E0,2.8079336E0,6.0213192E1,6.771689E0,7.4831243E0,3.680955E1],"tree_param":{"num_deleted":"0","num_feature":"59","num_nodes":"15","size_leaf_vector":"1"}},{"base_weights":[1.975099E-3,1.165237E-1,-3.698544E-3,2.555786E-1,-2.3046118E-1,-5.2500483E-2,7.015274E-5,-2.8006958E-3,5.4309305E-2,7.2243433E-3,-3.8503487E-2,-2.8778134E-2,4.2124113E-4],"categories":[],"categories_nodes":[],"categories_segments":[],"categories_sizes":[],"default_left":[0,0,0,0,0,0,0,0,0,0,0,0,0],"id":81,"left_children":[1,3,5,7,9,-1,11,-1,-1,-1,-1,-1,-1],"loss_changes":[2.5406665E-1,9.490392E-1,7.3248714E-1,1.1277196E0,2.9938203E-1,0E0,4.4374245E-1,0E0,0E0,0E0,0E0,0E0,0E0],"parents":[2147483647,0,0,1,1,2,2,3,3,4,4,6,6],"right_children":[2,4,6,8,10,-1,12,-1,-1,-1,-1,-1,-1],"split_conditions":[5E-1,1E0,2.5E-1,5E-1,1E0,-5.2500483E-2,2.5E-1,-2.8006958E-3,5.4309305E-2,7.2243433E-3,-3.8503487E-2,-2.8778134E-2,4.2124113E-4],"split_indices":[6,8,44,35,7,0,34,0,0,0,0,0,0],"split_type":[0,0,0,0,0,0,0,0,0,0,0,0,0],"sum_hessian":[3.8926404E2,1.7448479E1,3.7181555E2,1.264457E1,4.803908E0,1.675997E0,3.7013956E2,6.820179E0,5.824392E0,1.803908E0,3E0,4.279457E0,3.658601E2],"tree_param":{"num_deleted":"0","num_feature":"59","num_nodes":"13","size_leaf_vector":"1"}},{"base_weights":[1.6381246E-3,1.3409673E-2,-5.274902E-2,4.9262834E-3,2.1197997E-1,-7.3116E-2,5.0195802E-2,6.2056575E-3,-3.159602E-3,4.870784E-2,-1.1556239E-2,-5.5687185E-3,-6.2058266E-2],"categories":[],"categories_nodes":[],"categories_segments":[],"categories_sizes":[],"default_left":[0,0,0,0,0,0,0,0,0,0,0,0,0],"id":82,"left_children":[1,3,5,7,9,11,-1,-1,-1,-1,-1,-1,-1],"loss_changes":[2.504504E-1,5.4050136E-1,8.231435E-1,6.473877E-1,1.2409874E0,6.1445117E-1,0E0,0E0,0E0,0E0,0E0,0E0,0E0],"parents":[2147483647,0,0,1,1,2,2,3,3,4,4,5,5],"right_children":[2,4,6,8,10,12,-1,-1,-1,-1,-1,-1,-1],"split_conditions":[1E0,1E0,1E0,7.5E-1,1E0,1E0,5.0195802E-2,6.2056575E-3,-3.159602E-3,4.870784E-2,-1.1556239E-2,-5.5687185E-3,-6.2058266E-2],"split_indices":[39,14,20,21,11,29,0,0,0,0,0,0,0],"split_type":[0,0,0,0,0,0,0,0,0,0,0,0,0],"sum_hessian":[3.890889E2,3.204781E2,6.861081E1,3.083303E2,1.2147786E1,6.701831E1,1.5924972E0,1.199689E2,1.883614E2,6.3377366E0,5.8100495E0,6.601831E1,1E0],"tree_param":{"num_deleted":"0","num_feature":"59","num_nodes":"13","size_leaf_vector":"1"}},{"base_weights":[1.5483752E-3,-2.611672E-3,1.5305279E-1,2.849956E-3,-1.3696477E-1,9.316038E-3,4.178177E-2,-3.9707302E-4,1.446447E-2,-2.2066763E-2,1.4356642E-2,2.5201803E-2,-1.2834708E-2],"categories":[],"categories_nodes":[],"categories_segments":[],"categories_sizes":[],"default_left":[0,0,0,0,0,0,0,0,0,0,0,0,0],"id":83,"left_children":[1,3,5,7,9,11,-1,-1,-1,-1,-1,-1,-1],"loss_changes":[2.4612623E-1,2.7955335E-1,3.9326644E-1,3.550882E-1,3.8112158E-1,2.925111E-1,0E0,0E0,0E0,0E0,0E0,0E0,0E0],"parents":[2147483647,0,0,1,1,2,2,3,3,4,4,5,5],"right_children":[2,4,6,8,10,12,-1,-1,-1,-1,-1,-1,-1],"split_conditions":[1E0,1E0,1E0,1E0,1E0,1E0,4.178177E-2,-3.9707302E-4,1.446447E-2,-2.2066763E-2,1.4356642E-2,2.5201803E-2,-1.2834708E-2],"split_indices":[36,48,38,50,46,2,0,0,0,0,0,0,0],"split_type":[0,0,0,0,0,0,0,0,0,0,0,0,0],"sum_hessian":[3.8887772E2,3.7944168E2,9.436046E0,3.6555997E2,1.38817005E1,6.7867894E0,2.6492565E0,3.4971002E2,1.5849942E1,1.0855968E1,3.0257318E0,2.1556544E0,4.631135E0],"tree_param":{"num_deleted":"0","num_feature":"59","num_nodes":"13","size_leaf_vector":"1"}},{"base_weights":[1.5549636E-3,7.0167277E-3,-1.0964654E-1,4.5614014E-3,3.8992982E-2,-2.446456E-1,1.4215377E-1,-1.4436724E-4,1.4289284E-2,-3.0759899E-2,2.1385634E-3,5.768114E-2,-1.4056754E-2],"categories":[],"categories_nodes":[],"categories_segments":[],"categories_sizes":[],"default_left":[0,0,0,0,0,0,0,0,0,0,0,0,0],"id":84,"left_children":[1,3,5,7,-1,9,11,-1,-1,-1,-1,-1,-1],"loss_changes":[2.3750657E-1,3.4841323E-1,6.571317E-1,3.0848655E-1,0E0,2.1233886E-1,9.44044E-1,0E0,0E0,0E0,0E0,0E0,0E0],"parents":[2147483647,0,0,1,1,2,2,3,3,5,5,6,6],"right_children":[2,4,6,8,-1,10,12,-1,-1,-1,-1,-1,-1],"split_conditions":[1E0,3.4E1,7.5E-1,1E0,3.8992982E-2,1E0,7.5E-1,-1.4436724E-4,1.4289284E-2,-3.0759899E-2,2.1385634E-3,5.768114E-2,-1.4056754E-2],"split_indices":[17,0,44,43,0,46,11,0,0,0,0,0,0],"split_type":[0,0,0,0,0,0,0,0,0,0,0,0,0],"sum_hessian":[3.8878302E2,3.7147458E2,1.7308414E1,3.7011325E2,1.3613384E0,1.1286003E1,6.022412E0,3.556632E2,1.4450048E1,9E0,2.286003E0,1.9635007E0,4.058911E0],"tree_param":{"num_deleted":"0","num_feature":"59","num_nodes":"13","size_leaf_vector":"1"}},{"base_weights":[1.5849052E-3,7.35553E-3,-1.07354276E-1,1.09847475E-4,2.564834E-1,5.661863E-2,-1.7650056E-1,2.268589E-3,-6.822873E-3,-3.0948812E-2,4.2640332E-2,-8.472204E-3,-4.901967E-2],"categories":[],"categories_nodes":[],"categories_segments":[],"categories_sizes":[],"default_left":[0,0,0,0,0,0,0,0,0,0,0,0,0],"id":85,"left_children":[1,3,5,7,9,-1,11,-1,-1,-1,-1,-1,-1],"loss_changes":[2.4570934E-1,6.6954654E-1,1.0157104E0,5.592008E-1,1.1401153E0,0E0,4.9382985E-1,0E0,0E0,0E0,0E0,0E0,0E0],"parents":[2147483647,0,0,1,1,2,2,3,3,4,4,6,6],"right_children":[2,4,6,8,10,-1,12,-1,-1,-1,-1,-1,-1],"split_conditions":[1E0,1E0,7.5E-1,2.7E1,2.4E1,5.661863E-2,1E0,2.268589E-3,-6.822873E-3,-3.0948812E-2,4.2640332E-2,-8.472204E-3,-4.901967E-2],"split_indices":[24,45,13,0,0,0,43,0,0,0,0,0,0],"split_type":[0,0,0,0,0,0,0,0,0,0,0,0,0],"sum_hessian":[3.8859808E2,3.6993472E2,1.8663357E1,3.6045172E2,9.483005E0,1.0683664E0,1.759499E1,2.7144598E2,8.9005714E1,2E0,7.4830046E0,1.459499E1,3E0],"tree_param":{"num_deleted":"0","num_feature":"59","num_nodes":"13","size_leaf_vector":"1"}},{"base_weights":[1.4526858E-3,-2.7546724E-3,1.4145619E-1,3.3686303E-3,-1.21272475E-1,3.7729108E-1,-2.8960891E-2,-6.044568E-4,2.6782114E-2,-3.0175804E-3,-8.645046E-2,-1.5017496E-2,5.661055E-2,-1.4342404E-2,7.837637E-3],"categories":[],"categories_nodes":[],"categories_segments":[],"categories_sizes":[],"default_left":[0,0,0,0,0,0,0,0,0,0,0,0,0,0,0],"id":86,"left_children":[1,3,5,7,9,11,13,-1,-1,-1,-1,-1,-1,-1,-1],"loss_changes":[2.2978052E-1,2.7549124E-1,4.6832013E-1,9.012655E-1,1.2365403E0,5.67577E-1,1.0382174E-1,0E0,0E0,0E0,0E0,0E0,0E0,0E0,0E0],"parents":[2147483647,0,0,1,1,2,2,3,3,4,4,5,5,6,6],"right_children":[2,4,6,8,10,12,14,-1,-1,-1,-1,-1,-1,-1,-1],"split_conditions":[1E0,1E0,1E0,1E0,1E0,5E-1,1E0,-6.044568E-4,2.6782114E-2,-3.0175804E-3,-8.645046E-2,-1.5017496E-2,5.661055E-2,-1.4342404E-2,7.837637E-3],"split_indices":[23,54,38,18,18,11,34,0,0,0,0,0,0,0,0],"split_type":[0,0,0,0,0,0,0,0,0,0,0,0,0,0,0],"sum_hessian":[3.884285E2,3.780478E2,1.0380694E1,3.603991E2,1.7648687E1,3.845332E0,6.5353627E0,3.4895517E2,1.1443931E1,1.6648687E1,1E0,1.0675896E0,2.7777424E0,3E0,3.5353627E0],"tree_param":{"num_deleted":"0","num_feature":"59","num_nodes":"15","size_leaf_vector":"1"}},{"base_weights":[1.2488173E-3,-9.797781E-4,2.6089233E-1,-4.9847243E-3,1.4548022E-1,3.79268E-2,-6.65042E-4,2.9190192E-3,-2.6331814E-3,-1.0144033E-2,2.8638957E-2],"categories":[],"categories_nodes":[],"categories_segments":[],"categories_sizes":[],"default_left":[0,0,0,0,0,0,0,0,0,0,0],"id":87,"left_children":[1,3,5,7,9,-1,-1,-1,-1,-1,-1],"loss_changes":[2.2548749E-1,2.2768278E-1,1.0755125E-1,2.762374E-1,3.8853762E-1,0E0,0E0,0E0,0E0,0E0,0E0],"parents":[2147483647,0,0,1,1,2,2,3,3,4,4],"right_children":[2,4,6,8,10,-1,-1,-1,-1,-1,-1],"split_conditions":[3.4E1,1E0,1E0,7.5E-1,1E0,3.79268E-2,-6.65042E-4,2.9190192E-3,-2.6331814E-3,-1.0144033E-2,2.8638957E-2],"split_indices":[0,36,17,11,31,0,0,0,0,0,0],"split_type":[0,0,0,0,0,0,0,0,0,0,0],"sum_hessian":[3.8824332E2,3.8592703E2,2.3162968E0,3.76595E2,9.33202E0,1.3162967E0,1E0,1.446519E2,2.319431E2,3.49235E0,5.8396697E0],"tree_param":{"num_deleted":"0","num_feature":"59","num_nodes":"11","size_leaf_vector":"1"}},{"base_weights":[1.274122E-3,-2.751657E-3,1.4206876E-1,1.7254087E-3,-1.6939445E-1,-1.5441519E-1,4.9530804E-1,-1.1630906E-2,9.1023435E-4,4.925759E-2,-3.2389272E-2,4.0504835E-3,-2.9386267E-2,-8.6769685E-3,6.552213E-2],"categories":[],"categories_nodes":[],"categories_segments":[],"categories_sizes":[],"default_left":[0,0,0,0,0,0,0,0,0,0,0,0,0,0,0],"id":88,"left_children":[1,3,5,7,9,11,13,-1,-1,-1,-1,-1,-1,-1,-1],"loss_changes":[2.2095698E-1,2.8327742E-1,1.2113767E0,3.2354912E-1,1.1755095E0,1.9276136E-1,5.3925645E-1,0E0,0E0,0E0,0E0,0E0,0E0,0E0,0E0],"parents":[2147483647,0,0,1,1,2,2,3,3,4,4,5,5,6,6],"right_children":[2,4,6,8,10,12,14,-1,-1,-1,-1,-1,-1,-1,-1],"split_conditions":[1E0,1E0,2.5E1,2.5E-1,7.5E-1,1E0,5E-1,-1.1630906E-2,9.1023435E-4,4.925759E-2,-3.2389272E-2,4.0504835E-3,-2.9386267E-2,-8.6769685E-3,6.552213E-2],"split_indices":[33,52,0,35,21,13,21,0,0,0,0,0,0,0,0],"split_type":[0,0,0,0,0,0,0,0,0,0,0,0,0,0,0],"sum_hessian":[3.881371E2,3.7830066E2,9.836397E0,3.6936682E2,8.933852E0,5.6538324E0,4.182565E0,2.0858253E1,3.4850858E2,1.276457E0,7.657396E0,2.6538322E0,3E0,1E0,3.1825652E0],"tree_param":{"num_deleted":"0","num_feature":"59","num_nodes":"15","size_leaf_vector":"1"}},{"base_weights":[1.2612209E-3,6.0805283E-3,-1.1503417E-1,-1.9284462E-3,1.6781372E-1,-5.1524616E-3,-4.3038487E-1,-1.3080299E-3,1.7230494E-2,3.675076E-2,-1.5328148E-1,-9.575121E-3,2.7019551E-2,-1.3286504E-2,-6.614722E-2],"categories":[],"categories_nodes":[],"categories_segments":[],"categories_sizes":[],"default_left":[0,0,0,0,0,0,0,0,0,0,0,0,0,0,0],"id":89,"left_children":[1,3,5,7,9,11,13,-1,-1,-1,-1,-1,-1,-1,-1],"loss_changes":[2.1868482E-1,4.8530495E-1,5.3579664E-1,6.9733995E-1,6.566614E0,3.3836076E-1,1.8712568E-1,0E0,0E0,0E0,0E0,0E0,0E0,0E0,0E0],"parents":[2147483647,0,0,1,1,2,2,3,3,4,4,5,5,6,6],"right_children":[2,4,6,8,10,12,14,-1,-1,-1,-1,-1,-1,-1,-1],"split_conditions":[1E0,3.1E1,1E0,1E0,1E0,1E0,3.3E1,-1.3080299E-3,1.7230494E-2,3.675076E-2,-1.5328148E-1,-9.575121E-3,2.7019551E-2,-1.3286504E-2,-6.614722E-2],"split_indices":[58,0,22,1,1,44,0,0,0,0,0,0,0,0,0],"split_type":[0,0,0,0,0,0,0,0,0,0,0,0,0,0,0],"sum_hessian":[3.8793784E2,3.7341132E2,1.4526535E1,3.5673404E2,1.6677277E1,1.1526535E1,3E0,3.3614398E2,2.0590055E1,1.5626282E1,1.050995E0,9.163642E0,2.3628929E0,2E0,1E0],"tree_param":{"num_deleted":"0","num_feature":"59","num_nodes":"15","size_leaf_vector":"1"}},{"base_weights":[7.340951E-4,6.2266295E-3,-1.0011634E-1,4.4792556E-4,1.8861172E-1,-1.61996E-1,2.847467E-1,4.746529E-3,-2.7981799E-3,-1.3234006E-2,5.637479E-2,1.9955859E-2,-2.0877501E-2,5.9671815E-2,-1.9322736E-2],"categories":[],"categories_nodes":[],"categories_segments":[],"categories_sizes":[],"default_left":[0,0,0,0,0,0,0,0,0,0,0,0,0,0,0],"id":90,"left_children":[1,3,5,7,9,11,13,-1,-1,-1,-1,-1,-1,-1,-1],"loss_changes":[2.1593091E-1,3.8941345E-1,5.2563107E-1,4.8148495E-1,1.4408162E0,3.4580988E-1,5.8523345E-1,0E0,0E0,0E0,0E0,0E0,0E0,0E0,0E0],"parents":[2147483647,0,0,1,1,2,2,3,3,4,4,5,5,6,6],"right_children":[2,4,6,8,10,12,14,-1,-1,-1,-1,-1,-1,-1,-1],"split_conditions":[1E0,1E0,1E0,7.5E-1,7.5E-1,5E-1,2.7E1,4.746529E-3,-2.7981799E-3,-1.3234006E-2,5.637479E-2,1.9955859E-2,-2.0877501E-2,5.9671815E-2,-1.9322736E-2],"split_indices":[56,45,12,11,11,21,0,0,0,0,0,0,0,0,0],"split_type":[0,0,0,0,0,0,0,0,0,0,0,0,0,0,0],"sum_hessian":[3.876947E2,3.6856036E2,1.9134342E1,3.5821317E2,1.0347199E1,1.6982859E1,2.1514835E0,1.3472841E2,2.2348476E2,5.9251204E0,4.422079E0,1.5714152E0,1.5411443E1,1.1514835E0,1E0],"tree_param":{"num_deleted":"0","num_feature":"59","num_nodes":"15","size_leaf_vector":"1"}},{"base_weights":[8.913234E-4,6.2731057E-3,-1.0917782E-1,2.049769E-2,-5.2407924E-2,-2.3588547E-1,1.3242462E-1,1.372629E-3,5.881947E-2,1.7349335E-3,-3.0852338E-2,-2.9590478E-2,1.9400603E-3,5.4382544E-2,-1.2360684E-2],"categories":[],"categories_nodes":[],"categories_segments":[],"categories_sizes":[],"default_left":[0,0,0,0,0,0,0,0,0,