{"learner":{"attributes":{},"feature_names":[],"feature_types":[],"gradient_booster":{"model":{"cats":{"enc":[],"feature_segments":[],"sorted_idx":[]},"gbtree_model_param":{"num_parallel_tree":"1","num_trees":"100"},"iteration_indptr":[0,1,2,3,4,5,6,7,8,9,10,11,12,13,14,15,16,17,18,19,20,21,22,23,24,25,26,27,28,29,30,31,32,33,34,35,36,37,38,39,40,41,42,43,44,45,46,47,48,49,50,51,52,53,54,55,56,57,58,59,60,61,62,63,64,65,66,67,68,69,70,71,72,73,74,75,76,77,78,79,80,81,82,83,84,85,86,87,88,89,90,91,92,93,94,95,96,97,98,99,100],"tree_info":[0,0,0,0,0,0,0,0,0,0,0,0,0,0,0,0,0,0,0,0,0,0,0,0,0,0,0,0,0,0,0,0,0,0,0,0,0,0,0,0,0,0,0,0,0,0,0,0,0,0,0,0,0,0,0,0,0,0,0,0,0,0,0,0,0,0,0,0,0,0,0,0,0,0,0,0,0,0,0,0,0,0,0,0,0,0,0,0,0,0,0,0,0,0,0,0,0,0,0,0],"trees":[{"base_weights":[1.8729861E0,1.8944988E-1,1.2808197E0,1.8624597E0,3.4411857E-1,2.0227042E-1,-1.4100404E-3,1.479777E-1,-9.318196E-2],"categories":[],"categories_nodes":[],"categories_segments":[],"categories_sizes":[],"default_left":[0,0,0,0,0,0,0,0,0],"id":0,"left_children":[1,-1,3,5,7,-1,-1,-1,-1],"loss_changes":[4.1241455E0,0E0,1.0862045E1,3.8771706E0,1.4876022E1,0E0,0E0,0E0,0E0],"parents":[2147483647,0,0,2,2,3,3,4,4],"right_children":[2,-1,4,6,8,-1,-1,-1,-1],"split_conditions":[3.2E1,1.8944988E-1,1E0,1E0,1E0,2.0227042E-1,-1.4100404E-3,1.479777E-1,-9.318196E-2],"split_indices":[0,0,16,58,6,0,0,0,0],"split_type":[0,0,0,0,0,0,0,0,0],"sum_hessian":[5.1321857E2,4.931054E2,2.0113201E1,1.17986E1,8.314602E0,1.07986E1,1E0,4.314602E0,4E0],"tree_param":{"num_deleted":"0","num_feature":"59","num_nodes":"9","size_leaf_vector":"1"}},{"base_weights":[1.7099049E0,1.7439297E-1,1.3670936E0,-8.9021616E-2,1.4307371E0,1.6679667E-1,5.5703443E-2],"categories":[],"categories_nodes":[],"categories_segments":[],"categories_sizes":[],"default_left":[0,0,0,0,0,0,0],"id":1,"left_children":[1,-1,3,-1,5,-1,-1],"loss_changes":[3.5361328E0,0E0,8.522263E0,0E0,9.321434E0,0E0,0E0],"parents":[2147483647,0,0,2,2,4,4],"right_children":[2,-1,4,-1,6,-1,-1],"split_conditions":[2.9E1,1.7439297E-1,2.5E-1,-8.9021616E-2,1E0,1.6679667E-1,5.5703443E-2],"split_indices":[0,0,44,0,16,0,0],"split_type":[0,0,0,0,0,0,0],"sum_hessian":[5.0655844E2,4.571029E2,4.9455532E1,1E0,4.8455532E1,3.739334E1,1.106219E1],"tree_param":{"num_deleted":"0","num_feature":"59","num_nodes":"7","size_leaf_vector":"1"}},{"base_weights":[1.5612719E0,1.5918771E0,1.2517408E0,1.684525E0,1.5266252E0,6.768592E-1,1.5712738E0,1.6994925E-1,1.0033059E-1,3.092984E-2,1.5299277E-1,1.1105881E-1,-2.9272E-2,1.629679E-1,-9.6793715E-3],"categories":[],"categories_nodes":[],"categories_segments":[],"categories_sizes":[],"default_left":[0,0,0,0,0,0,0,0,0,0,0,0,0,0,0],"id":2,"left_children":[1,3,5,7,9,11,13,-1,-1,-1,-1,-1,-1,-1,-1],"loss_changes":[2.7520752E0,1.6149902E-1,8.074585E0,1.0122681E-1,6.3623047E-1,8.53766E0,3.1990738E0,0E0,0E0,0E0,0E0,0E0,0E0,0E0,0E0],"parents":[2147483647,0,0,1,1,2,2,3,3,4,4,5,5,6,6],"right_children":[2,4,6,8,10,12,14,-1,-1,-1,-1,-1,-1,-1,-1],"split_conditions":[2.9E1,7.5E-1,1E0,1E0,2.5E-1,1E0,1E0,1.6994925E-1,1.0033059E-1,3.092984E-2,1.5299277E-1,1.1105881E-1,-2.9272E-2,1.629679E-1,-9.6793715E-3],"split_indices":[0,11,13,34,34,6,58,0,0,0,0,0,0,0,0],"split_type":[0,0,0,0,0,0,0,0,0,0,0,0,0,0,0],"sum_hessian":[4.9985294E2,4.5110645E2,4.8746475E1,1.7616432E2,2.7494214E2,1.852888E1,3.0217596E1,1.709143E2,5.2500224E0,1E0,2.7394214E2,1.2701563E1,5.8273153E0,2.9217596E1,1E0],"tree_param":{"num_deleted":"0","num_feature":"59","num_nodes":"15","size_leaf_vector":"1"}},{"base_weights":[1.4267489E0,1.4774065E-1,1.2535589E0,-5.098023E-1,1.2882304E0,1.3653136E-2,-9.0123475E-2,1.3814195E-1,5.7125807E-2],"categories":[],"categories_nodes":[],"categories_segments":[],"categories_sizes":[],"default_left":[0,0,0,0,0,0,0,0,0],"id":3,"left_children":[1,-1,3,5,7,-1,-1,-1,-1],"loss_changes":[2.4830322E0,0E0,7.896866E0,8.820348E-1,6.9894257E0,0E0,0E0,0E0,0E0],"parents":[2147483647,0,0,2,2,3,3,4,4],"right_children":[2,-1,4,6,8,-1,-1,-1,-1],"split_conditions":[2.7E1,1.4774065E-1,2.5E-1,2.8E1,1E0,1.3653136E-2,-9.0123475E-2,1.3814195E-1,5.7125807E-2],"split_indices":[0,0,44,0,16,0,0,0,0],"split_type":[0,0,0,0,0,0,0,0,0],"sum_hessian":[4.931223E2,3.7570053E2,1.174218E2,2E0,1.154218E2,1E0,1E0,1.0132524E2,1.4096558E1],"tree_param":{"num_deleted":"0","num_feature":"59","num_nodes":"9","size_leaf_vector":"1"}},{"base_weights":[1.3031142E0,1.3493489E0,1.1449741E0,1.5421093E-1,1.3179533E0,-4.8431212E-1,1.1775547E0,2.1996316E-2,1.3206515E-1,1.2970479E-2,-8.56173E-2,1.2638329E-1,5.2031454E-2],"categories":[],"categories_nodes":[],"categories_segments":[],"categories_sizes":[],"default_left":[0,0,0,0,0,0,0,0,0,0,0,0,0],"id":4,"left_children":[1,3,5,-1,7,9,11,-1,-1,-1,-1,-1,-1],"loss_changes":[2.019165E0,2.1643066E-1,6.774704E0,0E0,6.765137E-1,7.960363E-1,5.8567505E0,0E0,0E0,0E0,0E0,0E0,0E0],"parents":[2147483647,0,0,1,1,2,2,4,4,5,5,6,6],"right_children":[2,4,6,-1,8,10,12,-1,-1,-1,-1,-1,-1],"split_conditions":[2.7E1,5E-1,2.5E-1,1.5421093E-1,2.5E-1,2.8E1,1E0,2.1996316E-2,1.3206515E-1,1.2970479E-2,-8.56173E-2,1.2638329E-1,5.2031454E-2],"split_indices":[0,11,44,0,34,0,16,0,0,0,0,0,0],"split_type":[0,0,0,0,0,0,0,0,0,0,0,0,0],"sum_hessian":[4.8647162E2,3.7059103E2,1.1588059E2,4.5165874E1,3.2542514E2,2E0,1.1388059E2,1E0,3.2442514E2,1E0,1E0,9.985002E1,1.4030575E1],"tree_param":{"num_deleted":"0","num_feature":"59","num_nodes":"13","size_leaf_vector":"1"}},{"base_weights":[1.1905123E0,1.2322508E0,1.0354515E0,1.2367353E0,3.4462026E-1,4.7411445E-1,1.1857837E0,1.2489811E-1,9.522223E-2,6.9480024E-2,-2.2421664E-2,6.720711E-2,-1.1709046E-1,1.2391553E-1,7.3366106E-2],"categories":[],"categories_nodes":[],"categories_segments":[],"categories_sizes":[],"default_left":[0,0,0,0,0,0,0,0,0,0,0,0,0,0,0],"id":5,"left_children":[1,3,5,7,9,11,13,-1,-1,-1,-1,-1,-1,-1,-1],"loss_changes":[1.8366089E0,1.0612793E0,8.573547E0,1.0473633E-1,8.060991E-1,8.776552E0,1.1353531E0,0E0,0E0,0E0,0E0,0E0,0E0,0E0,0E0],"parents":[2147483647,0,0,1,1,2,2,3,3,4,4,5,5,6,6],"right_children":[2,4,6,8,10,12,14,-1,-1,-1,-1,-1,-1,-1,-1],"split_conditions":[1E0,1E0,1E0,1E0,2.8E1,3E1,1E0,1.2489811E-1,9.522223E-2,6.9480024E-2,-2.2421664E-2,6.720711E-2,-1.1709046E-1,1.2391553E-1,7.3366106E-2],"split_indices":[21,58,13,55,0,0,14,0,0,0,0,0,0,0,0],"split_type":[0,0,0,0,0,0,0,0,0,0,0,0,0,0,0],"sum_hessian":[4.7992892E2,3.726688E2,1.0726015E2,3.7040408E2,2.2647026E0,2.3534946E1,8.3725204E1,3.5186942E2,1.8534655E1,1.2647026E0,1E0,2.1534946E1,2E0,7.3328285E1,1.0396915E1],"tree_param":{"num_deleted":"0","num_feature":"59","num_nodes":"15","size_leaf_vector":"1"}},{"base_weights":[1.0877286E0,1.1290067E0,9.4694453E-1,1.2222234E0,1.0665097E0,-5.4336196E-1,9.784713E-1,1.2436145E-1,8.558552E-2,1.4651592E-2,1.0699723E-1,6.077049E-3,-8.7581344E-2,1.0554681E-1,4.0368777E-2],"categories":[],"categories_nodes":[],"categories_segments":[],"categories_sizes":[],"default_left":[0,0,0,0,0,0,0,0,0,0,0,0,0,0,0],"id":6,"left_children":[1,3,5,7,9,11,13,-1,-1,-1,-1,-1,-1,-1,-1],"loss_changes":[1.6882324E0,8.036804E-1,5.8774414E0,1.965332E-2,5.580292E-1,6.557577E-1,4.52079E0,0E0,0E0,0E0,0E0,0E0,0E0,0E0,0E0],"parents":[2147483647,0,0,1,1,2,2,3,3,4,4,5,5,6,6],"right_children":[2,4,6,8,10,12,14,-1,-1,-1,-1,-1,-1,-1,-1],"split_conditions":[2.7E1,7.5E-1,2.5E-1,1E0,2.5E-1,2.8E1,1E0,1.2436145E-1,8.558552E-2,1.4651592E-2,1.0699723E-1,6.077049E-3,-8.7581344E-2,1.0554681E-1,4.0368777E-2],"split_indices":[0,11,44,55,34,0,16,0,0,0,0,0,0,0,0],"split_type":[0,0,0,0,0,0,0,0,0,0,0,0,0,0,0],"sum_hessian":[4.734779E2,3.607006E2,1.1277731E2,1.3732243E2,2.2337816E2,2E0,1.1077731E2,1.274846E2,9.837839E0,1E0,2.2237816E2,1E0,1E0,9.695336E1,1.3823948E1],"tree_param":{"num_deleted":"0","num_feature":"59","num_nodes":"15","size_leaf_vector":"1"}},{"base_weights":[9.934892E-1,1.0339043E0,8.462334E-1,1.037812E0,2.702506E-1,3.3416346E-1,9.855546E-1,1.066991E-1,9.034973E-2,6.347542E-2,-2.6577923E-2,5.150951E-2,-1.1197569E-1,1.03551045E-1,5.7763565E-2],"categories":[],"categories_nodes":[],"categories_segments":[],"categories_sizes":[],"default_left":[0,0,0,0,0,0,0,0,0,0,0,0,0,0,0],"id":7,"left_children":[1,3,5,7,9,11,13,-1,-1,-1,-1,-1,-1,-1,-1],"loss_changes":[1.9119873E0,8.0252075E-1,7.2582245E0,4.4976807E-1,7.9388285E-1,6.9587083E0,1.0951309E0,0E0,0E0,0E0,0E0,0E0,0E0,0E0,0E0],"parents":[2147483647,0,0,1,1,2,2,3,3,4,4,5,5,6,6],"right_children":[2,4,6,8,10,12,14,-1,-1,-1,-1,-1,-1,-1,-1],"split_conditions":[1E0,1E0,1E0,1E0,2.8E1,3E1,1E0,1.066991E-1,9.034973E-2,6.347542E-2,-2.6577923E-2,5.150951E-2,-1.1197569E-1,1.03551045E-1,5.7763565E-2],"split_indices":[21,58,13,8,0,0,14,0,0,0,0,0,0,0,0],"split_type":[0,0,0,0,0,0,0,0,0,0,0,0,0,0,0],"sum_hessian":[4.6728247E2,3.6192816E2,1.0535432E2,3.5972845E2,2.1997285E0,2.3260326E1,8.209399E1,2.8982233E2,6.990611E1,1.1997285E0,1E0,2.1260326E1,2E0,7.176656E1,1.0327424E1],"tree_param":{"num_deleted":"0","num_feature":"59","num_nodes":"15","size_leaf_vector":"1"}},{"base_weights":[9.071868E-1,1.0069393E0,8.491198E-1,9.645983E-1,1.2442361E0,8.714566E-1,1.8714483E-1,4.030819E-2,9.849834E-2,1.3301352E-1,2.7148053E-2,1.0737162E-1,8.337536E-2,1.2160822E-1,-6.379334E-2],"categories":[],"categories_nodes":[],"categories_segments":[],"categories_sizes":[],"default_left":[0,0,0,0,0,0,0,0,0,0,0,0,0,0,0],"id":8,"left_children":[1,3,5,7,9,11,13,-1,-1,-1,-1,-1,-1,-1,-1],"loss_changes":[1.8225403E0,4.546051E-1,4.251526E0,1.2537079E0,1.434433E0,1.30513E0,1.0130251E1,0E0,0E0,0E0,0E0,0E0,0E0,0E0,0E0],"parents":[2147483647,0,0,1,1,2,2,3,3,4,4,5,5,6,6],"right_children":[2,4,6,8,10,12,14,-1,-1,-1,-1,-1,-1,-1,-1],"split_conditions":[7.5E-1,1E0,3.2E1,2.5E-1,1E0,2.3E1,1E0,4.030819E-2,9.849834E-2,1.3301352E-1,2.7148053E-2,1.0737162E-1,8.337536E-2,1.2160822E-1,-6.379334E-2],"split_indices":[21,16,0,44,17,0,6,0,0,0,0,0,0,0,0],"split_type":[0,0,0,0,0,0,0,0,0,0,0,0,0,0,0],"sum_hessian":[4.6125864E2,1.6369989E2,2.9755875E2,1.4321153E2,2.0488356E1,2.8753992E2,1.0018822E1,5.744687E0,1.3746684E2,1.8488356E1,2E0,4.086105E1,2.4667888E2,4.247703E0,5.771119E0],"tree_param":{"num_deleted":"0","num_feature":"59","num_nodes":"15","size_leaf_vector":"1"}},{"base_weights":[8.286451E-1,8.664277E-1,6.932749E-1,8.9407146E-1,7.4145925E-1,2.3115227E-1,8.2084095E-1,9.080622E-2,5.8999814E-2,7.911801E-2,-1.047497E-2,3.887292E-2,-1.00257754E-1,8.681558E-2,4.483465E-2],"categories":[],"categories_nodes":[],"categories_segments":[],"categories_sizes":[],"default_left":[0,0,0,0,0,0,0,0,0,0,0,0,0,0,0],"id":9,"left_children":[1,3,5,7,9,11,13,-1,-1,-1,-1,-1,-1,-1,-1],"loss_changes":[1.7340088E0,5.560608E-1,5.9769173E0,6.7282104E-1,3.0185776E0,5.059634E0,1.0486565E0,0E0,0E0,0E0,0E0,0E0,0E0,0E0,0E0],"parents":[2147483647,0,0,1,1,2,2,3,3,4,4,5,5,6,6],"right_children":[2,4,6,8,10,12,14,-1,-1,-1,-1,-1,-1,-1,-1],"split_conditions":[1E0,1E0,1E0,1E0,3E1,3E1,1E0,9.080622E-2,5.8999814E-2,7.911801E-2,-1.047497E-2,3.887292E-2,-1.00257754E-1,8.681558E-2,4.483465E-2],"split_indices":[21,8,13,55,0,0,14,0,0,0,0,0,0,0,0],"split_type":[0,0,0,0,0,0,0,0,0,0,0,0,0,0,0],"sum_hessian":[4.5546487E2,3.518586E2,1.0360624E2,2.8308432E2,6.877429E1,2.3021227E1,8.058501E1,2.687333E2,1.4351019E1,6.501899E1,3.755301E0,2.1021227E1,2E0,7.032195E1,1.0263061E1],"tree_param":{"num_deleted":"0","num_feature":"59","num_nodes":"15","size_leaf_vector":"1"}},{"base_weights":[7.56045E-1,7.4021477E-1,1.1292006E0,7.796124E-1,5.9792215E-1,1.1987565E0,4.1777946E-2,7.864822E-2,4.2514775E-2,-3.449737E-2,6.600604E-2,1.2454202E-1,2.8557116E-2],"categories":[],"categories_nodes":[],"categories_segments":[],"categories_sizes":[],"default_left":[0,0,0,0,0,0,0,0,0,0,0,0,0],"id":10,"left_children":[1,3,5,7,9,11,-1,-1,-1,-1,-1,-1,-1],"loss_changes":[1.828064E0,1.9753723E0,3.131752E-1,4.8815918E-1,6.0121994E0,2.6008415E-1,0E0,0E0,0E0,0E0,0E0,0E0,0E0],"parents":[2147483647,0,0,1,1,2,2,3,3,4,4,5,5],"right_children":[2,4,6,8,10,12,-1,-1,-1,-1,-1,-1,-1],"split_conditions":[1E0,1E0,1E0,1E0,7.5E-1,1E0,4.1777946E-2,7.864822E-2,4.2514775E-2,-3.449737E-2,6.600604E-2,1.2454202E-1,2.8557116E-2],"split_indices":[5,21,22,56,13,9,0,0,0,0,0,0,0],"split_type":[0,0,0,0,0,0,0,0,0,0,0,0,0],"sum_hessian":[4.499677E2,4.3451804E2,1.5449705E1,3.3678952E2,9.7728485E1,1.3449705E1,2E0,3.2919086E2,7.5986814E0,5.7608457E0,9.196764E1,1.2449705E1,1E0],"tree_param":{"num_deleted":"0","num_feature":"59","num_nodes":"13","size_leaf_vector":"1"}},{"base_weights":[6.8953085E-1,7.2572035E-1,5.4476935E-1,9.8493034E-1,6.897396E-1,-9.84686E-2,5.9894276E-1,1.03225805E-1,3.948183E-2,8.207189E-2,6.369187E-2,1.6673965E-2,-9.902536E-2,6.777405E-2,2.5953645E-2],"categories":[],"categories_nodes":[],"categories_segments":[],"categories_sizes":[],"default_left":[0,0,0,0,0,0,0,0,0,0,0,0,0,0,0],"id":11,"left_children":[1,3,5,7,9,11,13,-1,-1,-1,-1,-1,-1,-1,-1],"loss_changes":[1.9402924E0,2.6190338E0,3.3057995E0,7.3111343E-1,1.6488647E0,2.079997E0,2.1262245E0,0E0,0E0,0E0,0E0,0E0,0E0,0E0,0E0],"parents":[2147483647,0,0,1,1,2,2,3,3,4,4,5,5,6,6],"right_children":[2,4,6,8,10,12,14,-1,-1,-1,-1,-1,-1,-1,-1],"split_conditions":[1E0,5E-1,5E-1,1E0,2.4E1,3E1,1E0,1.03225805E-1,3.948183E-2,8.207189E-2,6.369187E-2,1.6673965E-2,-9.902536E-2,6.777405E-2,2.5953645E-2],"split_indices":[22,11,44,17,0,0,51,0,0,0,0,0,0,0,0],"split_type":[0,0,0,0,0,0,0,0,0,0,0,0,0,0,0],"sum_hessian":[4.4483112E2,3.52656E2,9.217511E1,3.977048E1,3.1288553E2,7.0964556E0,8.507865E1,3.6124035E1,3.6464472E0,8.573985E1,2.2714568E2,6.0964556E0,1E0,6.823918E1,1.6839468E1],"tree_param":{"num_deleted":"0","num_feature":"59","num_nodes":"15","size_leaf_vector":"1"}},{"base_weights":[6.285846E-1,6.129476E-1,1.01501E0,8.0663013E-1,5.847311E-1,1.0881006E0,3.4474473E-2,8.4025346E-2,3.2539167E-2,6.304595E-2,4.2164043E-2,1.1363585E-1,2.3944668E-2],"categories":[],"categories_nodes":[],"categories_segments":[],"categories_sizes":[],"default_left":[0,0,0,0,0,0,0,0,0,0,0,0,0],"id":12,"left_children":[1,3,5,7,9,11,-1,-1,-1,-1,-1,-1,-1],"loss_changes":[2.0421753E0,1.858078E0,3.9030266E-1,5.6108475E-1,2.536316E0,2.8586388E-1,0E0,0E0,0E0,0E0,0E0,0E0,0E0],"parents":[2147483647,0,0,1,1,2,2,3,3,4,4,5,5],"right_children":[2,4,6,8,10,12,-1,-1,-1,-1,-1,-1,-1],"split_conditions":[1E0,2.3E1,1E0,1E0,1E0,1E0,3.4474473E-2,8.4025346E-2,3.2539167E-2,6.304595E-2,4.2164043E-2,1.1363585E-1,2.3944668E-2],"split_indices":[5,0,22,51,21,9,0,0,0,0,0,0,0],"split_type":[0,0,0,0,0,0,0,0,0,0,0,0,0],"sum_hessian":[4.399255E2,4.253015E2,1.4623983E1,5.057301E1,3.7472852E2,1.2623983E1,2E0,4.657301E1,4E0,2.9043015E2,8.4298355E1,1.1623983E1,1E0],"tree_param":{"num_deleted":"0","num_feature":"59","num_nodes":"13","size_leaf_vector":"1"}},{"base_weights":[5.73035E-1,5.579384E-1,9.562637E-1,7.431287E-1,5.3129107E-1,1.0283835E0,3.2176178E-2,7.748005E-2,2.993603E-2,5.7359394E-2,3.814168E-2,1.0756409E-1,2.2747435E-2],"categories":[],"categories_nodes":[],"categories_segments":[],"categories_sizes":[],"default_left":[0,0,0,0,0,0,0,0,0,0,0,0,0],"id":13,"left_children":[1,3,5,7,9,11,-1,-1,-1,-1,-1,-1,-1],"loss_changes":[1.9905243E0,1.6883698E0,3.6165333E-1,4.791546E-1,2.1432266E0,2.5243664E-1,0E0,0E0,0E0,0E0,0E0,0E0,0E0],"parents":[2147483647,0,0,1,1,2,2,3,3,4,4,5,5],"right_children":[2,4,6,8,10,12,-1,-1,-1,-1,-1,-1,-1],"split_conditions":[1E0,2.3E1,1E0,1E0,1E0,1E0,3.2176178E-2,7.748005E-2,2.993603E-2,5.7359394E-2,3.814168E-2,1.0756409E-1,2.2747435E-2],"split_indices":[5,0,22,51,21,9,0,0,0,0,0,0,0],"split_type":[0,0,0,0,0,0,0,0,0,0,0,0,0],"sum_hessian":[4.3527744E2,4.2114313E2,1.4134291E1,4.959392E1,3.7154922E2,1.2134291E1,2E0,4.559392E1,4E0,2.8755737E2,8.399185E1,1.1134291E1,1E0],"tree_param":{"num_deleted":"0","num_feature":"59","num_nodes":"13","size_leaf_vector":"1"}},{"base_weights":[5.220952E-1,5.075517E-1,9.0152496E-1,6.842052E-1,4.8244128E-1,9.72802E-1,3.0031098E-2,7.139819E-2,2.754115E-2,5.824628E-2,4.2441685E-2,1.0191796E-1,2.1610063E-2],"categories":[],"categories_nodes":[],"categories_segments":[],"categories_sizes":[],"default_left":[0,0,0,0,0,0,0,0,0,0,0,0,0],"id":14,"left_children":[1,3,5,7,9,11,-1,-1,-1,-1,-1,-1,-1],"loss_changes":[1.9259415E0,1.5253143E0,3.3592796E-1,4.0791512E-1,1.8979111E0,2.2392178E-1,0E0,0E0,0E0,0E0,0E0,0E0,0E0],"parents":[2147483647,0,0,1,1,2,2,3,3,4,4,5,5],"right_children":[2,4,6,8,10,12,-1,-1,-1,-1,-1,-1,-1],"split_conditions":[1E0,2.3E1,1E0,1E0,7.5E-1,1E0,3.0031098E-2,7.139819E-2,2.754115E-2,5.824628E-2,4.2441685E-2,1.0191796E-1,2.1610063E-2],"split_indices":[5,0,22,51,21,9,0,0,0,0,0,0,0],"split_type":[0,0,0,0,0,0,0,0,0,0,0,0,0],"sum_hessian":[4.3093304E2,4.1727652E2,1.3656502E1,4.86653E1,3.6861124E2,1.1656502E1,2E0,4.46653E1,4E0,1.3201239E2,2.3659885E2,1.0656502E1,1E0],"tree_param":{"num_deleted":"0","num_feature":"59","num_nodes":"13","size_leaf_vector":"1"}},{"base_weights":[4.75424E-1,4.614456E-1,8.503798E-1,4.4699913E-1,7.952863E-1,9.20906E-1,2.8029025E-2,4.8384964E-2,3.268549E-2,1.0259899E-1,2.7832676E-2,9.665004E-2,2.0529559E-2],"categories":[],"categories_nodes":[],"categories_segments":[],"categories_sizes":[],"default_left":[0,0,0,0,0,0,0,0,0,0,0,0,0],"id":15,"left_children":[1,3,5,7,9,11,-1,-1,-1,-1,-1,-1,-1],"loss_changes":[1.850357E0,1.644577E0,3.1250572E-1,1.6118851E0,1.6129074E0,1.9939613E-1,0E0,0E0,0E0,0E0,0E0,0E0,0E0],"parents":[2147483647,0,0,1,1,2,2,3,3,4,4,5,5],"right_children":[2,4,6,8,10,12,-1,-1,-1,-1,-1,-1,-1],"split_conditions":[1E0,1E0,1E0,2.7E1,1E0,1E0,2.8029025E-2,4.8384964E-2,3.268549E-2,1.0259899E-1,2.7832676E-2,9.665004E-2,2.0529559E-2],"split_indices":[5,50,22,0,44,9,0,0,0,0,0,0,0],"split_type":[0,0,0,0,0,0,0,0,0,0,0,0,0],"sum_hessian":[4.2690247E2,4.1371E2,1.3192482E1,3.9879184E2,1.4918145E1,1.1192482E1,2E0,3.02869E2,9.592287E1,9.634082E0,5.2840633E0,1.0192482E1,1E0],"tree_param":{"num_deleted":"0","num_feature":"59","num_nodes":"13","size_leaf_vector":"1"}},{"base_weights":[4.3271378E-1,4.193113E-1,8.0246675E-1,4.054922E-1,7.4715924E-1,8.723012E-1,2.6160423E-2,5.842427E-2,3.820103E-2,9.770545E-2,2.5526214E-2,9.1718666E-2,1.950308E-2],"categories":[],"categories_nodes":[],"categories_segments":[],"categories_sizes":[],"default_left":[0,0,0,0,0,0,0,0,0,0,0,0,0],"id":16,"left_children":[1,3,5,7,9,11,-1,-1,-1,-1,-1,-1,-1],"loss_changes":[1.765686E0,1.5611572E0,2.9091644E-1,1.4431763E0,1.4983168E0,1.7812538E-1,0E0,0E0,0E0,0E0,0E0,0E0,0E0],"parents":[2147483647,0,0,1,1,2,2,3,3,4,4,5,5],"right_children":[2,4,6,8,10,12,-1,-1,-1,-1,-1,-1,-1],"split_conditions":[1E0,1E0,1E0,5E-1,1E0,1E0,2.6160423E-2,5.842427E-2,3.820103E-2,9.770545E-2,2.5526214E-2,9.1718666E-2,1.950308E-2],"split_indices":[5,50,22,11,44,9,0,0,0,0,0,0,0],"split_type":[0,0,0,0,0,0,0,0,0,0,0,0,0],"sum_hessian":[4.231987E2,4.104549E2,1.2743786E1,3.9599994E2,1.4454964E1,1.0743786E1,2E0,4.320803E1,3.527919E2,9.178813E0,5.27615E0,9.743786E0,1E0],"tree_param":{"num_deleted":"0","num_feature":"59","num_nodes":"13","size_leaf_vector":"1"}},{"base_weights":[3.937693E-1,4.275965E-1,2.6401204E-1,6.820815E-1,3.9442328E-1,-3.1273228E-1,3.1591904E-1,-9.754997E-4,7.2197884E-2,2.62378E-2,4.406587E-2,-4.633303E-3,-1.0756216E-1,3.892477E-2,2.2753782E-3],"categories":[],"categories_nodes":[],"categories_segments":[],"categories_sizes":[],"default_left":[0,0,0,0,0,0,0,0,0,0,0,0,0,0,0],"id":17,"left_children":[1,3,5,7,9,11,13,-1,-1,-1,-1,-1,-1,-1,-1],"loss_changes":[1.7336655E0,2.5344582E0,2.7813897E0,1.0262718E0,1.692482E0,1.5559764E0,1.7691154E0,0E0,0E0,0E0,0E0,0E0,0E0,0E0,0E0],"parents":[2147483647,0,0,1,1,2,2,3,3,4,4,5,5,6,6],"right_children":[2,4,6,8,10,12,14,-1,-1,-1,-1,-1,-1,-1,-1],"split_conditions":[1E0,5E-1,5E-1,1E0,1E0,3E1,1E0,-9.754997E-4,7.2197884E-2,2.62378E-2,4.406587E-2,-4.633303E-3,-1.0756216E-1,3.892477E-2,2.2753782E-3],"split_indices":[22,11,44,2,31,0,51,0,0,0,0,0,0,0,0],"split_type":[0,0,0,0,0,0,0,0,0,0,0,0,0,0,0],"sum_hessian":[4.196917E2,3.31084E2,8.86077E1,3.5925343E1,2.9515866E2,6.901336E0,8.170636E1,2E0,3.3925343E1,7.827767E1,2.16881E2,5.901336E0,1E0,6.509627E1,1.6610092E1],"tree_param":{"num_deleted":"0","num_feature":"59","num_nodes":"15","size_leaf_vector":"1"}},{"base_weights":[3.5746634E-1,3.445973E-1,7.28395E-1,3.3108145E-1,6.784853E-1,8.0065536E-1,2.1821411E-2,3.2320157E-2,9.274826E-2,9.155911E-2,2.0783657E-2,8.475985E-2,1.6324632E-2],"categories":[],"categories_nodes":[],"categories_segments":[],"categories_sizes":[],"default_left":[0,0,0,0,0,0,0,0,0,0,0,0,0],"id":18,"left_children":[1,3,5,7,9,11,-1,-1,-1,-1,-1,-1,-1],"loss_changes":[1.7418709E0,1.6047821E0,3.0825806E-1,1.5404358E0,1.4633718E0,1.9378996E-1,0E0,0E0,0E0,0E0,0E0,0E0,0E0],"parents":[2147483647,0,0,1,1,2,2,3,3,4,4,5,5],"right_children":[2,4,6,8,10,12,-1,-1,-1,-1,-1,-1,-1],"split_conditions":[1E0,1E0,1E0,3.5E1,1E0,1E0,2.1821411E-2,3.2320157E-2,9.274826E-2,9.155911E-2,2.0783657E-2,8.475985E-2,1.6324632E-2],"split_indices":[5,50,22,0,44,9,0,0,0,0,0,0,0],"split_type":[0,0,0,0,0,0,0,0,0,0,0,0,0],"sum_hessian":[4.1648672E2,4.0438593E2,1.21008005E1,3.905673E2,1.3818643E1,1.01008005E1,2E0,3.8699606E2,3.571231E0,8.560573E0,5.25807E0,9.1008005E0,1E0],"tree_param":{"num_deleted":"0","num_feature":"59","num_nodes":"13","size_leaf_vector":"1"}},{"base_weights":[3.2511255E-1,3.1288216E-1,6.875332E-1,4.913565E-1,2.8875056E-1,7.5897324E-1,2.0366652E-2,3.5577405E-2,6.246702E-2,3.2612916E-2,1.6159859E-2,8.052647E-2,1.55084E-2],"categories":[],"categories_nodes":[],"categories_segments":[],"categories_sizes":[],"default_left":[0,0,0,0,0,0,0,0,0,0,0,0,0],"id":19,"left_children":[1,3,5,7,9,11,-1,-1,-1,-1,-1,-1,-1],"loss_changes":[1.6220474E0,1.5928268E0,2.842636E-1,6.1911297E-1,1.6451187E0,1.7409992E-1,0E0,0E0,0E0,0E0,0E0,0E0,0E0],"parents":[2147483647,0,0,1,1,2,2,3,3,4,4,5,5],"right_children":[2,4,6,8,10,12,-1,-1,-1,-1,-1,-1,-1],"split_conditions":[1E0,2.3E1,1E0,7.5E-1,1E0,1E0,2.0366652E-2,3.5577405E-2,6.246702E-2,3.2612916E-2,1.6159859E-2,8.052647E-2,1.55084E-2],"split_indices":[5,0,22,35,21,9,0,0,0,0,0,0,0],"split_type":[0,0,0,0,0,0,0,0,0,0,0,0,0],"sum_hessian":[4.134716E2,4.017764E2,1.16952095E1,4.5547928E1,3.5622845E2,9.6952095E0,2E0,2.440069E1,2.1147238E1,2.7408994E2,8.213853E1,8.6952095E0,1E0],"tree_param":{"num_deleted":"0","num_feature":"59","num_nodes":"13","size_leaf_vector":"1"}},{"base_weights":[2.9538494E-1,2.875452E-1,8.843567E-2,3.0097243E-1,-1.7485261E-1,3.7982088E-2,2.5312636E-2,6.1576087E-2,-9.438172E-2],"categories":[],"categories_nodes":[],"categories_segments":[],"categories_sizes":[],"default_left":[0,0,0,0,0,0,0,0,0],"id":20,"left_children":[1,3,-1,5,7,-1,-1,-1,-1],"loss_changes":[1.6465302E0,2.584175E0,0E0,1.4000778E0,7.9608107E0,0E0,0E0,0E0,0E0],"parents":[2147483647,0,0,1,1,3,3,4,4],"right_children":[2,4,-1,6,8,-1,-1,-1,-1],"split_conditions":[3.5E1,3.2E1,8.843567E-2,7.5E-1,1E0,3.7982088E-2,2.5312636E-2,6.1576087E-2,-9.438172E-2],"split_indices":[0,0,0,11,16,0,0,0,0],"split_type":[0,0,0,0,0,0,0,0,0],"sum_hessian":[4.106667E2,4.067408E2,3.9258568E0,3.9560233E2,1.1138495E1,1.4677863E2,2.488237E2,5.5901737E0,5.5483217E0],"tree_param":{"num_deleted":"0","num_feature":"59","num_nodes":"9","size_leaf_vector":"1"}},{"base_weights":[2.6787716E-1,2.5624648E-1,6.2698555E-1,2.43123E-1,5.975547E-1,7.0061666E-1,1.6899047E-2,2.3600323E-2,8.245359E-2,8.462288E-2,1.5024518E-2,7.4777484E-2,1.3467346E-2],"categories":[],"categories_nodes":[],"categories_segments":[],"categories_sizes":[],"default_left":[0,0,0,0,0,0,0,0,0,0,0,0,0],"id":21,"left_children":[1,3,5,7,9,11,-1,-1,-1,-1,-1,-1,-1],"loss_changes":[1.5483112E0,1.6375351E0,2.9117012E-1,1.399025E0,1.4358883E0,1.700573E-1,0E0,0E0,0E0,0E0,0E0,0E0,0E0],"parents":[2147483647,0,0,1,1,2,2,3,3,4,4,5,5],"right_children":[2,4,6,8,10,12,-1,-1,-1,-1,-1,-1,-1],"split_conditions":[1E0,1E0,1E0,3.5E1,1E0,1E0,1.6899047E-2,2.3600323E-2,8.245359E-2,8.462288E-2,1.5024518E-2,7.4777484E-2,1.3467346E-2],"split_indices":[5,50,22,0,44,9,0,0,0,0,0,0,0],"split_type":[0,0,0,0,0,0,0,0,0,0,0,0,0],"sum_hessian":[4.0817108E2,3.970259E2,1.1145167E1,3.8397424E2,1.3051695E1,9.145167E0,2E0,3.80718E2,3.2562292E0,7.815166E0,5.2365284E0,8.145167E0,1E0],"tree_param":{"num_deleted":"0","num_feature":"59","num_nodes":"13","size_leaf_vector":"1"}},{"base_weights":[2.434146E-1,2.746822E-1,1.2655114E-1,5.2591974E-1,2.4328102E-1,-3.9606667E-1,1.7550747E-1,6.014782E-2,6.303654E-3,2.9883668E-2,1.4582363E-2,-1.359257E-2,-1.0850983E-1,2.4215844E-2,-8.011668E-3],"categories":[],"categories_nodes":[],"categories_segments":[],"categories_sizes":[],"default_left":[0,0,0,0,0,0,0,0,0,0,0,0,0,0,0],"id":22,"left_children":[1,3,5,7,9,11,13,-1,-1,-1,-1,-1,-1,-1,-1],"loss_changes":[1.4515572E0,2.3969517E0,2.3137028E0,1.1755838E0,1.5068092E0,1.2541844E0,1.397634E0,0E0,0E0,0E0,0E0,0E0,0E0,0E0,0E0],"parents":[2147483647,0,0,1,1,2,2,3,3,4,4,5,5,6,6],"right_children":[2,4,6,8,10,12,14,-1,-1,-1,-1,-1,-1,-1,-1],"split_conditions":[1E0,5E-1,5E-1,1E0,2.6E1,3E1,1E0,6.014782E-2,6.303654E-3,2.9883668E-2,1.4582363E-2,-1.359257E-2,-1.0850983E-1,2.4215844E-2,-8.011668E-3],"split_indices":[22,11,44,39,0,0,51,0,0,0,0,0,0,0,0],"split_type":[0,0,0,0,0,0,0,0,0,0,0,0,0,0,0],"sum_hessian":[4.0576022E2,3.1904672E2,8.6713524E1,3.3696453E1,2.8535025E2,6.819879E0,7.989365E1,2.8710497E1,4.9859548E0,1.8042981E2,1.04920456E2,5.819879E0,1E0,6.3412315E1,1.6481329E1],"tree_param":{"num_deleted":"0","num_feature":"59","num_nodes":"15","size_leaf_vector":"1"}},{"base_weights":[2.2035652E-1,2.1319713E-1,7.974805E-2,2.253855E-1,-2.040947E-1,2.129857E-2,5.2263048E-2,5.4642595E-2,-8.988343E-2],"categories":[],"categories_nodes":[],"categories_segments":[],"categories_sizes":[],"default_left":[0,0,0,0,0,0,0,0,0],"id":23,"left_children":[1,3,-1,5,7,-1,-1,-1,-1],"loss_changes":[1.5016918E0,2.0855236E0,0E0,1.3264866E0,6.698542E0,0E0,0E0,0E0,0E0],"parents":[2147483647,0,0,1,1,3,3,4,4],"right_children":[2,4,-1,6,8,-1,-1,-1,-1],"split_conditions":[3.5E1,3.2E1,7.974805E-2,1E0,1E0,2.129857E-2,5.2263048E-2,5.4642595E-2,-8.988343E-2],"split_indices":[0,0,0,50,16,0,0,0,0],"split_type":[0,0,0,0,0,0,0,0,0],"sum_hessian":[4.0359137E2,3.999987E2,3.5926876E0,3.890938E2,1.0904872E1,3.7516025E2,1.3933572E1,5.3446155E0,5.560256E0],"tree_param":{"num_deleted":"0","num_feature":"59","num_nodes":"9","size_leaf_vector":"1"}},{"base_weights":[1.9965354E-1,1.8871407E-1,5.5508244E-1,3.590974E-1,1.6651091E-1,6.349118E-1,1.1706004E-1,2.2420742E-2,5.0235875E-2,1.5939003E-2,7.43834E-2,6.836815E-2,1.0999931E-2,1.6138779E-2,1.4202282E-3],"categories":[],"categories_nodes":[],"categories_segments":[],"categories_sizes":[],"default_left":[0,0,0,0,0,0,0,0,0,0,0,0,0,0,0],"id":24,"left_children":[1,3,5,7,9,11,13,-1,-1,-1,-1,-1,-1,-1,-1],"loss_changes":[1.4608173E0,1.4236851E0,3.2806325E-1,7.4430895E-1,1.3153477E0,1.6818857E-1,1.1386279E-2,0E0,0E0,0E0,0E0,0E0,0E0,0E0,0E0],"parents":[2147483647,0,0,1,1,2,2,3,3,4,4,5,5,6,6],"right_children":[2,4,6,8,10,12,14,-1,-1,-1,-1,-1,-1,-1,-1],"split_conditions":[1E0,2.3E1,1E0,7.5E-1,3.5E1,1E0,1E0,2.2420742E-2,5.0235875E-2,1.5939003E-2,7.43834E-2,6.836815E-2,1.0999931E-2,1.6138779E-2,1.4202282E-3],"split_indices":[5,0,22,35,0,9,6,0,0,0,0,0,0,0,0],"split_type":[0,0,0,0,0,0,0,0,0,0,0,0,0,0,0],"sum_hessian":[4.0164624E2,3.9113864E2,1.0507598E1,4.3344788E1,3.4779385E2,8.507598E0,2E0,2.364577E1,1.9699018E1,3.4481686E2,2.9769912E0,7.5075974E0,1E0,1E0,1E0],"tree_param":{"num_deleted":"0","num_feature":"59","num_nodes":"15","size_leaf_vector":"1"}},{"base_weights":[1.812695E-1,1.7099816E-1,5.2390176E-1,1.593257E-1,4.940959E-1,6.017022E-1,1.1120703E-1,5.9738737E-3,1.9126562E-2,7.712726E-2,6.027633E-3,6.532704E-2,8.9945765E-3,1.5331839E-2,1.3492153E-3],"categories":[],"categories_nodes":[],"categories_segments":[],"categories_sizes":[],"default_left":[0,0,0,0,0,0,0,0,0,0,0,0,0,0,0],"id":25,"left_children":[1,3,5,7,9,11,13,-1,-1,-1,-1,-1,-1,-1,-1],"loss_changes":[1.3208065E0,1.3942919E0,2.9204154E-1,1.1923084E0,1.5338225E0,1.8349576E-1,1.0276124E-2,0E0,0E0,0E0,0E0,0E0,0E0,0E0,0E0],"parents":[2147483647,0,0,1,1,2,2,3,3,4,4,5,5,6,6],"right_children":[2,4,6,8,10,12,14,-1,-1,-1,-1,-1,-1,-1,-1],"split_conditions":[1E0,1E0,1E0,1E0,1E0,1E0,1E0,5.9738737E-3,1.9126562E-2,7.712726E-2,6.027633E-3,6.532704E-2,8.9945765E-3,1.5331839E-2,1.3492153E-3],"split_indices":[5,50,22,31,44,24,6,0,0,0,0,0,0,0,0],"split_type":[0,0,0,0,0,0,0,0,0,0,0,0,0,0,0],"sum_hessian":[3.9976004E2,3.8958038E2,1.0179668E1,3.774379E2,1.21424675E1,8.179668E0,2E0,9.235383E1,2.8508408E2,6.934195E0,5.2082725E0,7.1796684E0,1E0,1E0,1E0],"tree_param":{"num_deleted":"0","num_feature":"59","num_nodes":"15","size_leaf_vector":"1"}},{"base_weights":[1.6445453E-1,1.5807888E-1,7.188999E-2,1.6912602E-1,-2.1850374E-1,2.4139764E-2,1.263799E-2,4.9161315E-2,-8.485301E-2],"categories":[],"categories_nodes":[],"categories_segments":[],"categories_sizes":[],"default_left":[0,0,0,0,0,0,0,0,0],"id":26,"left_children":[1,3,-1,5,7,-1,-1,-1,-1],"loss_changes":[1.2967434E0,1.6832523E0,0E0,1.1589327E0,5.6580296E0,0E0,0E0,0E0,0E0],"parents":[2147483647,0,0,1,1,3,3,4,4],"right_children":[2,4,-1,6,8,-1,-1,-1,-1],"split_conditions":[3.5E1,3.2E1,7.188999E-2,7.5E-1,1E0,2.4139764E-2,1.263799E-2,4.9161315E-2,-8.485301E-2],"split_indices":[0,0,0,11,16,0,0,0,0],"split_type":[0,0,0,0,0,0,0,0,0],"sum_hessian":[3.9798373E2,3.947298E2,3.253943E0,3.840155E2,1.0714283E1,1.4099147E2,2.4302403E2,5.140267E0,5.5740166E0],"tree_param":{"num_deleted":"0","num_feature":"59","num_nodes":"9","size_leaf_vector":"1"}},{"base_weights":[1.4882015E-1,1.777213E-1,4.2872105E-2,4.2208448E-1,1.4817627E-1,-4.360891E-1,8.906467E-2,2.8141884E-2,7.146294E-2,-3.3690877E-2,1.5812695E-2,-1.8438064E-2,-1.0710954E-1,6.346462E-3,6.533958E-2],"categories":[],"categories_nodes":[],"categories_segments":[],"categories_sizes":[],"default_left":[0,0,0,0,0,0,0,0,0,0,0,0,0,0,0],"id":27,"left_children":[1,3,5,7,9,11,13,-1,-1,-1,-1,-1,-1,-1,-1],"loss_changes":[1.2093687E0,2.189622E0,1.9525902E0,1.1612782E0,1.4040389E0,1.0457326E0,1.1102581E0,0E0,0E0,0E0,0E0,0E0,0E0,0E0,0E0],"parents":[2147483647,0,0,1,1,2,2,3,3,4,4,5,5,6,6],"right_children":[2,4,6,8,10,12,14,-1,-1,-1,-1,-1,-1,-1,-1],"split_conditions":[1E0,5E-1,5E-1,5E-1,2.5E-1,3E1,1E0,2.8141884E-2,7.146294E-2,-3.3690877E-2,1.5812695E-2,-1.8438064E-2,-1.0710954E-1,6.346462E-3,6.533958E-2],"split_indices":[22,11,44,35,35,0,42,0,0,0,0,0,0,0,0],"split_type":[0,0,0,0,0,0,0,0,0,0,0,0,0,0,0],"sum_hessian":[3.964458E2,3.1094647E2,8.549934E1,3.2107048E1,2.7883942E2,6.778086E0,7.872125E1,2.3006634E1,9.100413E0,4.9444594E0,2.7389496E2,5.778086E0,1E0,7.636932E1,2.3519232E0],"tree_param":{"num_deleted":"0","num_feature":"59","num_nodes":"15","size_leaf_vector":"1"}},{"base_weights":[1.3457829E-1,1.2850095E-1,6.846737E-2,1.3860485E-1,-2.163631E-1,1.2757759E-2,4.2036112E-2,4.4920895E-2,-7.871934E-2],"categories":[],"categories_nodes":[],"categories_segments":[],"categories_sizes":[],"default_left":[0,0,0,0,0,0,0,0,0],"id":28,"left_children":[1,3,-1,5,7,-1,-1,-1,-1],"loss_changes":[1.2357378E0,1.3988924E0,0E0,1.13413E0,4.750486E0,0E0,0E0,0E0,0E0],"parents":[2147483647,0,0,1,1,3,3,4,4],"right_children":[2,4,-1,6,8,-1,-1,-1,-1],"split_conditions":[3.5E1,3.2E1,6.846737E-2,1E0,1E0,1.2757759E-2,4.2036112E-2,4.4920895E-2,-7.871934E-2],"split_indices":[0,0,0,50,16,0,0,0,0],"split_type":[0,0,0,0,0,0,0,0,0],"sum_hessian":[3.9495328E2,3.9185773E2,3.0955691E0,3.8128482E2,1.0572886E1,3.6832236E2,1.2962461E1,4.9797263E0,5.5931606E0],"tree_param":{"num_deleted":"0","num_feature":"59","num_nodes":"9","size_leaf_vector":"1"}},{"base_weights":[1.2179072E-1,1.1228878E-1,4.562654E-1,2.7109793E-1,9.2126906E-2,5.378769E-1,7.0891835E-2,1.386408E-2,4.1972086E-2,8.608474E-3,6.414909E-2,6.5937825E-2,1.912782E-2,1.2978136E-2,-2.3443594E-3],"categories":[],"categories_nodes":[],"categories_segments":[],"categories_sizes":[],"default_left":[0,0,0,0,0,0,0,0,0,0,0,0,0,0,0],"id":29,"left_children":[1,3,5,7,9,11,13,-1,-1,-1,-1,-1,-1,-1,-1],"loss_changes":[1.2030454E0,1.2080088E0,2.9447627E-1,7.8568053E-1,1.0840223E0,2.3500657E-1,1.9708645E-2,0E0,0E0,0E0,0E0,0E0,0E0,0E0,0E0],"parents":[2147483647,0,0,1,1,2,2,3,3,4,4,5,5,6,6],"right_children":[2,4,6,8,10,12,14,-1,-1,-1,-1,-1,-1,-1,-1],"split_conditions":[1E0,2.3E1,1E0,7.5E-1,3.5E1,1E0,1E0,1.386408E-2,4.1972086E-2,8.608474E-3,6.414909E-2,6.5937825E-2,1.912782E-2,1.2978136E-2,-2.3443594E-3],"split_indices":[5,0,22,35,0,16,6,0,0,0,0,0,0,0,0],"split_type":[0,0,0,0,0,0,0,0,0,0,0,0,0,0,0],"sum_hessian":[3.9365558E2,3.840801E2,9.575449E0,4.1866207E1,3.4221393E2,7.5754485E0,2E0,2.315903E1,1.8707178E1,3.3963516E2,2.578764E0,4.9409547E0,2.6344938E0,1E0,1E0],"tree_param":{"num_deleted":"0","num_feature":"59","num_nodes":"15","size_leaf_vector":"1"}},{"base_weights":[1.1060331E-1,1.04943916E-1,6.576099E-2,9.945175E-2,6.314247E-2,1.4300262E-2,1.9416744E-3],"categories":[],"categories_nodes":[],"categories_segments":[],"categories_sizes":[],"default_left":[0,0,0,0,0,0,0],"id":30,"left_children":[1,3,-1,5,-1,-1,-1],"loss_changes":[1.1486897E0,1.0663767E0,0E0,1.3484731E0,0E0,0E0,0E0],"parents":[2147483647,0,0,1,1,3,3],"right_children":[2,4,-1,6,-1,-1,-1],"split_conditions":[1E0,3.5E1,6.576099E-2,2.6E1,6.314247E-2,1.4300262E-2,1.9416744E-3],"split_indices":[57,0,0,0,0,0,0],"split_type":[0,0,0,0,0,0,0],"sum_hessian":[3.9234988E2,3.895118E2,2.8380797E0,3.8666705E2,2.8447516E0,2.4989857E2,1.3676848E2],"tree_param":{"num_deleted":"0","num_feature":"59","num_nodes":"7","size_leaf_vector":"1"}},{"base_weights":[1.0019859E-1,9.134829E-2,4.228714E-1,8.101311E-2,3.9710537E-1,5.048719E-1,5.7813745E-2,7.5884718E-3,6.350214E-2,7.031563E-2,-1.7674109E-3,6.295391E-2,1.7130306E-2,1.1614214E-2,-2.9421523E-3],"categories":[],"categories_nodes":[],"categories_segments":[],"categories_sizes":[],"default_left":[0,0,0,0,0,0,0,0,0,0,0,0,0,0,0],"id":31,"left_children":[1,3,5,7,9,11,13,-1,-1,-1,-1,-1,-1,-1,-1],"loss_changes":[1.0818429E0,1.178628E0,2.7611017E-1,1.008404E0,1.5702417E0,2.3310375E-1,1.8681958E-2,0E0,0E0,0E0,0E0,0E0,0E0,0E0,0E0],"parents":[2147483647,0,0,1,1,2,2,3,3,4,4,5,5,6,6],"right_children":[2,4,6,8,10,12,14,-1,-1,-1,-1,-1,-1,-1,-1],"split_conditions":[1E0,1E0,1E0,1E0,1E0,1E0,1E0,7.5884718E-3,6.350214E-2,7.031563E-2,-1.7674109E-3,6.295391E-2,1.7130306E-2,1.1614214E-2,-2.9421523E-3],"split_indices":[5,50,22,57,44,16,6,0,0,0,0,0,0,0,0],"split_type":[0,0,0,0,0,0,0,0,0,0,0,0,0,0,0],"sum_hessian":[3.913563E2,3.8215756E2,9.198752E0,3.7088586E2,1.1271696E1,7.1987524E0,2E0,3.6861063E2,2.2752156E0,6.0858855E0,5.1858106E0,4.5943766E0,2.6043756E0,1E0,1E0],"tree_param":{"num_deleted":"0","num_feature":"59","num_nodes":"15","size_leaf_vector":"1"}},{"base_weights":[9.1098234E-2,8.671963E-2,6.9832824E-2,2.3270217E-1,6.860103E-2,1.8884644E-2,7.219718E-2,1.4888319E-2,2.4726565E-3],"categories":[],"categories_nodes":[],"categories_segments":[],"categories_sizes":[],"default_left":[0,0,0,0,0,0,0,0,0],"id":32,"left_children":[1,3,-1,5,7,-1,-1,-1,-1],"loss_changes":[9.7949886E-1,1.0143008E0,0E0,7.7749515E-1,1.2218287E0,0E0,0E0,0E0,0E0],"parents":[2147483647,0,0,1,1,3,3,4,4],"right_children":[2,4,-1,6,8,-1,-1,-1,-1],"split_conditions":[1E0,2.3E1,6.9832824E-2,1E0,7.5E-1,1.8884644E-2,7.219718E-2,1.4888319E-2,2.4726565E-3],"split_indices":[33,0,0,26,21,0,0,0,0],"split_type":[0,0,0,0,0,0,0,0,0],"sum_hessian":[3.9017267E2,3.8851398E2,1.6586769E0,4.1588676E1,3.469253E2,3.943949E1,2.149186E0,1.2175067E2,2.2517464E2],"tree_param":{"num_deleted":"0","num_feature":"59","num_nodes":"9","size_leaf_vector":"1"}},{"base_weights":[8.265455E-2,7.7551745E-2,5.975923E-2,8.642335E-2,-2.224658E-1,6.55815E-3,2.3551986E-2,4.0274244E-2,-7.381837E-2],"categories":[],"categories_nodes":[],"categories_segments":[],"categories_sizes":[],"default_left":[0,0,0,0,0,0,0,0,0],"id":33,"left_children":[1,3,-1,5,7,-1,-1,-1,-1],"loss_changes":[9.7921586E-1,1.0509253E0,0E0,1.1567006E0,3.9770646E0,0E0,0E0,0E0,0E0],"parents":[2147483647,0,0,1,1,3,3,4,4],"right_children":[2,4,-1,6,8,-1,-1,-1,-1],"split_conditions":[3.5E1,3.2E1,5.975923E-2,1E0,1E0,6.55815E-3,2.3551986E-2,4.0274244E-2,-7.381837E-2],"split_indices":[0,0,0,16,16,0,0,0,0],"split_type":[0,0,0,0,0,0,0,0,0],"sum_hessian":[3.8929883E2,3.866182E2,2.6806133E0,3.7620563E2,1.0412569E1,3.313297E2,4.4875935E1,4.805678E0,5.6068916E0],"tree_param":{"num_deleted":"0","num_feature":"59","num_nodes":"9","size_leaf_vector":"1"}},{"base_weights":[7.4728064E-2,6.9719136E-2,5.9910692E-2,5.676469E-2,2.684602E-1,1.4694407E-2,2.6516374E-3,5.058187E-2,1.8368507E-2],"categories":[],"categories_nodes":[],"categories_segments":[],"categories_sizes":[],"default_left":[0,0,0,0,0,0,0,0,0],"id":34,"left_children":[1,3,-1,5,7,-1,-1,-1,-1],"loss_changes":[9.81086E-1,9.8079634E-1,0E0,9.9028623E-1,3.7806773E-1,0E0,0E0,0E0,0E0],"parents":[2147483647,0,0,1,1,3,3,4,4],"right_children":[2,4,-1,6,8,-1,-1,-1,-1],"split_conditions":[1E0,1E0,5.9910692E-2,2.4E1,5E-1,1.4694407E-2,2.6516374E-3,5.058187E-2,1.8368507E-2],"split_indices":[57,32,0,0,11,0,0,0,0],"split_type":[0,0,0,0,0,0,0,0,0],"sum_hessian":[3.8842572E2,3.8587277E2,2.5529428E0,3.634667E2,2.2406065E1,9.032442E1,2.731423E2,4.5895047E0,1.781656E1],"tree_param":{"num_deleted":"0","num_feature":"59","num_nodes":"9","size_leaf_vector":"1"}},{"base_weights":[6.778973E-2,5.831649E-2,3.3476165E-1,4.99328E-2,4.1824314E-1,6.685125E-2,-3.3840943E-2,-4.056075E-3,7.955491E-3,5.85591E-2,1.48014575E-2,4.0849657E-3,-5.5343616E-3],"categories":[],"categories_nodes":[],"categories_segments":[],"categories_sizes":[],"default_left":[0,0,0,0,0,0,0,0,0,0,0,0,0],"id":35,"left_children":[1,3,5,7,9,-1,11,-1,-1,-1,-1,-1,-1],"loss_changes":[9.634299E-1,1.1153642E0,1.6351418E0,9.926805E-1,2.9480457E-1,0E0,1.3792861E-2,0E0,0E0,0E0,0E0,0E0,0E0],"parents":[2147483647,0,0,1,1,2,2,3,3,4,4,6,6],"right_children":[2,4,6,8,10,-1,12,-1,-1,-1,-1,-1,-1],"split_conditions":[1E0,1E0,1E0,1E0,1E0,6.685125E-2,2.5E1,-4.056075E-3,7.955491E-3,5.85591E-2,1.48014575E-2,4.0849657E-3,-5.5343616E-3],"split_indices":[50,5,44,31,16,0,0,0,0,0,0,0,0],"split_type":[0,0,0,0,0,0,0,0,0,0,0,0,0],"sum_hessian":[3.8765857E2,3.7555096E2,1.2107626E1,3.6811526E2,7.435699E0,5.9272046E0,6.180421E0,9.069101E1,2.7742426E2,3.8712685E0,3.5644305E0,1.1804211E0,5E0],"tree_param":{"num_deleted":"0","num_feature":"59","num_nodes":"13","size_leaf_vector":"1"}},{"base_weights":[6.1573207E-2,5.6738347E-2,5.7021763E-2,5.255136E-2,6.577893E-2,4.7787367E-3,5.7146978E-2],"categories":[],"categories_nodes":[],"categories_segments":[],"categories_sizes":[],"default_left":[0,0,0,0,0,0,0],"id":36,"left_children":[1,3,-1,5,-1,-1,-1],"loss_changes":[9.211798E-1,9.348154E-1,0E0,9.210434E-1,0E0,0E0,0E0],"parents":[2147483647,0,0,1,1,3,3],"right_children":[2,4,-1,6,-1,-1,-1],"split_conditions":[3.5E1,1E0,5.7021763E-2,1E0,6.577893E-2,4.7787367E-3,5.7146978E-2],"split_indices":[0,33,0,57,0,0,0],"split_type":[0,0,0,0,0,0,0],"sum_hessian":[3.8673715E2,3.8419675E2,2.5403898E0,3.826188E2,1.5779322E0,3.8022025E2,2.3985653E0],"tree_param":{"num_deleted":"0","num_feature":"59","num_nodes":"7","size_leaf_vector":"1"}},{"base_weights":[5.6004226E-2,8.142597E-2,-3.494669E-2,3.1875172E-1,5.374255E-2,-4.7226092E-1,8.589923E-3,1.855941E-2,6.23568E-2,-4.1766416E-2,6.3746236E-3,-2.3026686E-2,-1.051405E-1,-1.6072877E-3,5.997631E-2],"categories":[],"categories_nodes":[],"categories_segments":[],"categories_sizes":[],"default_left":[0,0,0,0,0,0,0,0,0,0,0,0,0,0,0],"id":37,"left_children":[1,3,5,7,9,11,13,-1,-1,-1,-1,-1,-1,-1,-1],"loss_changes":[8.979188E-1,1.972616E0,1.6274631E0,1.16013E0,1.3113037E0,8.423686E-1,1.1545866E0,0E0,0E0,0E0,0E0,0E0,0E0,0E0,0E0],"parents":[2147483647,0,0,1,1,2,2,3,3,4,4,5,5,6,6],"right_children":[2,4,6,8,10,12,14,-1,-1,-1,-1,-1,-1,-1,-1],"split_conditions":[1E0,5E-1,5E-1,5E-1,2.5E-1,3E1,1E0,1.855941E-2,6.23568E-2,-4.1766416E-2,6.3746236E-3,-2.3026686E-2,-1.051405E-1,-1.6072877E-3,5.997631E-2],"split_indices":[22,11,44,35,35,0,42,0,0,0,0,0,0,0,0],"split_type":[0,0,0,0,0,0,0,0,0,0,0,0,0,0,0],"sum_hessian":[3.8612045E2,3.0185382E2,8.426662E1,3.0433962E1,2.7141986E2,6.7379713E0,7.752865E1,2.230082E1,8.133142E0,4.793289E0,2.6662656E2,5.7379713E0,1E0,7.535766E1,2.1709895E0],"tree_param":{"num_deleted":"0","num_feature":"59","num_nodes":"15","size_leaf_vector":"1"}},{"base_weights":[5.048392E-2,4.158528E-2,3.0857778E-1,3.3945687E-2,3.8378668E-1,6.4034745E-2,-3.6731284E-2,2.6792413E-2,2.4413397E-3,5.5567324E-2,1.2673236E-2,3.32899E-3,-5.6035104E-3],"categories":[],"categories_nodes":[],"categories_segments":[],"categories_sizes":[],"default_left":[0,0,0,0,0,0,0,0,0,0,0,0,0],"id":38,"left_children":[1,3,5,7,9,-1,11,-1,-1,-1,-1,-1,-1],"loss_changes":[8.7444067E-1,9.663018E-1,1.48079E0,8.131671E-1,2.8673673E-1,0E0,1.1568662E-2,0E0,0E0,0E0,0E0,0E0,0E0],"parents":[2147483647,0,0,1,1,2,2,3,3,4,4,6,6],"right_children":[2,4,6,8,10,-1,12,-1,-1,-1,-1,-1,-1],"split_conditions":[1E0,1E0,1E0,5E-1,1E0,6.4034745E-2,2.5E1,2.6792413E-2,2.4413397E-3,5.5567324E-2,1.2673236E-2,3.32899E-3,-5.6035104E-3],"split_indices":[50,5,44,6,16,0,0,0,0,0,0,0,0],"split_type":[0,0,0,0,0,0,0,0,0,0,0,0,0],"sum_hessian":[3.8532797E2,3.7360776E2,1.1720236E1,3.6652435E2,7.0834036E0,5.541549E0,6.1786866E0,1.328658E1,3.5323776E2,3.5487423E0,3.5346613E0,1.1786865E0,5E0],"tree_param":{"num_deleted":"0","num_feature":"59","num_nodes":"13","size_leaf_vector":"1"}},{"base_weights":[4.598667E-2,4.1417044E-2,5.4558653E-2,3.748788E-2,6.236107E-2,6.4048255E-3,-5.0234343E-3],"categories":[],"categories_nodes":[],"categories_segments":[],"categories_sizes":[],"default_left":[0,0,0,0,0,0,0],"id":39,"left_children":[1,3,-1,5,-1,-1,-1],"loss_changes":[8.5757947E-1,8.5303473E-1,0E0,8.9236933E-1,0E0,0E0,0E0],"parents":[2147483647,0,0,1,1,3,3],"right_children":[2,4,-1,6,-1,-1,-1],"split_conditions":[3.5E1,1E0,5.4558653E-2,2.7E1,6.236107E-2,6.4048255E-3,-5.0234343E-3],"split_indices":[0,33,0,0,0,0,0],"split_type":[0,0,0,0,0,0,0],"sum_hessian":[3.8453754E2,3.821253E2,2.4122355E0,3.806209E2,1.504381E0,2.923681E2,8.82528E1],"tree_param":{"num_deleted":"0","num_feature":"59","num_nodes":"7","size_leaf_vector":"1"}},{"base_weights":[4.1756935E-2,3.7409373E-2,5.4290075E-2,2.8980656E-2,2.8702125E-1,2.4467043E-3,5.246507E-2,6.1704732E-2,-3.8898617E-3],"categories":[],"categories_nodes":[],"categories_segments":[],"categories_sizes":[],"default_left":[0,0,0,0,0,0,0,0,0],"id":40,"left_children":[1,3,-1,5,7,-1,-1,-1,-1],"loss_changes":[8.187391E-1,7.971982E-1,0E0,8.182459E-1,1.3571008E0,0E0,0E0,0E0,0E0],"parents":[2147483647,0,0,1,1,3,3,4,4],"right_children":[2,4,-1,6,8,-1,-1,-1,-1],"split_conditions":[1E0,1E0,5.4290075E-2,3.5E1,1E0,2.4467043E-3,5.246507E-2,6.1704732E-2,-3.8898617E-3],"split_indices":[57,50,0,0,44,0,0,0,0],"split_type":[0,0,0,0,0,0,0,0,0],"sum_hessian":[3.8410477E2,3.818666E2,2.2381518E0,3.7047284E2,1.13937645E1,3.6816962E2,2.3032222E0,5.217392E0,6.1763725E0],"tree_param":{"num_deleted":"0","num_feature":"59","num_nodes":"9","size_leaf_vector":"1"}},{"base_weights":[3.8119335E-2,3.443639E-2,5.9754003E-2,3.023229E-2,5.261093E-2,1.6002636E-2,1.4427804E-3],"categories":[],"categories_nodes":[],"categories_segments":[],"categories_sizes":[],"default_left":[0,0,0,0,0,0,0],"id":41,"left_children":[1,3,-1,5,-1,-1,-1],"loss_changes":[7.714905E-1,7.7574426E-1,0E0,7.788384E-1,0E0,0E0,0E0],"parents":[2147483647,0,0,1,1,3,3],"right_children":[2,4,-1,6,-1,-1,-1],"split_conditions":[1E0,1E0,5.9754003E-2,2.3E1,5.261093E-2,1.6002636E-2,1.4427804E-3],"split_indices":[33,40,0,0,0,0,0],"split_type":[0,0,0,0,0,0,0],"sum_hessian":[3.8343994E2,3.8198666E2,1.4532514E0,3.7980063E2,2.1860375E0,4.0236195E1,3.3956445E2],"tree_param":{"num_deleted":"0","num_feature":"59","num_nodes":"7","size_leaf_vector":"1"}},{"base_weights":[3.470086E-2,4.8729703E-2,-1.0287748E-1,-5.329539E-2,8.6443126E-2,3.847747E-2,-3.5433432E-1,1.6863415E-2,-1.49999885E-2,4.991718E-3,2.9265875E-2,3.538404E-2,-4.2519495E-3,-9.461899E-3,-5.634305E-2],"categories":[],"categories_nodes":[],"categories_segments":[],"categories_sizes":[],"default_left":[0,0,0,0,0,0,0,0,0,0,0,0,0,0,0],"id":42,"left_children":[1,3,5,7,9,11,13,-1,-1,-1,-1,-1,-1,-1,-1],"loss_changes":[7.461374E-1,1.3479817E0,1.2880363E0,2.060826E0,1.9082947E0,6.2434673E-1,6.526598E-1,0E0,0E0,0E0,0E0,0E0,0E0,0E0,0E0],"parents":[2147483647,0,0,1,1,2,2,3,3,4,4,5,5,6,6],"right_children":[2,4,6,8,10,12,14,-1,-1,-1,-1,-1,-1,-1,-1],"split_conditions":[1E0,1E0,1E0,7.5E-1,1E0,1E0,1E0,1.6863415E-2,-1.49999885E-2,4.991718E-3,2.9265875E-2,3.538404E-2,-4.2519495E-3,-9.461899E-3,-5.634305E-2],"split_indices":[51,31,21,21,35,31,22,0,0,0,0,0,0,0,0],"split_type":[0,0,0,0,0,0,0,0,0,0,0,0,0,0,0],"sum_hessian":[3.8298926E2,3.481357E2,3.4853546E1,9.384532E1,2.5429037E2,2.2853544E1,1.2E1,2.8256039E1,6.558929E1,2.1708182E2,3.7208557E1,3.981796E0,1.8871748E1,6E0,6E0],"tree_param":{"num_deleted":"0","num_feature":"59","num_nodes":"15","size_leaf_vector":"1"}},{"base_weights":[3.130399E-2,2.7268032E-2,5.1650446E-2,1.5955547E-2,2.0570655E-1,1.158705E-3,5.0156552E-2,5.584348E-2,1.4773463E-2],"categories":[],"categories_nodes":[],"categories_segments":[],"categories_sizes":[],"default_left":[0,0,0,0,0,0,0,0,0],"id":43,"left_children":[1,3,-1,5,7,-1,-1,-1,-1],"loss_changes":[7.367165E-1,7.663971E-1,0E0,7.5714236E-1,3.8061142E-1,0E0,0E0,0E0,0E0],"parents":[2147483647,0,0,1,1,3,3,4,4],"right_children":[2,4,-1,6,8,-1,-1,-1,-1],"split_conditions":[1E0,1E0,5.1650446E-2,3.5E1,5E-1,1.158705E-3,5.0156552E-2,5.584348E-2,1.4773463E-2],"split_indices":[57,32,0,0,44,0,0,0,0],"split_type":[0,0,0,0,0,0,0,0,0],"sum_hessian":[3.8240396E2,3.8029678E2,2.1071577E0,3.586489E2,2.1647884E1,3.5646603E2,2.1828706E0,1.8371233E0,1.981076E1],"tree_param":{"num_deleted":"0","num_feature":"59","num_nodes":"9","size_leaf_vector":"1"}},{"base_weights":[2.8677939E-2,2.518795E-2,5.71489E-2,1.7330382E-2,2.653452E-1,1.4886771E-2,1.9411203E-4,5.8993585E-2,-3.598377E-3],"categories":[],"categories_nodes":[],"categories_segments":[],"categories_sizes":[],"default_left":[0,0,0,0,0,0,0,0,0],"id":44,"left_children":[1,3,-1,5,7,-1,-1,-1,-1],"loss_changes":[7.1112525E-1,7.154627E-1,0E0,7.4982315E-1,1.1968174E0,0E0,0E0,0E0,0E0],"parents":[2147483647,0,0,1,1,3,3,4,4],"right_children":[2,4,-1,6,8,-1,-1,-1,-1],"split_conditions":[1E0,1E0,5.71489E-2,5E-1,1E0,1.4886771E-2,1.9411203E-4,5.8993585E-2,-3.598377E-3],"split_indices":[33,50,0,11,44,0,0,0,0],"split_type":[0,0,0,0,0,0,0,0,0],"sum_hessian":[3.8198053E2,3.8058E2,1.4005255E0,3.6956073E2,1.1019286E1,3.7799747E1,3.3176096E2,4.8437896E0,6.1754966E0],"tree_param":{"num_deleted":"0","num_feature":"59","num_nodes":"9","size_leaf_vector":"1"}},{"base_weights":[2.6205918E-2,3.63848E-2,-1.5461098E-1,2.667419E-2,4.5833433E-1,1.2474253E-3,-1.8773735E-1,6.2759477E-3,-3.5261184E-3,1.7569395E-3,6.52E-2,1.3890189E-2,-1.1845801E-2,-2.2210037E-2,3.6752093E-4],"categories":[],"categories_nodes":[],"categories_segments":[],"categories_sizes":[],"default_left":[0,0,0,0,0,0,0,0,0,0,0,0,0,0,0],"id":45,"left_children":[1,3,5,7,9,11,13,-1,-1,-1,-1,-1,-1,-1,-1],"loss_changes":[7.0958096E-1,1.4747306E0,1.0645905E-1,7.974134E-1,6.8014574E-1,9.2248864E-2,1.1246574E-1,0E0,0E0,0E0,0E0,0E0,0E0,0E0,0E0],"parents":[2147483647,0,0,1,1,2,2,3,3,4,4,5,5,6,6],"right_children":[2,4,6,8,10,12,14,-1,-1,-1,-1,-1,-1,-1,-1],"split_conditions":[1E0,1E0,2.4E1,2.6E1,1E0,1E0,1E0,6.2759477E-3,-3.5261184E-3,1.7569395E-3,6.52E-2,1.3890189E-2,-1.1845801E-2,-2.2210037E-2,3.6752093E-4],"split_indices":[55,42,0,0,31,31,16,0,0,0,0,0,0,0,0],"split_type":[0,0,0,0,0,0,0,0,0,0,0,0,0,0,0],"sum_hessian":[3.8147772E2,3.6190356E2,1.9574173E1,3.5480148E2,7.1020694E0,3.5997622E0,1.5974411E1,2.2417662E2,1.3062488E2,2.5009234E0,4.6011457E0,1.5997622E0,2E0,1.3407185E1,2.567226E0],"tree_param":{"num_deleted":"0","num_feature":"59","num_nodes":"15","size_leaf_vector":"1"}},{"base_weights":[2.3766384E-2,1.7134616E-2,3.0058503E-1,1.31490305E-2,4.9816635E-2,3.8192022E-1,1.3914287E-2,5.631364E-4,2.7154634E-2,5.2413095E-2,9.263913E-3,6.9216415E-3,-4.8344987E-3],"categories":[],"categories_nodes":[],"categories_segments":[],"categories_sizes":[],"default_left":[0,0,0,0,0,0,0,0,0,0,0,0,0],"id":46,"left_children":[1,3,5,7,-1,9,11,-1,-1,-1,-1,-1,-1],"loss_changes":[6.96203E-1,7.107961E-1,2.016902E-1,7.213255E-1,0E0,2.3440003E-1,1.3675476E-2,0E0,0E0,0E0,0E0,0E0,0E0],"parents":[2147483647,0,0,1,1,2,2,3,3,5,5,6,6],"right_children":[2,4,6,8,-1,10,12,-1,-1,-1,-1,-1,-1],"split_conditions":[1E0,1E0,1E0,1E0,4.9816635E-2,1E0,1E0,5.631364E-4,2.7154634E-2,5.2413095E-2,9.263913E-3,6.9216415E-3,-4.8344987E-3],"split_indices":[5,40,22,50,0,16,6,0,0,0,0,0,0],"split_type":[0,0,0,0,0,0,0,0,0,0,0,0,0],"sum_hessian":[3.81043E2,3.7316498E2,7.8780465E0,3.711174E2,2.047556E0,5.8780465E0,2E0,3.6161847E2,9.498933E0,3.3964903E0,2.4815562E0,1E0,1E0],"tree_param":{"num_deleted":"0","num_feature":"59","num_nodes":"13","size_leaf_vector":"1"}},{"base_weights":[2.1808213E-2,1.8004557E-2,4.9701195E-2,1.4149515E-2,4.8357345E-2,3.5819602E-3,-6.749492E-3],"categories":[],"categories_nodes":[],"categories_segments":[],"categories_sizes":[],"default_left":[0,0,0,0,0,0,0],"id":47,"left_children":[1,3,-1,5,-1,-1,-1],"loss_changes":[6.807969E-1,6.744716E-1,0E0,6.7034125E-1,0E0,0E0,0E0],"parents":[2147483647,0,0,1,1,3,3],"right_children":[2,4,-1,6,-1,-1,-1],"split_conditions":[1E0,3.5E1,4.9701195E-2,1E0,4.8357345E-2,3.5819602E-3,-6.749492E-3],"split_indices":[57,0,0,8,0,0,0],"split_type":[0,0,0,0,0,0,0],"sum_hessian":[3.805995E2,3.786069E2,1.9925812E0,3.7651962E2,2.087298E0,2.9798865E2,7.853095E1],"tree_param":{"num_deleted":"0","num_feature":"59","num_nodes":"7","size_leaf_vector":"1"}},{"base_weights":[1.9907322E-2,1.6633924E-2,5.4427516E-2,1.2985424E-2,4.7848392E-2,9.353631E-4,4.7886208E-2],"categories":[],"categories_nodes":[],"categories_segments":[],"categories_sizes":[],"default_left":[0,0,0,0,0,0,0],"id":48,"left_children":[1,3,-1,5,-1,-1,-1],"loss_changes":[6.453593E-1,6.3397855E-1,0E0,6.3503814E-1,0E0,0E0,0E0],"parents":[2147483647,0,0,1,1,3,3],"right_children":[2,4,-1,6,-1,-1,-1],"split_conditions":[1E0,1E0,5.4427516E-2,1E0,4.7848392E-2,9.353631E-4,4.7886208E-2],"split_indices":[33,40,0,57,0,0,0],"split_type":[0,0,0,0,0,0,0],"sum_hessian":[3.8025616E2,3.7892245E2,1.333724E0,3.7697256E2,1.949873E0,3.7506876E2,1.9038123E0],"tree_param":{"num_deleted":"0","num_feature":"59","num_nodes":"7","size_leaf_vector":"1"}},{"base_weights":[1.8340468E-2,3.9552074E-2,-5.6480106E-2,2.465843E-1,1.608262E-2,-4.7111052E-1,-1.4589943E-2,1.2192877E-2,5.5578448E-2,-4.310624E-2,2.5720517E-3,-2.406408E-2,-1.0107841E-1,-3.6563375E-3,5.4814707E-2],"categories":[],"categories_nodes":[],"categories_segments":[],"categories_sizes":[],"default_left":[0,0,0,0,0,0,0,0,0,0,0,0,0,0,0],"id":49,"left_children":[1,3,5,7,9,11,13,-1,-1,-1,-1,-1,-1,-1,-1],"loss_changes":[6.0686505E-1,1.441144E0,1.4618714E0,1.0967307E0,1.1669068E0,7.178838E-1,9.8248255E-1,0E0,0E0,0E0,0E0,0E0,0E0,0E0,0E0],"parents":[2147483647,0,0,1,1,2,2,3,3,4,4,5,5,6,6],"right_children":[2,4,6,8,10,12,14,-1,-1,-1,-1,-1,-1,-1,-1],"split_conditions":[1E0,5E-1,5E-1,5E-1,2.5E-1,3E1,1E0,1.2192877E-2,5.5578448E-2,-4.310624E-2,2.5720517E-3,-2.406408E-2,-1.0107841E-1,-3.6563375E-3,5.4814707E-2],"split_indices":[22,11,44,35,35,0,42,0,0,0,0,0,0,0,0],"split_type":[0,0,0,0,0,0,0,0,0,0,0,0,0,0,0],"sum_hessian":[3.7997458E2,2.96413E2,8.356159E1,2.9212523E1,2.6720047E2,6.7273817E0,7.6834206E1,2.181289E1,7.3996344E0,4.715207E0,2.6248526E2,5.7273817E0,1E0,7.4846664E1,1.9875433E0],"tree_param":{"num_deleted":"0","num_feature":"59","num_nodes":"15","size_leaf_vector":"1"}},{"base_weights":[1.643411E-2,1.2814141E-2,4.6767578E-2,2.0073587E-2,-2.2654782E-1,1.34994425E-5,1.6474547E-2,4.806336E-2,-6.273631E-2],"categories":[],"categories_nodes":[],"categories_segments":[],"categories_sizes":[],"default_left":[0,0,0,0,0,0,0,0,0],"id":50,"left_children":[1,3,-1,5,7,-1,-1,-1,-1],"loss_changes":[6.1553407E-1,6.622291E-1,0E0,1.0622714E0,3.4825492E0,0E0,0E0,0E0,0E0],"parents":[2147483647,0,0,1,1,3,3,4,4],"right_children":[2,4,-1,6,8,-1,-1,-1,-1],"split_conditions":[3.5E1,3.2E1,4.6767578E-2,1E0,1E0,1.34994425E-5,1.6474547E-2,4.806336E-2,-6.273631E-2],"split_indices":[0,0,0,16,6,0,0,0,0],"split_type":[0,0,0,0,0,0,0,0,0],"sum_hessian":[3.7949216E2,3.7749222E2,1.9999375E0,3.6726968E2,1.0222535E1,3.2366348E2,4.360618E1,3.62594E0,6.596595E0],"tree_param":{"num_deleted":"0","num_feature":"59","num_nodes":"9","size_leaf_vector":"1"}},{"base_weights":[1.4950485E-2,1.1846015E-2,5.226173E-2,2.0427157E-3,1.6962664E-1,-1.073848E-2,2.1327941E-3,5.2772887E-2,1.1337931E-2],"categories":[],"categories_nodes":[],"categories_segments":[],"categories_sizes":[],"default_left":[0,0,0,0,0,0,0,0,0],"id":51,"left_children":[1,3,-1,5,7,-1,-1,-1,-1],"loss_changes":[5.9296477E-1,5.856921E-1,0E0,7.572146E-1,3.8634646E-1,0E0,0E0,0E0,0E0],"parents":[2147483647,0,0,1,1,3,3,4,4],"right_children":[2,4,-1,6,8,-1,-1,-1,-1],"split_conditions":[1E0,1E0,5.226173E-2,7.5E-1,5E-1,-1.073848E-2,2.1327941E-3,5.2772887E-2,1.1337931E-2],"split_indices":[33,32,0,13,44,0,0,0,0],"split_type":[0,0,0,0,0,0,0,0,0],"sum_hessian":[3.7916626E2,3.7787878E2,1.2874593E0,3.567274E2,2.1151407E1,5.276454E1,3.0396286E2,1.7333877E0,1.941802E1],"tree_param":{"num_deleted":"0","num_feature":"59","num_nodes":"9","size_leaf_vector":"1"}},{"base_weights":[1.375524E-2,7.831881E-3,2.7045113E-1,1.0162187E-3,2.4633181E-1,3.5051182E-1,5.7267547E-3,-1.9840996E-3,1.0043366E-2,5.5648167E-2,-5.3920923E-3,4.9988538E-2,7.082226E-3,5.6021437E-3,-4.7431304E-3],"categories":[],"categories_nodes":[],"categories_segments":[],"categories_sizes":[],"default_left":[0,0,0,0,0,0,0,0,0,0,0,0,0,0,0],"id":52,"left_children":[1,3,5,7,9,11,13,-1,-1,-1,-1,-1,-1,-1,-1],"loss_changes":[5.757071E-1,6.052308E-1,1.7902273E-1,7.54982E-1,9.9332875E-1,2.378918E-1,1.0677873E-2,0E0,0E0,0E0,0E0,0E0,0E0,0E0,0E0],"parents":[2147483647,0,0,1,1,2,2,3,3,4,4,5,5,6,6],"right_children":[2,4,6,8,10,12,14,-1,-1,-1,-1,-1,-1,-1,-1],"split_conditions":[1E0,1E0,1E0,1E0,1E0,1E0,1E0,-1.9840996E-3,1.0043366E-2,5.5648167E-2,-5.3920923E-3,4.9988538E-2,7.082226E-3,5.6021437E-3,-4.7431304E-3],"split_indices":[5,50,22,35,44,16,6,0,0,0,0,0,0,0,0],"split_type":[0,0,0,0,0,0,0,0,0,0,0,0,0,0,0],"sum_hessian":[3.790227E2,3.7148114E2,7.541563E0,3.6213657E2,9.34459E0,5.541563E0,2E0,2.999989E2,6.213764E1,4.176768E0,5.1678224E0,3.099128E0,2.4424353E0,1E0,1E0],"tree_param":{"num_deleted":"0","num_feature":"59","num_nodes":"15","size_leaf_vector":"1"}},{"base_weights":[1.2731421E-2,9.373262E-3,4.605026E-2,2.7874655E-1,3.7213054E-3,-1.3675125E-2,5.028486E-2,-2.3887986E-2,1.267984E-3],"categories":[],"categories_nodes":[],"categories_segments":[],"categories_sizes":[],"default_left":[0,0,0,0,0,0,0,0,0],"id":53,"left_children":[1,3,-1,5,7,-1,-1,-1,-1],"loss_changes":[5.66444E-1,5.7411104E-1,0E0,7.903873E-1,8.093843E-1,0E0,0E0,0E0,0E0],"parents":[2147483647,0,0,1,1,3,3,4,4],"right_children":[2,4,-1,6,8,-1,-1,-1,-1],"split_conditions":[1E0,2.5E-1,4.605026E-2,2.5E-1,2.5E-1,-1.3675125E-2,5.028486E-2,-2.3887986E-2,1.267984E-3],"split_indices":[57,11,0,34,35,0,0,0,0],"split_type":[0,0,0,0,0,0,0,0,0],"sum_hessian":[3.7857397E2,3.7676923E2,1.804731E0,6.749884E0,3.7001935E2,2.5015855E0,4.2482986E0,1.2263133E1,3.5775623E2],"tree_param":{"num_deleted":"0","num_feature":"59","num_nodes":"9","size_leaf_vector":"1"}},{"base_weights":[1.1636312E-2,8.198786E-3,4.5257073E-2,4.81936E-3,4.5454293E-2,2.702098E-3,-6.8385205E-3],"categories":[],"categories_nodes":[],"categories_segments":[],"categories_sizes":[],"default_left":[0,0,0,0,0,0,0],"id":54,"left_children":[1,3,-1,5,-1,-1,-1],"loss_changes":[5.71302E-1,5.671482E-1,0E0,6.123331E-1,0E0,0E0,0E0],"parents":[2147483647,0,0,1,1,3,3],"right_children":[2,4,-1,6,-1,-1,-1],"split_conditions":[3.5E1,1E0,4.5257073E-2,2.7E1,4.5454293E-2,2.702098E-3,-6.8385205E-3],"split_indices":[0,40,0,0,0,0,0],"split_type":[0,0,0,0,0,0,0],"sum_hessian":[3.78365E2,3.764488E2,1.9162023E0,3.7462317E2,1.8256042E0,2.8793008E2,8.669311E1],"tree_param":{"num_deleted":"0","num_feature":"59","num_nodes":"7","size_leaf_vector":"1"}},{"base_weights":[1.071809E-2,1.9954074E-2,-1.5131068E-1,1.1324475E-2,4.1475382E-1,4.0806413E-2,-1.8129373E-1,2.5367986E-3,-1.2006256E-2,8.82951E-4,6.0714837E-2,1.710388E-2,-1.4840211E-2,3.4876328E-3,-2.0449549E-2],"categories":[],"categories_nodes":[],"categories_segments":[],"categories_sizes":[],"default_left":[0,0,0,0,0,0,0,0,0,0,0,0,0,0,0],"id":55,"left_children":[1,3,5,7,9,11,13,-1,-1,-1,-1,-1,-1,-1,-1],"loss_changes":[5.704344E-1,1.2204428E0,1.2585205E-1,6.54258E-1,5.9317636E-1,1.13902405E-1,9.7269356E-2,0E0,0E0,0E0,0E0,0E0,0E0,0E0,0E0],"parents":[2147483647,0,0,1,1,2,2,3,3,4,4,5,5,6,6],"right_children":[2,4,6,8,10,12,14,-1,-1,-1,-1,-1,-1,-1,-1],"split_conditions":[1E0,1E0,7.5E-1,1E0,1E0,1E0,5E-1,2.5367986E-3,-1.2006256E-2,8.82951E-4,6.0714837E-2,1.710388E-2,-1.4840211E-2,3.4876328E-3,-2.0449549E-2],"split_indices":[55,42,44,51,31,3,35,0,0,0,0,0,0,0,0],"split_type":[0,0,0,0,0,0,0,0,0,0,0,0,0,0,0],"sum_hessian":[3.7816272E2,3.5859866E2,1.9564035E1,3.5193472E2,6.6639633E0,2.5923705E0,1.6971664E1,3.186791E2,3.3255596E1,2.47917E0,4.1847935E0,1.5923705E0,1E0,1.5962539E0,1.5375411E1],"tree_param":{"num_deleted":"0","num_feature":"59","num_nodes":"15","size_leaf_vector":"1"}},{"base_weights":[9.773385E-3,6.8476885E-3,5.0078887E-2,5.7283722E-2,-2.167679E-2,8.918691E-3,-3.479085E-2,2.1712346E-2,-4.3284646E-3],"categories":[],"categories_nodes":[],"categories_segments":[],"categories_sizes":[],"default_left":[0,0,0,0,0,0,0,0,0],"id":56,"left_children":[1,3,-1,5,7,-1,-1,-1,-1],"loss_changes":[5.407538E-1,5.4445076E-1,0E0,1.7978175E0,1.2576153E0,0E0,0E0,0E0,0E0],"parents":[2147483647,0,0,1,1,3,3,4,4],"right_children":[2,4,-1,6,8,-1,-1,-1,-1],"split_conditions":[1E0,7.5E-1,5.0078887E-2,3E1,1E0,8.918691E-3,-3.479085E-2,2.1712346E-2,-4.3284646E-3],"split_indices":[33,11,0,0,2,0,0,0,0],"split_type":[0,0,0,0,0,0,0,0,0],"sum_hessian":[3.778093E2,3.765794E2,1.2298872E0,1.3567506E2,2.4090436E2,1.2649523E2,9.1798315E0,1.923869E1,2.2166566E2],"tree_param":{"num_deleted":"0","num_feature":"59","num_nodes":"9","size_leaf_vector":"1"}},{"base_weights":[8.92707E-3,5.598267E-3,4.43288E-2,2.4232296E-3,4.4218834E-2,3.0196735E-3,-4.7649886E-3],"categories":[],"categories_nodes":[],"categories_segments":[],"categories_sizes":[],"default_left":[0,0,0,0,0,0,0],"id":57,"left_children":[1,3,-1,5,-1,-1,-1],"loss_changes":[5.4496986E-1,5.2118385E-1,0E0,5.230112E-1,0E0,0E0,0E0],"parents":[2147483647,0,0,1,1,3,3],"right_children":[2,4,-1,6,-1,-1,-1],"split_conditions":[3.5E1,1E0,4.43288E-2,2.6E1,4.4218834E-2,3.0196735E-3,-4.7649886E-3],"split_indices":[0,57,0,0,0,0,0],"split_type":[0,0,0,0,0,0,0],"sum_hessian":[3.7762286E2,3.7575607E2,1.8667853E0,3.7404147E2,1.7146116E0,2.4084923E2,1.3319225E2],"tree_param":{"num_deleted":"0","num_feature":"59","num_nodes":"7","size_leaf_vector":"1"}},{"base_weights":[8.278246E-3,2.817572E-3,2.5181586E-1,-3.589986E-3,2.3181291E-1,3.3307415E-1,-2.4407108E-3,-2.3019935E-3,8.92257E-3,5.3924765E-2,-5.2495883E-3,4.7979537E-2,6.917251E-3,5.0621317E-3,-5.4282383E-3],"categories":[],"categories_nodes":[],"categories_segments":[],"categories_sizes":[],"default_left":[0,0,0,0,0,0,0,0,0,0,0,0,0,0,0],"id":58,"left_children":[1,3,5,7,9,11,13,-1,-1,-1,-1,-1,-1,-1,-1],"loss_changes":[5.0256586E-1,5.454192E-1,1.7204732E-1,6.549424E-1,9.1266435E-1,2.1028322E-1,1.10003175E-2,0E0,0E0,0E0,0E0,0E0,0E0,0E0,0E0],"parents":[2147483647,0,0,1,1,2,2,3,3,4,4,5,5,6,6],"right_children":[2,4,6,8,10,12,14,-1,-1,-1,-1,-1,-1,-1,-1],"split_conditions":[1E0,1E0,1E0,1E0,1E0,1E0,1E0,-2.3019935E-3,8.92257E-3,5.3924765E-2,-5.2495883E-3,4.7979537E-2,6.917251E-3,5.0621317E-3,-5.4282383E-3],"split_indices":[5,50,22,35,44,16,6,0,0,0,0,0,0,0,0],"split_type":[0,0,0,0,0,0,0,0,0,0,0,0,0,0,0],"sum_hessian":[3.7743686E2,3.7014883E2,7.2880197E0,3.610311E2,9.11775E0,5.2880197E0,2E0,2.9915768E2,6.1873405E1,3.949883E0,5.167867E0,2.8727663E0,2.4152534E0,1E0,1E0],"tree_param":{"num_deleted":"0","num_feature":"59","num_nodes":"15","size_leaf_vector":"1"}},{"base_weights":[7.776449E-3,4.644994E-3,4.2798016E-2,1.530109E-3,4.323723E-2,-1.2747051E-4,4.8162654E-2],"categories":[],"categories_nodes":[],"categories_segments":[],"categories_sizes":[],"default_left":[0,0,0,0,0,0,0],"id":59,"left_children":[1,3,-1,5,-1,-1,-1],"loss_changes":[4.9546596E-1,5.00641E-1,0E0,5.049702E-1,0E0,0E0,0E0],"parents":[2147483647,0,0,1,1,3,3],"right_children":[2,4,-1,6,-1,-1,-1],"split_conditions":[3.5E1,1E0,4.2798016E-2,1E0,4.323723E-2,-1.2747051E-4,4.8162654E-2],"split_indices":[0,40,0,33,0,0,0],"split_type":[0,0,0,0,0,0,0],"sum_hessian":[3.7704797E2,3.7526248E2,1.7854881E0,3.7354575E2,1.7167356E0,3.7236765E2,1.1780974E0],"tree_param":{"num_deleted":"0","num_feature":"59","num_nodes":"7","size_leaf_vector":"1"}},{"base_weights":[7.368245E-3,1.5791198E-2,-1.3979882E-1,7.791278E-3,3.9249927E-1,3.4802612E-2,-1.6683154E-1,6.5120882E-3,-2.2118317E-3,6.4635737E-4,5.844458E-2,1.6109517E-2,-1.4573641E-2,2.9988035E-3,-1.8774744E-2],"categories":[],"categories_nodes":[],"categories_segments":[],"categories_sizes":[],"default_left":[0,0,0,0,0,0,0,0,0,0,0,0,0,0,0],"id":60,"left_children":[1,3,5,7,9,11,13,-1,-1,-1,-1,-1,-1,-1,-1],"loss_changes":[4.7060102E-1,1.0767477E0,1.0283604E-1,6.0480434E-1,5.4682124E-1,1.0518361E-1,7.962251E-2,0E0,0E0,0E0,0E0,0E0,0E0,0E0,0E0],"parents":[2147483647,0,0,1,1,2,2,3,3,4,4,5,5,6,6],"right_children":[2,4,6,8,10,12,14,-1,-1,-1,-1,-1,-1,-1,-1],"split_conditions":[1E0,1E0,7.5E-1,7.5E-1,1E0,1E0,5E-1,6.5120882E-3,-2.2118317E-3,6.4635737E-4,5.844458E-2,1.6109517E-2,-1.4573641E-2,2.9988035E-3,-1.8774744E-2],"split_indices":[55,42,44,21,31,3,35,0,0,0,0,0,0,0,0],"split_type":[0,0,0,0,0,0,0,0,0,0,0,0,0,0,0],"sum_hessian":[3.7686423E2,3.5730685E2,1.9557384E1,3.508762E2,6.430661E0,2.583489E0,1.6973896E1,1.1989282E2,2.3098337E2,2.478888E0,3.9517732E0,1.5834888E0,1E0,1.5888636E0,1.5385033E1],"tree_param":{"num_deleted":"0","num_feature":"59","num_nodes":"15","size_leaf_vector":"1"}},{"base_weights":[6.785737E-3,3.980999E-3,4.50396E-2,2.4707148E-2,-6.105084E-2,1.8195614E-4,2.9451838E-2,-4.1073132E-2,4.9742796E-3],"categories":[],"categories_nodes":[],"categories_segments":[],"categories_sizes":[],"default_left":[0,0,0,0,0,0,0,0,0],"id":61,"left_children":[1,3,-1,5,7,-1,-1,-1,-1],"loss_changes":[4.679517E-1,5.0854784E-1,0E0,1.7654653E0,3.553901E0,0E0,0E0,0E0,0E0],"parents":[2147483647,0,0,1,1,3,3,4,4],"right_children":[2,4,-1,6,8,-1,-1,-1,-1],"split_conditions":[1E0,1E0,4.50396E-2,1E0,1E0,1.8195614E-4,2.9451838E-2,-4.1073132E-2,4.9742796E-3],"split_indices":[18,21,0,35,13,0,0,0,0],"split_type":[0,0,0,0,0,0,0,0,0],"sum_hessian":[3.7654434E2,3.751812E2,1.3631197E0,2.8497693E2,9.020428E1,2.636212E2,2.1355755E1,2.105248E1,6.91518E1],"tree_param":{"num_deleted":"0","num_feature":"59","num_nodes":"9","size_leaf_vector":"1"}},{"base_weights":[6.2297387E-3,9.778102E-4,2.457755E-1,-4.93859E-3,2.1679904E-1,3.215695E-1,9.963254E-3,-1.0138913E-2,1.1038063E-3,5.233551E-2,-5.360637E-3,4.614755E-2,7.4955784E-3,6.979643E-3,-5.4851547E-3],"categories":[],"categories_nodes":[],"categories_segments":[],"categories_sizes":[],"default_left":[0,0,0,0,0,0,0,0,0,0,0,0,0,0,0],"id":62,"left_children":[1,3,5,7,9,11,13,-1,-1,-1,-1,-1,-1,-1,-1],"loss_changes":[4.7445226E-1,4.738052E-1,1.4140776E-1,5.579042E-1,8.487601E-1,1.7556596E-1,1.5462667E-2,0E0,0E0,0E0,0E0,0E0,0E0,0E0,0E0],"parents":[2147483647,0,0,1,1,2,2,3,3,4,4,5,5,6,6],"right_children":[2,4,6,8,10,12,14,-1,-1,-1,-1,-1,-1,-1,-1],"split_conditions":[1E0,1E0,1E0,7.5E-1,1E0,1E0,1E0,-1.0138913E-2,1.1038063E-3,5.233551E-2,-5.360637E-3,4.614755E-2,7.4955784E-3,6.979643E-3,-5.4851547E-3],"split_indices":[5,50,22,13,44,16,6,0,0,0,0,0,0,0,0],"split_type":[0,0,0,0,0,0,0,0,0,0,0,0,0,0,0],"sum_hessian":[3.763159E2,3.692249E2,7.091001E0,3.6032428E2,8.900608E0,5.091001E0,2E0,5.044477E1,3.0987952E2,3.7330446E0,5.167563E0,2.692356E0,2.3986447E0,1E0,1E0],"tree_param":{"num_deleted":"0","num_feature":"59","num_nodes":"15","size_leaf_vector":"1"}},{"base_weights":[5.8833873E-3,2.9483717E-3,4.253795E-2,-5.8051758E-3,1.4600314E-1,6.2850155E-3,-2.8385571E-3,4.2425287E-3,3.2916065E-2],"categories":[],"categories_nodes":[],"categories_segments":[],"categories_sizes":[],"default_left":[0,0,0,0,0,0,0,0,0],"id":63,"left_children":[1,3,-1,5,7,-1,-1,-1,-1],"loss_changes":[4.6295363E-1,4.7095707E-1,0E0,5.5171007E-1,3.9743048E-1,0E0,0E0,0E0,0E0],"parents":[2147483647,0,0,1,1,3,3,4,4],"right_children":[2,4,-1,6,8,-1,-1,-1,-1],"split_conditions":[1E0,1E0,4.253795E-2,2.4E1,2.5E1,6.2850155E-3,-2.8385571E-3,4.2425287E-3,3.2916065E-2],"split_indices":[57,32,0,0,0,0,0,0,0],"split_type":[0,0,0,0,0,0,0,0,0],"sum_hessian":[3.7602844E2,3.7441586E2,1.6125823E0,3.5373044E2,2.0685411E1,8.710516E1,2.6662527E2,1.3999915E1,6.6854954E0],"tree_param":{"num_deleted":"0","num_feature":"59","num_nodes":"9","size_leaf_vector":"1"}},{"base_weights":[5.528318E-3,2.479813E-1,5.336102E-4,-1.349801E-1,4.625966E-1,-2.1607232E-1,8.548135E-3,-2.5758212E-2,1.6780939E-3,-2.2614913E-2,6.857879E-2,1.2171893E-2,-9.422286E-2,-6.8690637E-3,3.564112E-3],"categories":[],"categories_nodes":[],"categories_segments":[],"categories_sizes":[],"default_left":[0,0,0,0,0,0,0,0,0,0,0,0,0,0,0],"id":64,"left_children":[1,3,5,7,9,11,13,-1,-1,-1,-1,-1,-1,-1,-1],"loss_changes":[4.5621273E-1,6.874341E-1,6.445719E-1,6.954003E-2,9.389423E-1,3.364312E0,7.51581E-1,0E0,0E0,0E0,0E0,0E0,0E0,0E0,0E0],"parents":[2147483647,0,0,1,1,2,2,3,3,4,4,5,5,6,6],"right_children":[2,4,6,8,10,12,14,-1,-1,-1,-1,-1,-1,-1,-1],"split_conditions":[2.5E-1,2.5E-1,2.5E-1,2.5E1,7.5E-1,3E1,1E0,-2.5758212E-2,1.6780939E-3,-2.2614913E-2,6.857879E-2,1.2171893E-2,-9.422286E-2,-6.8690637E-3,3.564112E-3],"split_indices":[11,34,35,0,13,0,31,0,0,0,0,0,0,0,0],"split_type":[0,0,0,0,0,0,0,0,0,0,0,0,0,0,0],"sum_hessian":[3.758389E2,6.6043015E0,3.6923462E2,2.5051498E0,4.099151E0,1.2248137E1,3.5698648E2,1E0,1.5051498E0,1E0,3.0991514E0,8.927601E0,3.3205364E0,9.230393E1,2.6468253E2],"tree_param":{"num_deleted":"0","num_feature":"59","num_nodes":"15","size_leaf_vector":"1"}},{"base_weights":[4.8283376E-3,1.7977976E-3,4.1937493E-2,-8.47302E-4,4.64667E-2,-5.4618967E-4,2.685134E-2],"categories":[],"categories_nodes":[],"categories_segments":[],"categories_sizes":[],"default_left":[0,0,0,0,0,0,0],"id":65,"left_children":[1,3,-1,5,-1,-1,-1],"loss_changes":[4.7238895E-1,4.5938134E-1,0E0,4.6604076E-1,0E0,0E0,0E0],"parents":[2147483647,0,0,1,1,3,3],"right_children":[2,4,-1,6,-1,-1,-1],"split_conditions":[3.5E1,1E0,4.1937493E-2,1E0,4.64667E-2,-5.4618967E-4,2.685134E-2],"split_indices":[0,33,0,52,0,0,0],"split_type":[0,0,0,0,0,0,0],"sum_hessian":[3.7561618E2,3.738872E2,1.7289633E0,3.7275525E2,1.1319677E0,3.6744012E2,5.3151345E0],"tree_param":{"num_deleted":"0","num_feature":"59","num_nodes":"7","size_leaf_vector":"1"}},{"base_weights":[4.6601268E-3,2.224463E-1,-7.024774E-4,5.2643735E-3,6.555458E-2,1.8444158E-2,-7.2385E-2,-1.832204E-2,3.1394053E-2,1.0162942E-3,4.506445E-2,-4.3447292E-3,-4.5809034E-2],"categories":[],"categories_nodes":[],"categories_segments":[],"categories_sizes":[],"default_left":[0,0,0,0,0,0,0,0,0,0,0,0,0],"id":66,"left_children":[1,3,5,7,-1,9,11,-1,-1,-1,-1,-1,-1],"loss_changes":[4.3985793E-1,8.478745E-1,5.070086E-1,4.668836E-1,0E0,1.038987E0,8.4922874E-1,0E0,0E0,0E0,0E0,0E0,0E0],"parents":[2147483647,0,0,1,1,2,2,3,3,5,5,6,6],"right_children":[2,4,6,8,-1,10,12,-1,-1,-1,-1,-1,-1],"split_conditions":[2.5E-1,7.5E-1,1E0,2.6E1,6.555458E-2,1E0,3E1,-1.832204E-2,3.1394053E-2,1.0162942E-3,4.506445E-2,-4.3447292E-3,-4.5809034E-2],"split_indices":[21,44,8,0,0,49,0,0,0,0,0,0,0],"split_type":[0,0,0,0,0,0,0,0,0,0,0,0,0],"sum_hessian":[3.7548877E2,8.050746E0,3.6743802E2,6.0360603E0,2.0146856E0,2.9056885E2,7.6869194E1,4E0,2.0360603E0,2.8611032E2,4.45853E0,7.253953E1,4.329665E0],"tree_param":{"num_deleted":"0","num_feature":"59","num_nodes":"13","size_leaf_vector":"1"}},{"base_weights":[4.411412E-3,1.5274968E-3,4.0817715E-2,-1.2893879E-3,4.0676348E-2,-3.9575514E-4,4.3116115E-2],"categories":[],"categories_nodes":[],"categories_segments":[],"categories_sizes":[],"default_left":[0,0,0,0,0,0,0],"id":67,"left_children":[1,3,-1,5,-1,-1,-1],"loss_changes":[4.374941E-1,4.2811707E-1,0E0,4.3209E-1,0E0,0E0,0E0],"parents":[2147483647,0,0,1,1,3,3],"right_children":[2,4,-1,6,-1,-1,-1],"split_conditions":[3.5E1,1E0,4.0817715E-2,1E0,4.0676348E-2,-3.9575514E-4,4.3116115E-2],"split_indices":[0,40,0,18,0,0,0],"split_type":[0,0,0,0,0,0,0],"sum_hessian":[3.7525195E2,3.7358737E2,1.6645818E0,3.7199835E2,1.5890245E0,3.70702E2,1.2963347E0],"tree_param":{"num_deleted":"0","num_feature":"59","num_nodes":"7","size_leaf_vector":"1"}},{"base_weights":[4.3126983E-3,1.7920816E-1,-2.2170492E-3,-2.261221E-1,3.6194068E-1,-7.02454E-2,2.164203E-3,-3.559113E-2,2.9073418E-3,6.9335766E-2,7.83314E-4,-1.0152589E-2,1.8377051E-3],"categories":[],"categories_nodes":[],"categories_segments":[],"categories_sizes":[],"default_left":[0,0,0,0,0,0,0,0,0,0,0,0,0],"id":68,"left_children":[1,3,5,7,9,-1,11,-1,-1,-1,-1,-1,-1],"loss_changes":[4.2990157E-1,1.0853213E0,1.1168374E0,1.7017308E-1,1.135614E0,0E0,6.1089694E-1,0E0,0E0,0E0,0E0,0E0,0E0],"parents":[2147483647,0,0,1,1,2,2,3,3,4,4,6,6],"right_children":[2,4,6,8,10,-1,12,-1,-1,-1,-1,-1,-1],"split_conditions":[5E-1,1E0,2.5E-1,2.5E-1,1E0,-7.02454E-2,7.5E-1,-3.559113E-2,2.9073418E-3,6.9335766E-2,7.83314E-4,-1.0152589E-2,1.8377051E-3],"split_indices":[6,2,44,34,8,0,13,0,0,0,0,0,0],"split_type":[0,0,0,0,0,0,0,0,0,0,0,0,0],"sum_hessian":[3.7509067E2,1.2548251E1,3.6254242E2,3.8254147E0,8.7228365E0,1.2635455E0,3.6127887E2,2.27415E0,1.5512648E0,4.0109024E0,4.7119336E0,4.8139324E1,3.1313956E2],"tree_param":{"num_deleted":"0","num_feature":"59","num_nodes":"13","size_leaf_vector":"1"}},{"base_weights":[3.796665E-3,-1.0992655E-3,2.3238821E-1,-6.6844085E-3,2.0719916E-1,3.056298E-1,1.1184514E-2,-2.348612E-3,7.3900283E-3,5.050355E-2,-4.368448E-3,4.4502106E-2,6.860523E-3,6.4987885E-3,-4.8211114E-3],"categories":[],"categories_nodes":[],"categories_segments":[],"categories_sizes":[],"default_left":[0,0,0,0,0,0,0,0,0,0,0,0,0,0,0],"id":69,"left_children":[1,3,5,7,9,11,13,-1,-1,-1,-1,-1,-1,-1,-1],"loss_changes":[4.2099538E-1,4.307316E-1,1.2437236E-1,4.8968112E-1,7.4450034E-1,1.6399318E-1,1.2720192E-2,0E0,0E0,0E0,0E0,0E0,0E0,0E0,0E0],"parents":[2147483647,0,0,1,1,2,2,3,3,4,4,5,5,6,6],"right_children":[2,4,6,8,10,12,14,-1,-1,-1,-1,-1,-1,-1,-1],"split_conditions":[1E0,1E0,1E0,1E0,1E0,1E0,1E0,-2.348612E-3,7.3900283E-3,5.050355E-2,-4.368448E-3,4.4502106E-2,6.860523E-3,6.4987885E-3,-4.8211114E-3],"split_indices":[5,50,22,35,44,16,6,0,0,0,0,0,0,0,0],"split_type":[0,0,0,0,0,0,0,0,0,0,0,0,0,0,0],"sum_hessian":[3.7493982E2,3.6805212E2,6.8876796E0,3.5938382E2,8.668313E0,4.8876796E0,2E0,2.9796698E2,6.141684E1,3.5001209E0,5.1681924E0,2.5251424E0,2.362537E0,1E0,1E0],"tree_param":{"num_deleted":"0","num_feature":"59","num_nodes":"15","size_leaf_vector":"1"}},{"base_weights":[3.7201308E-3,4.854382E-2,-2.143774E-2,1.3460409E-2,3.6689216E-1,1.910771E-1,-4.0431745E-2,4.595822E-3,-3.926706E-2,5.1160168E-2,-8.248043E-3,-1.1408183E-2,5.1276296E-2,-7.5869183E-3,6.8246047E-3],"categories":[],"categories_nodes":[],"categories_segments":[],"categories_sizes":[],"default_left":[0,0,0,0,0,0,0,0,0,0,0,0,0,0,0],"id":70,"left_children":[1,3,5,7,9,11,13,-1,-1,-1,-1,-1,-1,-1,-1],"loss_changes":[4.246185E-1,1.5066392E0,9.81665E-1,1.6407003E0,9.133476E-1,2.018911E0,8.6135995E-1,0E0,0E0,0E0,0E0,0E0,0E0,0E0,0E0],"parents":[2147483647,0,0,1,1,2,2,3,3,4,4,5,5,6,6],"right_children":[2,4,6,8,10,12,14,-1,-1,-1,-1,-1,-1,-1,-1],"split_conditions":[7.5E-1,1E0,1E0,3E1,1E0,1E0,1E0,4.595822E-3,-3.926706E-2,5.1160168E-2,-8.248043E-3,-1.1408183E-2,5.1276296E-2,-7.5869183E-3,6.8246047E-3],"split_indices":[11,10,2,0,39,31,35,0,0,0,0,0,0,0,0],"split_type":[0,0,0,0,0,0,0,0,0,0,0,0,0,0,0],"sum_hessian":[3.7462262E2,1.3433998E2,2.4028264E2,1.2194354E2,1.2396441E1,1.8970537E1,2.213121E2,1.13729935E2,8.21361E0,9.272105E0,3.1243362E0,1.0066539E1,8.903997E0,1.6711989E2,5.4192223E1],"tree_param":{"num_deleted":"0","num_feature":"59","num_nodes":"15","size_leaf_vector":"1"}},{"base_weights":[3.5284467E-3,2.188479E-1,-1.72006E-3,1.7441599E-2,6.2451024E-2,-4.302E-3,4.5110088E-2,-1.543206E-2,2.9804066E-2,-7.197754E-4,3.994901E-2],"categories":[],"categories_nodes":[],"categories_segments":[],"categories_sizes":[],"default_left":[0,0,0,0,0,0,0,0,0,0,0],"id":71,"left_children":[1,3,5,7,-1,9,-1,-1,-1,-1,-1],"loss_changes":[4.2428803E-1,7.1901286E-1,4.3122482E-1,3.8329455E-1,0E0,4.3093005E-1,0E0,0E0,0E0,0E0,0E0],"parents":[2147483647,0,0,1,1,2,2,3,3,5,5],"right_children":[2,4,6,8,-1,10,-1,-1,-1,-1,-1],"split_conditions":[2.5E-1,7.5E-1,1E0,2.6E1,6.2451024E-2,3.5E1,4.5110088E-2,-1.543206E-2,2.9804066E-2,-7.197754E-4,3.994901E-2],"split_indices":[21,44,33,0,0,0,0,0,0,0,0],"split_type":[0,0,0,0,0,0,0,0,0,0,0],"sum_hessian":[3.7410794E2,7.9336486E0,3.6617432E2,5.9984756E0,1.9351733E0,3.6508313E2,1.0911683E0,4E0,1.9984756E0,3.634588E2,1.6243331E0],"tree_param":{"num_deleted":"0","num_feature":"59","num_nodes":"11","size_leaf_vector":"1"}},{"base_weights":[3.619067E-3,9.3240634E-4,4.0225316E-2,2.0170122E-2,-5.8999673E-2,-4.7685488E-5,2.6301667E-2,-6.779709E-2,-5.107035E-4],"categories":[],"categories_nodes":[],"categories_segments":[],"categories_sizes":[],"default_left":[0,0,0,0,0,0,0,0,0],"id":72,"left_children":[1,3,-1,5,7,-1,-1,-1,-1],"loss_changes":[4.0121093E-1,4.3177035E-1,0E0,1.421383E0,3.0321946E0,0E0,0E0,0E0,0E0],"parents":[2147483647,0,0,1,1,3,3,4,4],"right_children":[2,4,-1,6,8,-1,-1,-1,-1],"split_conditions":[1E0,1E0,4.0225316E-2,1E0,7.5E-1,-4.7685488E-5,2.6301667E-2,-6.779709E-2,-5.107035E-4],"split_indices":[57,21,0,35,13,0,0,0,0],"split_type":[0,0,0,0,0,0,0,0,0],"sum_hessian":[3.739655E2,3.724576E2,1.507901E0,2.824552E2,9.0002396E1,2.6124225E2,2.1212955E1,6.2811947E0,8.372121E1],"tree_param":{"num_deleted":"0","num_feature":"59","num_nodes":"9","size_leaf_vector":"1"}},{"base_weights":[3.2694177E-3,-1.4220101E-3,2.2674057E-1,-7.330858E-3,1.8348366E-1,2.9967391E-1,1.2288272E-2,1.2758842E-3,-7.718926E-3,3.724877E-2,-1.0473383E-2,3.726367E-2,-2.2073735E-3,6.6147195E-3,-4.7714785E-3],"categories":[],"categories_nodes":[],"categories_segments":[],"categories_sizes":[],"default_left":[0,0,0,0,0,0,0,0,0,0,0,0,0,0,0],"id":73,"left_children":[1,3,5,7,9,11,13,-1,-1,-1,-1,-1,-1,-1,-1],"loss_changes":[3.9323685E-1,4.034837E-1,1.1694333E-1,5.028914E-1,6.6198176E-1,1.4232475E-1,1.28513E-2,0E0,0E0,0E0,0E0,0E0,0E0,0E0,0E0],"parents":[2147483647,0,0,1,1,2,2,3,3,4,4,5,5,6,6],"right_children":[2,4,6,8,10,12,14,-1,-1,-1,-1,-1,-1,-1,-1],"split_conditions":[1E0,1E0,1E0,1E0,1E0,1E0,1E0,1.2758842E-3,-7.718926E-3,3.724877E-2,-1.0473383E-2,3.726367E-2,-2.2073735E-3,6.6147195E-3,-4.7714785E-3],"split_indices":[5,42,22,22,55,9,6,0,0,0,0,0,0,0,0],"split_type":[0,0,0,0,0,0,0,0,0,0,0,0,0,0,0],"sum_hessian":[3.7377573E2,3.6706345E2,6.7122874E0,3.566274E2,1.0436036E1,4.7122874E0,2E0,2.7761032E2,7.90171E1,6.126249E0,4.3097873E0,3.7122874E0,1E0,1E0,1E0],"tree_param":{"num_deleted":"0","num_feature":"59","num_nodes":"15","size_leaf_vector":"1"}},{"base_weights":[3.1119494E-3,7.4118853E-4,4.3404333E-2,4.639011E-2,-2.2533517E-2,-7.058786E-4,4.5197245E-2,-3.4608927E-2,4.0434004E-4],"categories":[],"categories_nodes":[],"categories_segments":[],"categories_sizes":[],"default_left":[0,0,0,0,0,0,0,0,0],"id":74,"left_children":[1,3,-1,5,7,-1,-1,-1,-1],"loss_changes":[3.8229725E-1,3.9784294E-1,0E0,2.7442124E0,2.1342015E0,0E0,0E0,0E0,0E0],"parents":[2147483647,0,0,1,1,3,3,4,4],"right_children":[2,4,-1,6,8,-1,-1,-1,-1],"split_conditions":[1E0,7.5E-1,4.3404333E-2,1E0,7.5E-1,-7.058786E-4,4.5197245E-2,-3.4608927E-2,4.0434004E-4],"split_indices":[33,21,0,16,13,0,0,0,0],"split_type":[0,0,0,0,0,0,0,0,0],"sum_hessian":[3.735162E2,3.7246878E2,1.04741E0,1.2544299E2,2.470258E2,1.1170479E2,1.3738206E1,1.7838017E1,2.2918777E2],"tree_param":{"num_deleted":"0","num_feature":"59","num_nodes":"9","size_leaf_vector":"1"}},{"base_weights":[2.969101E-3,4.9621967E-4,4.136603E-2,-4.0492374E-3,2.2059199E-1,1.5172058E-3,-6.5051033E-3,2.9348945E-2,1.1774361E-3],"categories":[],"categories_nodes":[],"categories_segments":[],"categories_sizes":[],"default_left":[0,0,0,0,0,0,0,0,0],"id":75,"left_children":[1,3,-1,5,7,-1,-1,-1,-1],"loss_changes":[3.799762E-1,3.741617E-1,0E0,4.307654E-1,1.11739844E-1,0E0,0E0,0E0,0E0],"parents":[2147483647,0,0,1,1,3,3,4,4],"right_children":[2,4,-1,6,8,-1,-1,-1,-1],"split_conditions":[1E0,1E0,4.136603E-2,1E0,1E0,1.5172058E-3,-6.5051033E-3,2.9348945E-2,1.1774361E-3],"split_indices":[18,5,0,21,22,0,0,0,0],"split_type":[0,0,0,0,0,0,0,0,0],"sum_hessian":[3.733452E2,3.7210587E2,1.2393405E0,3.6553833E2,6.5675597E0,2.7852734E2,8.701099E1,4.5675597E0,2E0],"tree_param":{"num_deleted":"0","num_feature":"59","num_nodes":"9","size_leaf_vector":"1"}},{"base_weights":[2.8592455E-3,-1.2130572E-3,2.4457595E-1,-3.8206084E-3,3.8538978E-2,4.8012655E-2,5.12262E-2,-6.4175756E-4,3.88378E-2,-5.55419E-3,1.6759515E-2],"categories":[],"categories_nodes":[],"categories_segments":[],"categories_sizes":[],"default_left":[0,0,0,0,0,0,0,0,0,0,0],"id":76,"left_children":[1,3,5,7,-1,-1,9,-1,-1,-1,-1],"loss_changes":[3.6862564E-1,3.7343904E-1,2.5798413E-1,3.7680212E-1,0E0,0E0,6.555386E-2,0E0,0E0,0E0,0E0],"parents":[2147483647,0,0,1,1,2,2,3,3,6,6],"right_children":[2,4,6,8,-1,-1,10,-1,-1,-1,-1],"split_conditions":[1E0,1E0,1E0,1E0,3.8538978E-2,4.8012655E-2,1E0,-6.4175756E-4,3.88378E-2,-5.55419E-3,1.6759515E-2],"split_indices":[52,40,6,57,0,0,47,0,0,0,0],"split_type":[0,0,0,0,0,0,0,0,0,0,0],"sum_hessian":[3.7318738E2,3.6798282E2,5.2045794E0,3.6650095E2,1.4818509E0,1.6776094E0,3.5269701E0,3.6506726E2,1.4336784E0,2.1119616E0,1.4150085E0],"tree_param":{"num_deleted":"0","num_feature":"59","num_nodes":"11","size_leaf_vector":"1"}},{"base_weights":[2.94878E-3,1.06237745E-2,-1.21937975E-1,-2.1491784E-3,1.6111137E-1,-4.5899592E-2,-8.4933005E-2,-1.8496376E-3,1.3427737E-2,6.962819E-2,6.289019E-3,3.407761E-2,-1.0062524E-2],"categories":[],"categories_nodes":[],"categories_segments":[],"categories_sizes":[],"default_left":[0,0,0,0,0,0,0,0,0,0,0,0,0],"id":77,"left_children":[1,3,5,7,9,11,-1,-1,-1,-1,-1,-1,-1],"loss_changes":[3.5981053E-1,6.794488E-1,1.1632211E0,7.30966E-1,1.4098529E0,4.7308406E-1,0E0,0E0,0E0,0E0,0E0,0E0,0E0],"parents":[2147483647,0,0,1,1,2,2,3,3,4,4,5,5],"right_children":[2,4,6,8,10,12,-1,-1,-1,-1,-1,-1,-1],"split_conditions":[1E0,1E0,1E0,1E0,5E-1,7.5E-1,-8.4933005E-2,-1.8496376E-3,1.3427737E-2,6.962819E-2,6.289019E-3,3.407761E-2,-1.0062524E-2],"split_indices":[17,1,26,26,35,13,0,0,0,0,0,0,0],"split_type":[0,0,0,0,0,0,0,0,0,0,0,0,0],"sum_hessian":[3.7303564E2,3.5229977E2,2.0735872E1,3.2564563E2,2.6654144E1,1.9735872E1,1E0,2.915726E2,3.407302E1,3.1890862E0,2.3465057E1,1.7988344E0,1.7937038E1],"tree_param":{"num_deleted":"0","num_feature":"59","num_nodes":"13","size_leaf_vector":"1"}},{"base_weights":[2.7434821E-3,4.9394695E-4,4.1883573E-2,-7.0722937E-3,1.2594408E-1,5.3738705E-3,-2.7054176E-3,5.000056E-2,7.481976E-3],"categories":[],"categories_nodes":[],"categories_segments":[],"categories_sizes":[],"default_left":[0,0,0,0,0,0,0,0,0],"id":78,"left_children":[1,3,-1,5,7,-1,-1,-1,-1],"loss_changes":[3.4973258E-1,3.5479674E-1,0E0,4.2989284E-1,3.6919186E-1,0E0,0E0,0E0,0E0],"parents":[2147483647,0,0,1,1,3,3,4,4],"right_children":[2,4,-1,6,8,-1,-1,-1,-1],"split_conditions":[1E0,1E0,4.1883573E-2,2.4E1,7.5E-1,5.3738705E-3,-2.7054176E-3,5.000056E-2,7.481976E-3],"split_indices":[33,32,0,0,13,0,0,0,0],"split_type":[0,0,0,0,0,0,0,0,0],"sum_hessian":[3.728613E2,3.718521E2,1.0091711E0,3.5159036E2,2.0261751E1,8.6538315E1,2.6505203E2,1.3805423E0,1.888121E1],"tree_param":{"num_deleted":"0","num_feature":"59","num_nodes":"9","size_leaf_vector":"1"}},{"base_weights":[2.7500931E-3,2.489951E-4,3.744818E-2,-2.0926307E-1,5.065548E-3,1.8533267E-2,-3.767682E-2,3.1272087E-2,-2.3165166E-4],"categories":[],"categories_nodes":[],"categories_segments":[],"categories_sizes":[],"default_left":[0,0,0,0,0,0,0,0,0],"id":79,"left_children":[1,3,-1,5,7,-1,-1,-1,-1],"loss_changes":[3.4738868E-1,3.76702E-1,0E0,6.243135E-1,8.2936E-1,0E0,0E0,0E0,0E0],"parents":[2147483647,0,0,1,1,3,3,4,4],"right_children":[2,4,-1,6,8,-1,-1,-1,-1],"split_conditions":[3.5E1,2.5E-1,3.744818E-2,5E-1,5E-1,1.8533267E-2,-3.767682E-2,3.1272087E-2,-2.3165166E-4],"split_indices":[0,34,0,13,6,0,0,0,0],"split_type":[0,0,0,0,0,0,0,0,0],"sum_hessian":[3.7274203E2,3.7124487E2,1.4971524E0,7.388999E0,3.6385587E2,2.1701934E0,5.218806E0,7.556782E0,3.5629907E2],"tree_param":{"num_deleted":"0","num_feature":"59","num_nodes":"9","size_leaf_vector":"1"}},{"base_weights":[2.6165147E-3,9.884773E-3,-1.2304046E-1,3.0932422E-3,3.4796932E-1,4.653085E-2,-1.4997724E-1,-8.717549E-4,1.1093665E-2,-2.0232207E-4,5.4045975E-2,1.5840104E-2,-1.2068607E-2,-1.7768223E-2,1.3844644E-3],"categories":[],"categories_nodes":[],"categories_segments":[],"categories_sizes":[],"default_left":[0,0,0,0,0,0,0,0,0,0,0,0,0,0,0],"id":80,"left_children":[1,3,5,7,9,11,13,-1,-1,-1,-1,-1,-1,-1,-1],"loss_changes":[3.4241587E-1,8.119424E-1,1.0062489E-1,4.4437453E-1,4.7025365E-1,8.5965626E-2,8.3830714E-2,0E0,0E0,0E0,0E0,0E0,0E0,0E0,0E0],"parents":[2147483647,0,0,1,1,2,2,3,3,4,4,5,5,6,6],"right_children":[2,4,6,8,10,12,14,-1,-1,-1,-1,-1,-1,-1,-1],"split_conditions":[1E0,1E0,7.5E-1,1E0,1E0,1E0,1E0,-8.717549E-4,1.1093665E-2,-2.0232207E-4,5.4045975E-2,1.5840104E-2,-1.2068607E-2,-1.7768223E-2,1.3844644E-3],"split_indices":[55,42,44,26,31,3,16,0,0,0,0,0,0,0,0],"split_type":[0,0,0,0,0,0,0,0,0,0,0,0,0,0,0],"sum_hessian":[3.7258688E2,3.5308505E2,1.9501831E1,3.4712115E2,5.963911E0,2.5735457E0,1.6928286E1,3.1368604E2,3.3435093E1,2.4672906E0,3.4966204E0,1.5735456E0,1E0,1.4407187E1,2.521099E0],"tree_param":{"num_deleted":"0","num_feature":"59","num_nodes":"15","size_leaf_vector":"1"}},{"base_weights":[2.5089637E-3,-2.6676818E-3,1.7907605E-1,-7.0170783E-3,2.4567775E-1,4.9243346E-2,-4.1367453E-2,-2.1708221E-3,6.3603804E-3,3.9608333E-2,8.422698E-3,-9.520565E-3,-2.1574662E-4],"categories":[],"categories_nodes":[],"categories_segments":[],"categories_sizes":[],"default_left":[0,0,0,0,0,0,0,0,0,0,0,0,0],"id":81,"left_children":[1,3,5,7,9,-1,11,-1,-1,-1,-1,-1,-1],"loss_changes":[3.417574E-1,3.946093E-1,7.560313E-1,3.7326583E-1,1.1933923E-1,0E0,1.4939389E-2,0E0,0E0,0E0,0E0,0E0,0E0],"parents":[2147483647,0,0,1,1,2,2,3,3,4,4,6,6],"right_children":[2,4,6,8,10,-1,12,-1,-1,-1,-1,-1,-1],"split_conditions":[1E0,1E0,1E0,1E0,1E0,4.9243346E-2,1E0,-2.1708221E-3,6.3603804E-3,3.9608333E-2,8.422698E-3,-9.520565E-3,-2.1574662E-4],"split_indices":[50,5,44,35,16,0,34,0,0,0,0,0,0],"split_type":[0,0,0,0,0,0,0,0,0,0,0,0,0],"sum_hessian":[3.7238104E2,3.627313E2,9.649771E0,3.5744296E2,5.2883306E0,3.4755266E0,6.174244E0,2.964629E2,6.0980064E1,1.9854416E0,3.302889E0,2E0,4.174244E0],"tree_param":{"num_deleted":"0","num_feature":"59","num_nodes":"13","size_leaf_vector":"1"}},{"base_weights":[2.5251373E-3,2.4085493E-4,3.9381012E-2,-3.6465677E-3,2.3323217E-1,1.9198712E-2,-8.41923E-4,3.708634E-2,-3.3491738E-3],"categories":[],"categories_nodes":[],"categories_segments":[],"categories_sizes":[],"default_left":[0,0,0,0,0,0,0,0,0],"id":82,"left_children":[1,3,-1,5,7,-1,-1,-1,-1],"loss_changes":[3.3338583E-1,3.377273E-1,0E0,3.4411183E-1,2.3705626E-1,0E0,0E0,0E0,0E0],"parents":[2147483647,0,0,1,1,3,3,4,4],"right_children":[2,4,-1,6,8,-1,-1,-1,-1],"split_conditions":[1E0,1E0,3.9381012E-2,2.5E-1,1E0,1.9198712E-2,-8.41923E-4,3.708634E-2,-3.3491738E-3],"split_indices":[18,52,0,21,21,0,0,0,0],"split_type":[0,0,0,0,0,0,0,0,0],"sum_hessian":[3.721021E2,3.7093723E2,1.1648786E0,3.6581796E2,5.119265E0,7.7777514E0,3.580402E2,3.119265E0,2E0],"tree_param":{"num_deleted":"0","num_feature":"59","num_nodes":"9","size_leaf_vector":"1"}},{"base_weights":[2.5250944E-3,1.411646E-4,3.7522275E-2,-4.3804958E-3,2.0001253E-1,3.1678812E-4,-1.2567053E-2,4.3199006E-2,-1.5406007E-2],"categories":[],"categories_nodes":[],"categories_segments":[],"categories_sizes":[],"default_left":[0,0,0,0,0,0,0,0,0],"id":83,"left_children":[1,3,-1,5,7,-1,-1,-1,-1],"loss_changes":[3.313649E-1,3.367497E-1,0E0,3.3402288E-1,7.436137E-1,0E0,0E0,0E0,0E0],"parents":[2147483647,0,0,1,1,3,3,4,4],"right_children":[2,4,-1,6,8,-1,-1,-1,-1],"split_conditions":[1E0,1E0,3.7522275E-2,1E0,1E0,3.1678812E-4,-1.2567053E-2,4.3199006E-2,-1.5406007E-2],"split_indices":[57,49,0,17,8,0,0,0,0],"split_type":[0,0,0,0,0,0,0,0,0],"sum_hessian":[3.7201456E2,3.7064413E2,1.3704159E0,3.6340106E2,7.243085E0,3.4302695E2,2.0374096E1,4.243085E0,3E0],"tree_param":{"num_deleted":"0","num_feature":"59","num_nodes":"9","size_leaf_vector":"1"}},{"base_weights":[2.4267456E-3,7.975387E-5,3.6652762E-2,9.75463E-3,-9.2816554E-2,-5.9948354E-3,3.6151514E-3,2.8416602E-2,-1.6105497E-2],"categories":[],"categories_nodes":[],"categories_segments":[],"categories_sizes":[],"default_left":[0,0,0,0,0,0,0,0,0],"id":84,"left_children":[1,3,-1,5,7,-1,-1,-1,-1],"loss_changes":[3.18571E-1,3.3474454E-1,0E0,6.2280345E-1,9.4950086E-1,0E0,0E0,0E0,0E0],"parents":[2147483647,0,0,1,1,3,3,4,4],"right_children":[2,4,-1,6,8,-1,-1,-1,-1],"split_conditions":[1E0,1E0,3.6652762E-2,1E0,1E0,-5.9948354E-3,3.6151514E-3,2.8416602E-2,-1.6105497E-2],"split_indices":[40,51,0,31,31,0,0,0,0],"split_type":[0,0,0,0,0,0,0,0,0],"sum_hessian":[3.718317E2,3.7044403E2,1.3876606E0,3.3631302E2,3.4131012E1,9.202992E1,2.4428308E2,4.746224E0,2.9384787E1],"tree_param":{"num_deleted":"0","num_feature":"59","num_nodes":"9","size_leaf_vector":"1"}},{"base_weights":[2.3165336E-3,-4.8824328E-5,3.62236E-2,-1.9970477E-1,4.533647E-3,1.6144319E-2,-3.4989156E-2,3.9410066E-2,-6.273142E-5],"categories":[],"categories_nodes":[],"categories_segments":[],"categories_sizes":[],"default_left":[0,0,0,0,0,0,0,0,0],"id":85,"left_children":[1,3,-1,5,7,-1,-1,-1,-1],"loss_changes":[3.1728467E-1,3.40555E-1,0E0,5.0947297E-1,7.318499E-1,0E0,0E0,0E0,0E0],"parents":[2147483647,0,0,1,1,3,3,4,4],"right_children":[2,4,-1,6,8,-1,-1,-1,-1],"split_conditions":[3.5E1,2.5E-1,3.62236E-2,5E-1,2.5E-1,1.6144319E-2,-3.4989156E-2,3.9410066E-2,-6.273142E-5],"split_indices":[0,34,0,13,11,0,0,0,0],"split_type":[0,0,0,0,0,0,0,0,0],"sum_hessian":[3.716685E2,3.702352E2,1.4332875E0,7.351555E0,3.6288364E2,2.1372495E0,5.214305E0,3.7592692E0,3.5912436E2],"tree_param":{"num_deleted":"0","num_feature":"59","num_nodes":"9","size_leaf_vector":"1"}},{"base_weights":[2.2459412E-3,-2.619579E-3,1.7146817E-1,-6.666219E-3,2.329303E-1,4.755241E-2,-3.270259E-2,-1.2065222E-3,1.6362028E-2,3.827699E-2,7.774046E-3,-8.767345E-3,5.4943754E-4],"categories":[],"categories_nodes":[],"categories_segments":[],"categories_sizes":[],"default_left":[0,0,0,0,0,0,0,0,0,0,0,0,0],"id":86,"left_children":[1,3,5,7,9,-1,11,-1,-1,-1,-1,-1,-1],"loss_changes":[3.0716965E-1,3.4765348E-1,6.628298E-1,3.310548E-1,1.1349332E-1,0E0,1.5544226E-2,0E0,0E0,0E0,0E0,0E0,0E0],"parents":[2147483647,0,0,1,1,2,2,3,3,4,4,6,6],"right_children":[2,4,6,8,10,-1,12,-1,-1,-1,-1,-1,-1],"split_conditions":[1E0,1E0,1E0,1E0,1E0,4.755241E-2,1E0,-1.2065222E-3,1.6362028E-2,3.827699E-2,7.774046E-3,-8.767345E-3,5.4943754E-4],"split_indices":[50,5,44,42,16,0,34,0,0,0,0,0,0],"split_type":[0,0,0,0,0,0,0,0,0,0,0,0,0],"sum_hessian":[3.715256E2,3.6209897E2,9.426641E0,3.5693863E2,5.1603446E0,3.2530584E0,6.1735826E0,3.4687012E2,1.0068513E1,1.8793368E0,3.2810078E0,2E0,4.1735826E0],"tree_param":{"num_deleted":"0","num_feature":"59","num_nodes":"13","size_leaf_vector":"1"}},{"base_weights":[2.3112085E-3,1.5384758E-4,3.7972562E-2,3.8224995E-2,-2.1140207E-2,6.0652854E-4,3.3859674E-2,1.7581845E-2,-3.858864E-3],"categories":[],"categories_nodes":[],"categories_segments":[],"categories_sizes":[],"default_left":[0,0,0,0,0,0,0,0,0],"id":87,"left_children":[1,3,-1,5,7,-1,-1,-1,-1],"loss_changes":[3.030355E-1,3.0168372E-1,0E0,1.2873545E0,8.269501E-1,0E0,0E0,0E0,0E0],"parents":[2147483647,0,0,1,1,3,3,4,4],"right_children":[2,4,-1,6,8,-1,-1,-1,-1],"split_conditions":[1E0,7.5E-1,3.7972562E-2,1E0,1E0,6.0652854E-4,3.3859674E-2,1.7581845E-2,-3.858864E-3],"split_indices":[18,11,0,10,2,0,0,0,0],"split_type":[0,0,0,0,0,0,0,0,0],"sum_hessian":[3.71251E2,3.7013568E2,1.1153469E0,1.3248094E2,2.3765472E2,1.20590004E2,1.1890942E1,1.860168E1,2.1905304E2],"tree_param":{"num_deleted":"0","num_feature":"59","num_nodes":"9","size_leaf_vector":"1"}},{"base_weights":[2.327531E-3,9.474594E-5,3.607368E-2,-6.931104E-3,1.1767731E-1,-2.3125151E-2,-2.3048048E-4,3.944715E-3,3.6025096E-2],"categories":[],"categories_nodes":[],"categories_segments":[],"categories_sizes":[],"default_left":[0,0,0,0,0,0,0,0,0],"id":88,"left_children":[1,3,-1,5,7,-1,-1,-1,-1],"loss_changes":[2.9766145E-1,3.0705732E-1,0E0,3.634588E-1,3.834805E-1,0E0,0E0,0E0,0E0],"parents":[2147483647,0,0,1,1,3,3,4,4],"right_children":[2,4,-1,6,8,-1,-1,-1,-1],"split_conditions":[1E0,1E0,3.607368E-2,2.5E-1,1E0,-2.3125151E-2,-2.3048048E-4,3.944715E-3,3.6025096E-2],"split_indices":[57,32,0,44,46,0,0,0,0],"split_type":[0,0,0,0,0,0,0,0,0],"sum_hessian":[3.7100284E2,3.6969998E2,1.3028584E0,3.49743E2,1.995696E1,6.0773563E0,3.4366565E2,1.5969429E1,3.987532E0],"tree_param":{"num_deleted":"0","num_feature":"59","num_nodes":"9","size_leaf_vector":"1"}},{"base_weights":[2.242631E-3,8.97827E-3,-1.13887414E-1,2.8785309E-3,3.2270324E-1,2.5774036E-2,-1.4475656E-1,1.0391353E-2,-8.2372216E-4,-6.148704E-4,5.1488884E-2,1.4187864E-2,-8.1622815E-3,-1.7387947E-2,1.6019716E-3],"categories":[],"categories_nodes":[],"categories_segments":[],"categories_sizes":[],"default_left":[0,0,0,0,0,0,0,0,0,0,0,0,0,0,0],"id":89,"left_children":[1,3,5,7,9,11,13,-1,-1,-1,-1,-1,-1,-1,-1],"loss_changes":[2.9195222E-1,6.7357224E-1,9.195113E-2,3.9029157E-1,4.27454E-1,6.835327E-2,8.196211E-2,0E0,0E0,0E0,0E0,0E0,0E0,0E0,0E0],"parents":[2147483647,0,0,1,1,2,2,3,3,4,4,5,5,6,6],"right_children":[2,4,6,8,10,12,14,-1,-1,-1,-1,-1,-1,-1,-1],"split_conditions":[1E0,1E0,2.4E1,5E-1,1E0,1E0,1E0,1.0391353E-2,-8.2372216E-4,-6.148704E-4,5.1488884E-2,1.4187864E-2,-8.1622815E-3,-1.7387947E-2,1.6019716E-3],"split_indices":[55,42,0,11,31,31,16,0,0,0,0,0,0,0,0],"split_type":[0,0,0,0,0,0,0,0,0,0,0,0,0,0,0],"sum_hessian":[3.7093304E2,3.5147015E2,1.9462873E1,3.457568E2,5.713357E0,3.5530128E0,1.5909861E1,3.3442036E1,3.1231476E2,2.4644325E0,3.2489247E0,1.5530128E0,2E0,1.3400925E1,2.508935E0],"tree_param":{"num_deleted":"0","num_feature":"59","num_nodes":"15","size_leaf_vector":"1"}},{"base_weights":[2.1699734E-3,-5.2927066E-5,3.4898385E-2,8.26896E-2,-9.713767E-3,3.7631372E-3,6.2406875E-2,-9.777754E-3,6.090292E-4],"categories":[],"categories_nodes":[],"categories_segments":[],"categories_sizes":[],"default_left":[0,0,0,0,0,0,0,0,0],"id":90,"left_children":[1,3,-1,5,7,-1,-1,-1,-1],"loss_changes":[2.8656876E-1,2.9682755E-1,0E0,9.235461E-1,4.6336105E-1,0E0,0E0,0E0,0E0],"parents":[2147483647,0,0,1,1,3,3,4,4],"right_children":[2,4,-1,6,8,-1,-1,-1,-1],"split_conditions":[3.5E1,2.3E1,3.4898385E-2,1E0,7.5E-1,3.7631372E-3,6.2406875E-2,-9.777754E-3,6.090292E-4],"split_indices":[0,0,0,12,13,0,0,0,0],"split_type":[0,0,0,0,0,0,0,0,0],"sum_hessian":[3.7069293E2,3.693256E2,1.3673419E0,3.7822937E1,3.3150266E2,3.590419E1,1.9187458E0,4.9650738E1,2.8185193E2],"tree_param":{"num_deleted":"0","num_feature":"59","num_nodes":"9","size_leaf_vector":"1"}},{"base_weights":[2.2115381E-3,-1.9119474E-3,1.8780546E-1,1.4406614E-1,-7.307937E-3,4.074259E-1,-1.3844035E-2,-2.1898132E-2,3.1581767E-2,-6.6855624E-2,-3.099263E-4,5.3074814E-2,6.626577E-3],"categories":[],"categories_nodes":[],"categories_segments":[],"categories_sizes":[],"default_left":[0,0,0,0,0,0,0,0,0,0,0,0,0],"id":91,"left_children":[1,3,5,7,9,11,-1,-1,-1,-1,-1,-1,-1],"loss_changes":[2.8474566E-1,2.8818196E-1,6.3582957E-1,8.823867E-1,9.7885936E-1,1.7884684E-1,0E0,0E0,0E0,0E0,0E0,0E0,0E0],"parents":[2147483647,0,0,1,1,2,2,3,3,4,4,5,5],"right_children":[2,4,6,8,10,12,-1,-1,-1,-1,-1,-1,-1],"split_conditions":[1E0,5E-1,1E0,1E0,2.5E-1,1E0,-1.3844035E-2,-2.1898132E-2,3.1581767E-2,-6.6855624E-2,-3.099263E-4,5.3074814E-2,6.626577E-3],"split_indices":[49,6,8,2,44,34,0,0,0,0,0,0,0],"split_type":[0,0,0,0,0,0,0,0,0,0,0,0,0],"sum_hessian":[3.7060443E2,3.6351758E2,7.0868564E0,1.2042133E1,3.5147543E2,4.0868564E0,3E0,3.7790365E0,8.263097E0,1.2245691E0,3.502509E2,2.5936067E0,1.4932498E0],"tree_param":{"num_deleted":"0","num_feature":"59","num_nodes":"13","size_leaf_vector":"1"}},{"base_weights":[1.9769035E-3,-7.213205E-5,3.6685046E-2,-3.6084813E-3,2.1475172E-1,1.7544143E-2,-7.972855E-4,4.3871325E-2,4.1819904E-3],"categories":[],"categories_nodes":[],"categories_segments":[],"categories_sizes":[],"default_left":[0,0,0,0,0,0,0,0,0],"id":92,"left_children":[1,3,-1,5,7,-1,-1,-1,-1],"loss_changes":[2.7769554E-1,2.8210446E-1,0E0,2.868642E-1,2.1457082E-1,0E0,0E0,0E0,0E0],"parents":[2147483647,0,0,1,1,3,3,4,4],"right_children":[2,4,-1,6,8,-1,-1,-1,-1],"split_conditions":[1E0,1E0,3.6685046E-2,5E-1,1E0,1.7544143E-2,-7.972855E-4,4.3871325E-2,4.1819904E-3],"split_indices":[18,52,0,13,6,0,0,0,0],"split_type":[0,0,0,0,0,0,0,0,0],"sum_hessian":[3.7039462E2,3.6932043E2,1.0742059E0,3.6430655E2,5.013874E0,7.736001E0,3.5657056E2,1.5149587E0,3.4989154E0],"tree_param":{"num_deleted":"0","num_feature":"59","num_nodes":"9","size_leaf_vector":"1"}},{"base_weights":[2.0598993E-3,-6.153515E-5,3.4522932E-2,-4.6368423E-3,1.6158168E-1,-1.9231869E-3,6.4583826E-3,4.5859322E-2,-2.810206E-3],"categories":[],"categories_nodes":[],"categories_segments":[],"categories_sizes":[],"default_left":[0,0,0,0,0,0,0,0,0],"id":93,"left_children":[1,3,-1,5,7,-1,-1,-1,-1],"loss_changes":[2.7032664E-1,2.7439758E-1,0E0,3.657488E-1,5.8825755E-1,0E0,0E0,0E0,0E0],"parents":[2147483647,0,0,1,1,3,3,4,4],"right_children":[2,4,-1,6,8,-1,-1,-1,-1],"split_conditions":[1E0,1E0,3.4522932E-2,1E0,1E0,-1.9231869E-3,6.4583826E-3,4.5859322E-2,-2.810206E-3],"split_indices":[40,50,0,35,44,0,0,0,0],"split_type":[0,0,0,0,0,0,0,0,0],"sum_hessian":[3.702928E2,3.690114E2,1.281366E0,3.597986E2,9.212777E0,2.9774246E2,6.205618E1,3.03805E0,6.174727E0],"tree_param":{"num_deleted":"0","num_feature":"59","num_nodes":"9","size_leaf_vector":"1"}},{"base_weights":[2.0903805E-3,-4.0261084E-6,3.4643646E-2,1.5524308E-2,-4.8130896E-2,-3.310026E-4,2.3894595E-2,-3.3707708E-2,4.422733E-3],"categories":[],"categories_nodes":[],"categories_segments":[],"categories_sizes":[],"default_left":[0,0,0,0,0,0,0,0,0],"id":94,"left_children":[1,3,-1,5,7,-1,-1,-1,-1],"loss_changes":[2.6762235E-1,2.7713495E-1,0E0,1.1805907E0,2.4290469E0,0E0,0E0,0E0,0E0],"parents":[2147483647,0,0,1,1,3,3,4,4],"right_children":[2,4,-1,6,8,-1,-1,-1,-1],"split_conditions":[1E0,1E0,3.4643646E-2,1E0,1E0,-3.310026E-4,2.3894595E-2,-3.3707708E-2,4.422733E-3],"split_indices":[57,21,0,35,13,0,0,0,0],"split_type":[0,0,0,0,0,0,0,0,0],"sum_hessian":[3.700769E2,3.6883356E2,1.243358E0,2.7937082E2,8.946273E1,2.5855957E2,2.081126E1,2.1027555E1,6.843517E1],"tree_param":{"num_deleted":"0","num_feature":"59","num_nodes":"9","size_leaf_vector":"1"}},{"base_weights":[1.9718108E-3,-1.8710275E-3,1.9752307E-1,1.7286023E-1,-6.107552E-3,2.5761223E-1,2.837648E-2,-2.9865708E-4,5.5449378E-2,-1.8346688E-2,-1.0750763E-6,3.271626E-2,-1.5775788E-3,7.610814E-3,-3.3543424E-3],"categories":[],"categories_nodes":[],"categories_segments":[],"categories_sizes":[],"default_left":[0,0,0,0,0,0,0,0,0,0,0,0,0,0,0],"id":95,"left_children":[1,3,5,7,9,11,13,-1,-1,-1,-1,-1,-1,-1,-1],"loss_changes":[2.7909184E-1,2.710588E-1,6.5438986E-2,5.833806E-1,3.861129E-1,1.032294E-1,1.1419547E-2,0E0,0E0,0E0,0E0,0E0,0E0,0E0,0E0],"parents":[2147483647,0,0,1,1,2,2,3,3,4,4,5,5,6,6],"right_children":[2,4,6,8,10,12,14,-1,-1,-1,-1,-1,-1,-1,-1],"split_conditions":[1E0,2.5E-1,1E0,7.5E-1,2.5E-1,1E0,1E0,-2.9865708E-4,5.5449378E-2,-1.8346688E-2,-1.0750763E-6,3.271626E-2,-1.5775788E-3,7.610814E-3,-3.3543424E-3],"split_indices":[5,21,22,44,35,9,6,0,0,0,0,0,0,0,0],"split_type":[0,0,0,0,0,0,0,0,0,0,0,0,0,0,0],"sum_hessian":[3.6990176E2,3.6374414E2,6.1576166E0,7.6683483E0,3.560758E2,4.1576166E0,2E0,5.928722E0,1.7396264E0,1.0866649E1,3.4520917E2,3.1576166E0,1E0,1E0,1E0],"tree_param":{"num_deleted":"0","num_feature":"59","num_nodes":"15","size_leaf_vector":"1"}},{"base_weights":[1.9802093E-3,-1.4924323E-4,3.4037005E-2,-1.8328442E-1,4.0427917E-3,1.4994566E-2,-3.1947073E-2,2.7251178E-2,-2.2755626E-4],"categories":[],"categories_nodes":[],"categories_segments":[],"categories_sizes":[],"default_left":[0,0,0,0,0,0,0,0,0],"id":96,"left_children":[1,3,-1,5,7,-1,-1,-1,-1],"loss_changes":[2.672399E-1,2.8439066E-1,0E0,4.2410365E-1,6.1498916E-1,0E0,0E0,0E0,0E0],"parents":[2147483647,0,0,1,1,3,3,4,4],"right_children":[2,4,-1,6,8,-1,-1,-1,-1],"split_conditions":[3.5E1,2.5E-1,3.4037005E-2,5E-1,5E-1,1.4994566E-2,-3.1947073E-2,2.7251178E-2,-2.2755626E-4],"split_indices":[0,34,0,13,6,0,0,0,0],"split_type":[0,0,0,0,0,0,0,0,0],"sum_hessian":[3.6979468E2,3.6847546E2,1.3192192E0,7.289755E0,3.611857E2,2.0855796E0,5.2041755E0,7.3362393E0,3.5384946E2],"tree_param":{"num_deleted":"0","num_feature":"59","num_nodes":"9","size_leaf_vector":"1"}},{"base_weights":[1.9081669E-3,-1.4107786E-3,2.0629354E-1,-8.787583E-3,9.2518754E-2,4.199974E-2,4.4105392E-2,-3.375409E-2,-2.4918286E-4,6.2720075E-2,3.4291444E-3,-6.4492906E-3,1.6649794E-2],"categories":[],"categories_nodes":[],"categories_segments":[],"categories_sizes":[],"default_left":[0,0,0,0,0,0,0,0,0,0,0,0,0],"id":97,"left_children":[1,3,5,7,9,-1,11,-1,-1,-1,-1,-1,-1],"loss_changes":[2.5172833E-1,2.5422984E-1,1.8700027E-1,7.029059E-1,8.1031597E-1,0E0,7.0397526E-2,0E0,0E0,0E0,0E0,0E0,0E0],"parents":[2147483647,0,0,1,1,2,2,3,3,4,4,6,6],"right_children":[2,4,6,8,10,-1,12,-1,-1,-1,-1,-1,-1],"split_conditions":[1E0,1E0,1E0,2.5E-1,5E-1,4.199974E-2,1E0,-3.375409E-2,-2.4918286E-4,6.2720075E-2,3.4291444E-3,-6.4492906E-3,1.6649794E-2],"split_indices":[52,4,6,44,34,0,47,0,0,0,0,0,0],"split_type":[0,0,0,0,0,0,0,0,0,0,0,0,0],"sum_hessian":[3.6966348E2,3.6473376E2,4.9296923E0,3.3901547E2,2.5718307E1,1.4411811E0,3.488511E0,5.3816385E0,3.3363382E2,1.5660652E0,2.4152243E1,2.0990763E0,1.3894349E0],"tree_param":{"num_deleted":"0","num_feature":"59","num_nodes":"13","size_leaf_vector":"1"}},{"base_weights":[1.9547201E-3,-1.8806439E-3,1.7780046E-1,4.6642236E-3,-1.13749675E-1,3.8814077E-1,-1.2541035E-2,-1.2083225E-4,3.0877236E-2,-7.4545327E-3,-2.5329947E-2,6.3133794E-3,5.2904334E-2],"categories":[],"categories_nodes":[],"categories_segments":[],"categories_sizes":[],"default_left":[0,0,0,0,0,0,0,0,0,0,0,0,0],"id":98,"left_children":[1,3,5,7,9,11,-1,-1,-1,-1,-1,-1,-1],"loss_changes":[2.5027058E-1,2.6679567E-1,5.538454E-1,6.1566013E-1,9.1300935E-2,1.9194412E-1,0E0,0E0,0E0,0E0,0E0,0E0,0E0],"parents":[2147483647,0,0,1,1,2,2,3,3,4,4,5,5],"right_children":[2,4,6,8,10,12,-1,-1,-1,-1,-1,-1,-1],"split_conditions":[1E0,1E0,1E0,1E0,1E0,2.5E1,-1.2541035E-2,-1.2083225E-4,3.0877236E-2,-7.4545327E-3,-2.5329947E-2,6.3133794E-3,5.2904334E-2],"split_indices":[49,55,8,42,14,0,0,0,0,0,0,0,0],"split_type":[0,0,0,0,0,0,0,0,0,0,0,0,0],"sum_hessian":[3.6958746E2,3.6266666E2,6.920801E0,3.43527E2,1.9139648E1,3.9208014E0,3E0,3.379961E2,5.5309205E0,1.6139648E1,3E0,1.6236786E0,2.297123E0],"tree_param":{"num_deleted":"0","num_feature":"59","num_nodes":"13","size_leaf_vector":"1"}},{"base_weights":[1.8935188E-3,-4.424263E-3,1.0850347E-1,-1.2407936E-2,1.14862815E-1,4.7781773E-2,5.987534E-2,-2.5426203E-2,-7.4132247E-4,5.220047E-3,5.2671205E-2,-2.2803037E-3,2.317875E-2],"categories":[],"categories_nodes":[],"categories_segments":[],"categories_sizes":[],"default_left":[0,0,0,0,0,0,0,0,0,0,0,0,0],"id":99,"left_children":[1,3,5,7,9,-1,11,-1,-1,-1,-1,-1,-1],"loss_changes":[2.499428E-1,3.3533442E-1,3.4422094E-1,3.9617828E-1,5.4263306E-1,0E0,2.822741E-1,0E0,0E0,0E0,0E0,0E0,0E0],"parents":[2147483647,0,0,1,1,2,2,3,3,4,4,6,6],"right_children":[2,4,6,8,10,-1,12,-1,-1,-1,-1,-1,-1],"split_conditions":[1E0,1E0,7.5E-1,2.5E-1,1E0,4.7781773E-2,1E0,-2.5426203E-2,-7.4132247E-4,5.220047E-3,5.2671205E-2,-2.2803037E-3,2.317875E-2],"split_indices":[32,19,13,44,11,0,44,0,0,0,0,0,0],"split_type":[0,0,0,0,0,0,0,0,0,0,0,0,0],"sum_hessian":[3.6937643E2,3.4961642E2,1.976002E1,3.285248E2,2.1091602E1,1.2721924E0,1.8487827E1,5.637537E0,3.2288727E2,1.9284271E1,1.8073311E0,1.306958E1,5.4182467E0],"tree_param":{"num_deleted":"0","num_feature":"59","num_nodes":"13","size_leaf_vector":"1"}}]},"name":"gbtree"},"learner_model_param":{"base_score":"[5E-1]","boost_from_average":"1","num_class":"0","num_feature":"59","num_target":"1"},"objective":{"aft_loss_param":{"aft_loss_distribution":"normal","aft_loss_distribution_scale":"1"},"name":"survival:aft"}},"version":[3,1,2]}